%YAML:1.0
my_svm: !!opencv-ml-svm
   svm_type: C_SVC
   kernel: { type:RBF, gamma:8.9999999999999997e-002 }
   C: 10.
   term_criteria: { epsilon:1.1920928955078125e-007,
       iterations:2147483647 }
   var_all: 324
   var_count: 324
   class_count: 3
   class_labels: !!opencv-matrix
      rows: 1
      cols: 3
      dt: i
      data: [ 1, 2, 3 ]
   sv_total: 103
   support_vectors:
      - [ 6.59557506e-002, 5.53839765e-002, 6.63407221e-002,
          9.86887440e-002, 4.32621092e-002, 6.42592972e-003,
          1.40363080e-002, 1.60333011e-002, 3.64903025e-002,
          2.54235297e-001, 2.20587090e-001, 1.52891681e-001,
          2.09789202e-001, 1.15908220e-001, 4.81121950e-002,
          3.66165340e-002, 6.43721148e-002, 2.32156783e-001,
          1.06427327e-001, 6.20678514e-002, 1.01159580e-001,
          2.38726676e-001, 2.12842524e-001, 6.22320697e-002,
          1.67976946e-001, 2.88629849e-002, 6.97400793e-002,
          2.54235297e-001, 2.51988977e-001, 2.43285060e-001,
          2.54235297e-001, 2.54235297e-001, 2.54235297e-001,
          2.54235297e-001, 2.00997621e-001, 2.54235297e-001,
          1.99444696e-001, 1.50983974e-001, 1.03500068e-001,
          1.48836762e-001, 1.95203587e-001, 1.21145651e-001,
          1.29415199e-001, 1.00722969e-001, 1.61130920e-001,
          9.67116505e-002, 1.08525313e-001, 8.96971449e-002,
          1.26436487e-001, 2.28072435e-001, 1.46861181e-001,
          1.76615134e-001, 1.40731916e-001, 9.98577252e-002,
          2.28072435e-001, 1.49534330e-001, 1.49612695e-001,
          1.70480043e-001, 2.01856777e-001, 2.28072435e-001,
          2.28072435e-001, 2.28072435e-001, 1.82442755e-001,
          8.47174898e-002, 1.14771754e-001, 1.15688965e-001,
          1.26236364e-001, 2.28072435e-001, 2.28072435e-001,
          2.28072435e-001, 2.28072435e-001, 5.72842397e-002,
          1.21416971e-001, 1.06127538e-001, 8.27585608e-002,
          1.41048223e-001, 2.86529988e-001, 1.75105646e-001,
          1.29000396e-001, 1.35331780e-001, 1.17726244e-001,
          8.18758830e-002, 5.74898534e-002, 5.07485718e-002,
          1.17020950e-001, 2.86529988e-001, 2.41556704e-001,
          3.02650742e-002, 5.93008958e-002, 9.09405947e-002,
          8.50223973e-002, 1.26941398e-001, 1.10779628e-001,
          1.97068006e-001, 2.86529988e-001, 2.86529988e-001,
          2.86529988e-001, 1.59105182e-001, 3.33146565e-002,
          6.72709197e-002, 2.90065054e-002, 2.68393047e-002,
          2.86529988e-001, 2.86529988e-001, 2.86529988e-001,
          2.46173628e-002, 2.43666321e-002, 5.12157120e-002,
          4.73877117e-002, 1.34917302e-002, 3.07882540e-002,
          8.49375278e-002, 2.28952259e-001, 9.04400647e-002,
          1.07081980e-001, 3.69393490e-002, 6.39195666e-002,
          1.63131908e-001, 6.36463687e-002, 8.15911368e-002,
          1.88166603e-001, 2.77485669e-001, 2.77485669e-001,
          2.77485669e-001, 2.33973116e-001, 2.10179493e-001,
          2.96873003e-002, 6.03135582e-003, 2.74953227e-002,
          3.19959931e-002, 2.12351486e-001, 1.49294972e-001,
          5.94387054e-002, 5.31052426e-002, 6.62145093e-002,
          1.90476760e-001, 1.11442365e-001, 1.48184434e-001,
          1.13862231e-001, 2.77485669e-001, 2.77485669e-001,
          2.77485669e-001, 1.84518933e-001, 2.77485669e-001,
          9.63321403e-002, 3.13957371e-002, 4.58025225e-002,
          8.51318091e-002, 2.49645665e-001, 2.49645665e-001,
          2.49645665e-001, 1.63656548e-001, 9.76165533e-002,
          3.72000486e-002, 1.75435878e-002, 2.75738873e-002,
          7.11156800e-002, 2.49645665e-001, 2.49645665e-001,
          2.49645665e-001, 1.40048414e-001, 3.03611513e-002,
          1.68651015e-001, 7.69201815e-002, 9.24069062e-002,
          9.40815806e-002, 2.49645665e-001, 1.90183014e-001,
          2.49645665e-001, 1.55347466e-001, 1.90750569e-001,
          1.04965001e-001, 4.88320179e-002, 5.95683157e-002,
          1.30274817e-001, 2.49645665e-001, 1.95246339e-001,
          2.49645665e-001, 2.26441056e-001, 1.36199340e-001,
          3.54603864e-002, 4.33076955e-002, 2.97868457e-002,
          1.33392572e-001, 3.06113869e-001, 3.06113869e-001,
          3.06113869e-001, 1.49128795e-001, 2.30412353e-002,
          6.61175326e-002, 3.98420952e-002, 1.82886012e-002,
          1.78667694e-001, 3.06113869e-001, 8.88068751e-002,
          2.90543027e-002, 2.22665966e-002, 4.34359014e-002,
          1.45534799e-001, 1.09567478e-001, 5.29064275e-002,
          2.18843043e-001, 3.06113869e-001, 2.85616279e-001,
          3.06113869e-001, 3.03464681e-001, 1.57950774e-001,
          6.36256114e-002, 4.19391468e-002, 1.67125687e-002,
          5.95112443e-002, 1.92106828e-001, 6.16597533e-002,
          4.64248806e-002, 4.36707176e-002, 6.24831580e-002,
          4.80359010e-002, 1.37424003e-002, 1.97899695e-002,
          2.44427975e-002, 1.48970276e-001, 1.71728328e-001,
          1.71817541e-001, 1.34746894e-001, 8.71490091e-002,
          2.47458652e-001, 1.84853122e-001, 1.89493626e-001,
          8.86117741e-002, 2.47458652e-001, 2.47458652e-001,
          2.47458652e-001, 8.08644444e-002, 2.47458652e-001,
          1.11788154e-001, 3.60066555e-002, 8.93736351e-003,
          1.67712308e-002, 6.91283867e-002, 1.62598178e-001,
          2.41894662e-001, 2.47458652e-001, 1.07362248e-001,
          1.75067306e-001, 8.82331580e-002, 8.45996812e-002,
          5.41506559e-002, 2.47458652e-001, 2.05164656e-001,
          2.47458652e-001, 2.47458652e-001, 2.13231534e-001,
          2.46763870e-001, 1.96606606e-001, 2.14065045e-001,
          1.38648197e-001, 2.46763870e-001, 2.46763870e-001,
          2.46763870e-001, 1.52513102e-001, 2.46763870e-001,
          2.46763870e-001, 1.07605331e-001, 1.39226064e-001,
          1.85520694e-001, 2.46763870e-001, 1.49079010e-001,
          2.46763870e-001, 2.46763870e-001, 2.46763870e-001,
          1.69872358e-001, 7.24873766e-002, 7.69915432e-002,
          5.20604439e-002, 2.03951225e-001, 1.14383869e-001,
          1.29172549e-001, 7.46448711e-002, 1.63039103e-001,
          8.88719484e-002, 2.38846336e-002, 2.54117362e-002,
          2.23062374e-002, 7.11048469e-002, 4.70994376e-002,
          5.11089861e-002, 4.89310548e-002, 7.66957253e-002,
          3.36216897e-001, 2.73813367e-001, 1.85426235e-001,
          3.36216897e-001, 3.36216897e-001, 3.12862784e-001,
          3.36216897e-001, 3.36216897e-001, 3.36216897e-001,
          8.04805905e-002, 5.11631034e-002, 2.57861316e-002,
          4.99501824e-002, 2.12387726e-001, 5.86121455e-002,
          5.34038655e-002, 4.82508540e-002, 9.87241194e-002,
          9.03541446e-002, 3.00764143e-002, 3.28019001e-002,
          2.92050745e-002, 4.95141298e-002, 6.14900477e-002,
          7.67210051e-002, 7.61036351e-002, 7.96775296e-002,
          7.28768343e-003, 7.33952853e-004, 1.39757118e-003,
          8.07384436e-004, 7.73502933e-003, 1.74279616e-003,
          1.56817166e-003, 8.64381727e-004, 6.81191217e-003 ]
      - [ 7.23160580e-002, 4.97500598e-002, 6.86133355e-002,
          7.05679059e-002, 8.87074545e-002, 5.54542243e-002,
          5.52225076e-002, 5.02577908e-002, 5.33424504e-002,
          2.58121789e-001, 2.58121789e-001, 1.77138388e-001,
          1.12879992e-001, 2.10478216e-001, 1.11373805e-001,
          6.05829284e-002, 1.28373548e-001, 1.51711285e-001,
          6.44073039e-002, 8.46811384e-002, 8.40096772e-002,
          1.23409167e-001, 2.13454053e-001, 1.92340851e-001,
          2.12721765e-001, 1.52345806e-001, 8.48818868e-002,
          2.58121789e-001, 2.58121789e-001, 1.83377609e-001,
          2.33426929e-001, 2.58121789e-001, 2.58121789e-001,
          2.36424536e-001, 2.34485433e-001, 1.61512658e-001,
          2.25268677e-001, 2.25268677e-001, 9.07551050e-002,
          7.19258264e-002, 1.69276491e-001, 1.24768429e-001,
          5.91272712e-002, 1.49197310e-001, 1.34411663e-001,
          1.69879019e-001, 1.14873618e-001, 4.65123542e-002,
          1.08632438e-001, 2.25268677e-001, 1.74010381e-001,
          1.44279629e-001, 1.88292921e-001, 2.25268677e-001,
          2.10995510e-001, 2.25268677e-001, 9.95554700e-002,
          8.56571868e-002, 2.25268677e-001, 1.99546486e-001,
          1.27360597e-001, 2.25268677e-001, 9.43694785e-002,
          1.49434134e-001, 1.01673134e-001, 6.44306466e-002,
          1.07165083e-001, 2.25268677e-001, 2.25268677e-001,
          1.72255412e-001, 2.25268677e-001, 2.03903779e-001,
          1.62378296e-001, 4.88608144e-002, 1.98835526e-002,
          1.49234697e-001, 2.48404607e-001, 2.23508477e-001,
          2.25331008e-001, 1.95376948e-001, 2.48404607e-001,
          1.07552677e-001, 9.13163554e-003, 1.57377999e-002,
          7.46374056e-002, 2.48404607e-001, 9.11295786e-002,
          1.01171881e-001, 5.67713901e-002, 1.64114997e-001,
          2.26940528e-001, 6.38947189e-002, 3.08699496e-002,
          1.86869413e-001, 2.48404607e-001, 2.48404607e-001,
          2.48404607e-001, 2.48404607e-001, 2.48404607e-001,
          9.98513475e-002, 1.82062555e-002, 2.09999643e-002,
          5.89711182e-002, 8.25961009e-002, 1.56372100e-001,
          2.48404607e-001, 1.50629789e-001, 1.61378220e-001,
          5.00782803e-002, 3.04045398e-002, 2.26002317e-002,
          5.03894426e-002, 1.94830507e-001, 1.90123916e-001,
          1.45919174e-001, 9.86203477e-002, 4.99054939e-002,
          1.01445399e-001, 1.19012952e-001, 5.81715666e-002,
          1.60386696e-001, 2.90610254e-001, 2.90610254e-001,
          2.48097569e-001, 1.84513971e-001, 7.94101954e-002,
          3.94223966e-002, 1.07043507e-002, 1.08162155e-002,
          6.07626289e-002, 2.61340380e-001, 9.94323045e-002,
          3.54307480e-002, 3.70289907e-002, 4.22744378e-002,
          1.49348125e-001, 1.23404555e-001, 6.64085522e-002,
          2.56941468e-001, 2.90610254e-001, 2.90610254e-001,
          2.29578897e-001, 2.47351140e-001, 2.82464385e-001,
          5.94674721e-002, 5.83255924e-002, 5.54562062e-002,
          8.62797648e-002, 2.54530609e-001, 1.75255686e-001,
          1.40613973e-001, 1.12805359e-001, 3.65679041e-002,
          5.96208535e-002, 1.79504622e-002, 5.59993684e-002,
          9.61327255e-002, 2.54530609e-001, 2.22626641e-001,
          1.47423267e-001, 2.06808478e-001, 7.18069598e-002,
          9.41087604e-002, 6.33413270e-002, 4.98875566e-002,
          1.82261631e-001, 2.54530609e-001, 2.54530609e-001,
          2.54530609e-001, 2.54530609e-001, 1.55638129e-001,
          5.34138009e-002, 1.22905532e-002, 7.07606822e-002,
          1.71225548e-001, 2.54530609e-001, 2.54530609e-001,
          2.54530609e-001, 2.54530609e-001, 1.48275018e-001,
          1.50319964e-001, 4.89936657e-002, 5.60258143e-002,
          1.49054378e-001, 2.76914984e-001, 2.67839223e-001,
          2.76914984e-001, 2.76914984e-001, 1.77388459e-001,
          5.51007353e-002, 3.68443802e-002, 3.20601538e-002,
          4.06527892e-002, 3.13220434e-002, 1.08947434e-001,
          2.16761082e-001, 1.18138805e-001, 9.38854218e-002,
          9.88109410e-002, 6.09334111e-002, 1.26895875e-001,
          1.90079719e-001, 2.76914984e-001, 2.76914984e-001,
          2.76914984e-001, 2.76914984e-001, 2.43872434e-001,
          4.71748039e-002, 5.55708483e-002, 6.34002835e-002,
          5.76024875e-002, 8.23825821e-002, 1.42294943e-001,
          1.83150128e-001, 1.20163649e-001, 6.60967529e-002,
          1.87947899e-002, 1.67549737e-002, 1.76562537e-002,
          1.07289031e-001, 2.52052903e-001, 6.68947399e-002,
          5.35121076e-002, 7.30716437e-002, 4.43359986e-002,
          1.28326043e-001, 1.88132212e-001, 7.48669878e-002,
          2.93863267e-001, 2.93863267e-001, 2.93863267e-001,
          2.93863267e-001, 2.93863267e-001, 2.93863267e-001,
          1.25542441e-002, 7.69259362e-003, 1.23257861e-002,
          2.75298133e-002, 5.67434877e-002, 3.74693908e-002,
          7.70092532e-002, 6.82560652e-002, 2.80174222e-002,
          6.01564385e-002, 8.62484500e-002, 1.82302576e-002,
          1.10676184e-001, 1.93303466e-001, 2.35392734e-001,
          2.93863267e-001, 2.93863267e-001, 1.56785205e-001,
          9.41337198e-002, 7.63074160e-002, 5.47993705e-002,
          1.94836959e-001, 2.61480451e-001, 2.61480451e-001,
          2.61480451e-001, 2.61480451e-001, 2.26497829e-001,
          7.27272928e-002, 2.76371557e-002, 1.07524499e-001,
          1.77990779e-001, 2.61480451e-001, 2.61480451e-001,
          2.61480451e-001, 2.61480451e-001, 1.99920669e-001,
          4.50482555e-002, 4.01606262e-002, 9.63289570e-003,
          4.73806672e-002, 2.61480451e-001, 1.37317315e-001,
          1.60775959e-001, 1.79553553e-001, 1.06697589e-001,
          4.09085751e-002, 2.84795500e-002, 2.58268900e-002,
          4.11571525e-002, 2.61480451e-001, 6.12007268e-002,
          5.47224320e-002, 6.52070493e-002, 8.54808018e-002,
          1.26431763e-001, 6.41920194e-002, 1.55409768e-001,
          1.79686546e-001, 2.60352999e-001, 2.60352999e-001,
          2.60352999e-001, 2.60352999e-001, 2.60352999e-001,
          1.14135668e-001, 4.73887175e-002, 6.22679144e-002,
          6.76408112e-002, 8.61028135e-002, 1.30504519e-001,
          1.56365022e-001, 1.63906008e-001, 1.45237923e-001,
          9.85151529e-002, 6.67953715e-002, 6.07693605e-002,
          7.22755641e-002, 2.60352999e-001, 7.88186938e-002,
          1.60243258e-001, 1.40926704e-001, 1.94866508e-001,
          1.92306995e-001, 6.86949939e-002, 4.80614193e-002,
          6.44047633e-002, 5.75071089e-002, 1.61081746e-001,
          2.60352999e-001, 2.60352999e-001, 2.60352999e-001 ]
      - [ 7.94835165e-002, 4.26387675e-002, 1.59538053e-002,
          6.22678287e-002, 2.33192921e-001, 1.53258055e-001,
          1.50778443e-001, 1.10493511e-001, 9.92527902e-002,
          2.33192921e-001, 2.06400231e-001, 1.62742242e-001,
          2.00565979e-001, 2.33192921e-001, 1.95242926e-001,
          1.70697019e-001, 2.00379521e-001, 2.33192921e-001,
          4.33213077e-002, 2.69950032e-002, 1.71124153e-002,
          4.25189063e-002, 1.05754405e-001, 8.52109566e-002,
          9.62345004e-002, 7.01102316e-002, 9.06274542e-002,
          2.33192921e-001, 2.33192921e-001, 1.16085298e-001,
          2.33192921e-001, 2.33192921e-001, 2.33192921e-001,
          2.33192921e-001, 2.07876816e-001, 2.33192921e-001,
          2.54645914e-001, 1.50887713e-001, 1.24816813e-001,
          6.96286038e-002, 1.52831912e-001, 7.50953928e-002,
          4.25734259e-002, 8.40233788e-002, 1.93640232e-001,
          2.54645914e-001, 2.54645914e-001, 2.54645914e-001,
          8.47164243e-002, 1.15732670e-001, 3.39278691e-002,
          3.11473068e-002, 4.74163778e-002, 2.30574206e-001,
          2.54645914e-001, 1.50884718e-001, 7.98165053e-002,
          1.46790281e-001, 1.97525293e-001, 1.22853294e-001,
          1.02099411e-001, 1.14755817e-001, 2.54645914e-001,
          2.54645914e-001, 2.54645914e-001, 1.98753938e-001,
          1.46888897e-001, 1.11817390e-001, 5.32020815e-002,
          7.80974627e-002, 7.93093815e-002, 2.54645914e-001,
          2.65184134e-001, 2.65184134e-001, 2.65184134e-001,
          2.01138198e-001, 1.94165826e-001, 1.02791376e-001,
          8.24086294e-002, 2.68005971e-002, 2.03475356e-001,
          2.95387451e-002, 9.08962712e-002, 1.16340622e-001,
          9.31666642e-002, 1.17868267e-001, 8.04134607e-002,
          3.97048220e-002, 1.79168247e-002, 3.74719910e-002,
          2.65184134e-001, 2.65184134e-001, 2.62063771e-001,
          2.65184134e-001, 2.47231215e-001, 1.67028069e-001,
          1.58397034e-001, 8.27026889e-002, 2.65184134e-001,
          6.03001192e-002, 5.32956347e-002, 4.14119214e-002,
          1.21564217e-001, 1.82876036e-001, 1.90491050e-001,
          9.32175368e-002, 6.62256703e-002, 1.30546957e-001,
          1.60885789e-002, 1.05228247e-002, 2.14196146e-002,
          2.16210391e-002, 5.16857803e-002, 3.42253484e-002,
          4.29014713e-002, 5.83143197e-002, 6.92645684e-002,
          2.22418651e-001, 2.17343390e-001, 2.21857861e-001,
          2.83708125e-001, 2.83708125e-001, 2.60206342e-001,
          2.14898482e-001, 2.73410887e-001, 2.83708125e-001,
          3.75283584e-002, 7.45247211e-003, 8.47167242e-003,
          3.51748131e-002, 6.17257506e-002, 1.95978135e-002,
          3.71832736e-002, 3.05803400e-002, 7.79808238e-002,
          2.24699795e-001, 1.38486862e-001, 1.24040686e-001,
          2.83708125e-001, 2.83708125e-001, 1.75908834e-001,
          1.20941110e-001, 1.95397943e-001, 2.46562868e-001,
          2.88655519e-001, 9.50907618e-002, 6.57514036e-002,
          1.15066275e-001, 1.67774156e-001, 6.46501407e-002,
          6.90458342e-002, 7.91757554e-002, 3.04121226e-001,
          3.05620074e-001, 1.52833626e-001, 8.60510468e-002,
          7.79393837e-002, 6.20465316e-002, 3.42362225e-002,
          7.17502609e-002, 1.20881893e-001, 3.05620074e-001,
          3.05620074e-001, 8.21972787e-002, 4.36621942e-002,
          7.82411695e-002, 2.15886101e-001, 4.95216735e-002,
          4.51521240e-002, 9.08776149e-002, 3.05620074e-001,
          3.05620074e-001, 1.50484979e-001, 5.00939712e-002,
          3.33135873e-002, 5.71968146e-002, 2.72429287e-002,
          5.76296076e-002, 1.46226600e-001, 3.05620074e-001,
          2.44754180e-001, 1.99558884e-001, 1.14832617e-001,
          1.79653749e-001, 1.73284069e-001, 1.67372093e-001,
          1.40814066e-001, 1.46672040e-001, 2.44754180e-001,
          1.07530013e-001, 9.89726335e-002, 2.75820252e-002,
          1.05400302e-001, 2.08511770e-001, 2.44754180e-001,
          9.31099430e-002, 5.92769980e-002, 9.41711143e-002,
          2.44754180e-001, 2.30601847e-001, 9.78707224e-002,
          1.15125380e-001, 2.05733776e-001, 1.44686103e-001,
          1.51041508e-001, 2.16948077e-001, 2.44754180e-001,
          1.64841622e-001, 1.71353891e-001, 4.55996655e-002,
          1.01500317e-001, 2.32457876e-001, 2.15077490e-001,
          1.25768661e-001, 1.03485674e-001, 1.03525847e-001,
          7.06169009e-002, 3.19613032e-002, 1.48353716e-002,
          5.80093414e-002, 1.29966676e-001, 1.36657819e-001,
          1.77757934e-001, 1.27307490e-001, 1.73235223e-001,
          1.47514090e-001, 3.59376594e-002, 3.33495438e-002,
          9.29925963e-002, 2.66376019e-001, 2.37797812e-001,
          1.43969581e-001, 1.99812025e-001, 2.27481157e-001,
          6.33536205e-002, 8.01448375e-002, 4.97521348e-002,
          7.25968704e-002, 1.96376830e-001, 2.66376019e-001,
          2.66376019e-001, 2.66376019e-001, 1.71041310e-001,
          6.05435222e-002, 2.86603421e-002, 4.04975601e-002,
          5.97601347e-002, 2.42137253e-001, 2.66376019e-001,
          2.58570790e-001, 2.66376019e-001, 1.60240158e-001,
          4.00877148e-001, 5.91529459e-002, 3.11990958e-002,
          5.15607446e-002, 2.81672239e-001, 1.31570280e-001,
          7.61916935e-002, 1.95169002e-001, 4.00877148e-001,
          4.00877148e-001, 1.33606583e-001, 6.38825074e-002,
          3.61541472e-002, 1.06583439e-001, 6.08215220e-002,
          6.02109917e-002, 1.57667443e-001, 4.00877148e-001,
          9.54790413e-002, 3.65916407e-003, 5.53564727e-003,
          5.75353857e-003, 5.35267368e-002, 7.55031407e-002,
          3.71837951e-002, 6.17842972e-002, 1.26914918e-001,
          2.21010178e-001, 1.55385854e-002, 1.07589234e-002,
          7.49425543e-003, 5.24877012e-002, 2.56163087e-002,
          1.85042173e-002, 1.28365755e-002, 2.15596810e-001,
          2.90309757e-001, 1.98078603e-001, 1.50430307e-001,
          1.64871737e-001, 2.90309757e-001, 1.82813764e-001,
          1.68047950e-001, 2.08945543e-001, 2.90309757e-001,
          2.01129407e-001, 1.31557316e-001, 8.20466876e-002,
          1.50883242e-001, 2.90309757e-001, 1.83598444e-001,
          1.97007880e-001, 1.44981310e-001, 1.70853421e-001,
          2.18844399e-001, 5.05316071e-002, 3.32324803e-002,
          5.77887297e-002, 2.04484254e-001, 1.09510571e-001,
          1.15624890e-001, 4.51462753e-002, 1.73952311e-001,
          1.07488945e-001, 3.51560339e-002, 2.20420510e-002,
          7.48714879e-002, 2.22020566e-001, 9.25589651e-002,
          1.20239854e-001, 5.76289892e-002, 8.21049139e-002 ]
      - [ 4.13991511e-002, 2.35809609e-002, 4.70963456e-002,
          4.34357375e-002, 1.44552574e-001, 1.68859512e-002,
          1.51733030e-002, 9.37311351e-003, 3.79592329e-002,
          2.98557073e-001, 2.13096350e-001, 1.85835853e-001,
          1.41331211e-001, 2.98557073e-001, 3.54702398e-002,
          5.47468774e-002, 4.93367724e-002, 2.96614140e-001,
          2.63048783e-002, 2.22013723e-002, 3.75456363e-002,
          5.78407273e-002, 2.98557073e-001, 9.33862031e-002,
          2.71981172e-002, 2.83865519e-002, 3.66924144e-002,
          2.55840063e-001, 2.22651407e-001, 2.27849677e-001,
          2.87396520e-001, 2.98557073e-001, 2.60490477e-001,
          1.14915572e-001, 1.19429141e-001, 2.32704058e-001,
          2.48820350e-001, 1.88309804e-001, 7.61737749e-002,
          1.00337707e-001, 2.26301745e-001, 5.75152114e-002,
          7.08260909e-002, 8.83455202e-002, 2.17987984e-001,
          1.87735468e-001, 1.77669838e-001, 2.49049105e-002,
          1.31085113e-001, 2.48820350e-001, 1.70243666e-001,
          8.87332186e-002, 1.47523299e-001, 2.02239677e-001,
          2.39435017e-001, 1.76029876e-001, 1.02139190e-001,
          2.06479445e-001, 2.48820350e-001, 1.56933665e-001,
          7.82356635e-002, 8.00372213e-002, 2.03102157e-001,
          1.42545775e-001, 1.89103872e-001, 2.64114998e-002,
          1.65951908e-001, 2.48820350e-001, 2.48820350e-001,
          9.53966603e-002, 7.90921301e-002, 1.34790957e-001,
          1.83478534e-001, 2.02939898e-001, 2.30280608e-002,
          2.17206493e-001, 3.01476717e-001, 2.72109419e-001,
          6.81088269e-002, 1.59851611e-001, 2.73917228e-001,
          3.93236764e-002, 2.92789564e-002, 1.96194202e-002,
          5.10240309e-002, 1.99510813e-001, 2.07697138e-001,
          1.85124889e-001, 1.55170694e-001, 8.62526000e-002,
          1.22348465e-001, 2.83344746e-001, 2.31755842e-002,
          2.06880078e-001, 3.01476717e-001, 3.01476717e-001,
          1.06026456e-001, 7.92882890e-002, 9.90143195e-002,
          6.27531782e-002, 4.63512428e-002, 1.84637364e-002,
          4.90298495e-002, 1.37691483e-001, 1.78191751e-001,
          1.11065626e-001, 1.46979213e-001, 9.47271213e-002,
          2.04641707e-002, 1.51382191e-002, 1.46202240e-002,
          4.22447622e-002, 2.52373248e-001, 1.24021716e-001,
          1.52479401e-002, 1.71621274e-002, 1.77338608e-002,
          1.07149996e-001, 5.26925474e-002, 1.05571449e-001,
          2.81078160e-001, 3.15799654e-001, 3.15799654e-001,
          9.61256400e-002, 1.01951517e-001, 8.77225026e-002,
          2.87216660e-002, 1.92031711e-002, 1.69299264e-002,
          4.58335914e-002, 2.99517781e-001, 6.39139116e-002,
          2.05558576e-002, 1.77964382e-002, 2.48456281e-002,
          1.99547216e-001, 5.57272173e-002, 1.73992261e-001,
          3.03404063e-001, 3.15799654e-001, 3.01063299e-001,
          1.52682915e-001, 1.75066322e-001, 2.73445666e-001,
          1.02632783e-001, 3.77931185e-002, 6.48901090e-002,
          1.48513719e-001, 2.48378441e-001, 1.88168839e-001,
          1.17829956e-001, 8.00104141e-002, 9.34493691e-002,
          6.73566833e-002, 3.67071591e-002, 1.85065363e-002,
          6.64812550e-002, 2.48378441e-001, 2.48378441e-001,
          2.44588420e-001, 1.31725058e-001, 7.04345182e-002,
          1.34887829e-001, 4.59877104e-002, 1.41496494e-001,
          1.50638267e-001, 2.48378441e-001, 1.96865633e-001,
          1.85664833e-001, 2.04976454e-001, 2.44480923e-001,
          1.04487769e-001, 5.78476563e-002, 1.04093723e-001,
          1.35720581e-001, 2.48378441e-001, 2.48378441e-001,
          2.48378441e-001, 2.48378441e-001, 1.64284468e-001,
          6.52286783e-002, 8.45611915e-002, 1.98333226e-002,
          6.94176331e-002, 3.17999452e-001, 3.17999452e-001,
          3.17999452e-001, 1.98820099e-001, 6.26894087e-002,
          3.82535867e-002, 4.58048955e-002, 1.91145018e-002,
          2.08541136e-002, 6.89530000e-002, 5.06338254e-002,
          3.70747112e-002, 4.61158380e-002, 4.44988832e-002,
          1.85305491e-001, 1.61751539e-001, 1.30304009e-001,
          2.77684361e-001, 3.17999452e-001, 3.17999452e-001,
          3.17999452e-001, 3.17999452e-001, 1.42143786e-001,
          4.31348532e-002, 7.95442685e-002, 3.41571011e-002,
          3.45936827e-002, 1.42625213e-001, 5.71506247e-002,
          4.13594730e-002, 1.63714476e-002, 2.80403588e-002,
          3.98923419e-002, 3.28181647e-002, 2.59262193e-002,
          4.72051427e-002, 2.96254784e-001, 4.59240153e-002,
          5.79452775e-002, 7.29452893e-002, 6.65878505e-002,
          2.96254784e-001, 1.72878996e-001, 2.29863480e-001,
          2.96254784e-001, 2.96254784e-001, 2.68613070e-001,
          2.56769121e-001, 2.96254784e-001, 2.96254784e-001,
          7.06121102e-002, 7.30892643e-002, 3.57733853e-002,
          3.60246673e-002, 1.15333714e-001, 8.03555548e-002,
          6.67091906e-002, 7.57078007e-002, 1.58405021e-001,
          1.44557387e-001, 9.49097648e-002, 5.37327789e-002,
          1.00397579e-001, 1.59191534e-001, 8.85336772e-002,
          1.00531995e-001, 1.55032754e-001, 2.25184277e-001,
          2.43498325e-001, 1.38483629e-001, 2.34283581e-001,
          2.14706406e-001, 2.43498325e-001, 2.43498325e-001,
          2.28096917e-001, 2.43498325e-001, 2.43498325e-001,
          2.43498325e-001, 1.40371338e-001, 2.31020600e-001,
          2.35583887e-001, 2.16273248e-001, 2.22575083e-001,
          2.43498325e-001, 2.43498325e-001, 2.43498325e-001,
          1.05305746e-001, 6.03479184e-002, 4.17657048e-002,
          4.80425172e-002, 6.69217333e-002, 4.92345914e-002,
          3.93157303e-002, 7.90969431e-002, 1.36763215e-001,
          7.60358050e-002, 2.81662028e-002, 2.88368259e-002,
          2.16683652e-002, 2.85319667e-002, 1.69115383e-002,
          1.01061659e-002, 3.53190005e-002, 6.59093335e-002,
          2.82268018e-001, 2.70133317e-001, 2.42862076e-001,
          2.82268018e-001, 2.82268018e-001, 2.82268018e-001,
          2.82268018e-001, 2.82268018e-001, 2.68792868e-001,
          1.44494906e-001, 1.16676092e-001, 5.93132824e-002,
          1.03885554e-001, 2.34147206e-001, 9.27967876e-002,
          5.44322431e-002, 3.39776315e-002, 1.34353384e-001,
          9.80252773e-002, 3.16856466e-002, 2.30543669e-002,
          3.01618278e-002, 3.23479325e-002, 1.84816364e-002,
          8.72698613e-003, 4.32533585e-002, 6.25659525e-002,
          2.28988528e-001, 9.19757336e-002, 4.82099541e-002,
          1.21821672e-001, 1.58721983e-001, 8.93728584e-002,
          7.95734897e-002, 2.86012813e-002, 2.06938729e-001 ]
      - [ 2.22187936e-001, 5.43202423e-002, 1.74616370e-002,
          1.18994519e-001, 3.31736714e-001, 9.69193429e-002,
          2.60376055e-002, 2.86002290e-002, 9.06167179e-002,
          2.17996184e-002, 3.33945593e-003, 1.72468985e-003,
          5.32915397e-003, 7.94301406e-002, 2.75387745e-002,
          2.48668157e-002, 2.73923371e-002, 2.36229897e-002,
          2.19982684e-001, 6.32949099e-002, 1.96212847e-002,
          3.24283272e-001, 3.31736714e-001, 3.09657961e-001,
          2.79986024e-001, 3.31736714e-001, 3.31736714e-001,
          8.01080391e-002, 1.68652572e-002, 1.92782786e-002,
          4.71813381e-002, 2.72135139e-001, 7.65841976e-002,
          1.09672487e-001, 1.13820516e-001, 1.21096276e-001,
          1.05602178e-003, 7.62947093e-005, 0., 0., 1.20933810e-002,
          1.77888374e-003, 3.97908967e-003, 3.58694117e-003,
          1.50792964e-003, 9.63779539e-002, 1.85381472e-002,
          1.09268948e-002, 1.15954183e-001, 3.53621572e-001,
          2.11385563e-001, 3.53621572e-001, 1.16365187e-001,
          9.83627513e-002, 1.29149973e-001, 8.00387468e-003,
          9.55010112e-003, 3.56313935e-003, 3.05726547e-002,
          7.06656370e-003, 1.33077633e-002, 7.82105885e-003,
          1.52239889e-001, 3.15056503e-001, 2.54910260e-001,
          3.53621572e-001, 3.53621572e-001, 3.53621572e-001,
          1.80265650e-001, 4.62000743e-002, 9.61488932e-002,
          1.74885780e-001, 5.80818541e-002, 6.19769730e-002,
          3.13100219e-002, 7.48865306e-002, 2.70586580e-001,
          1.28057808e-001, 1.69764936e-001, 7.89706856e-002,
          7.40625113e-002, 1.48588941e-001, 1.67252079e-001,
          1.20117217e-001, 1.59322992e-001, 2.70586580e-001,
          1.88023016e-001, 1.94948539e-001, 1.17735177e-001,
          1.60842836e-001, 8.00630078e-002, 8.47991556e-002,
          1.16509326e-001, 2.70586580e-001, 2.70586580e-001,
          8.98490921e-002, 3.19465697e-002, 3.91004458e-002,
          3.51942815e-002, 2.50502288e-001, 2.65162110e-001,
          2.16189638e-001, 2.70586580e-001, 2.70586580e-001,
          1.82141960e-001, 1.10819310e-001, 7.82950968e-002,
          1.17783241e-001, 7.09091723e-002, 1.20236436e-002,
          1.30114416e-002, 1.03976212e-001, 3.42962384e-001,
          1.49907038e-001, 1.30590424e-001, 1.75984845e-001,
          2.17462584e-001, 1.74434677e-001, 1.67219471e-002,
          4.55968417e-002, 9.25993547e-002, 3.42962384e-001,
          6.25388995e-002, 7.17778057e-002, 4.93416861e-002,
          2.15310305e-001, 1.72250852e-001, 1.51210222e-002,
          2.08561439e-002, 3.69885676e-002, 3.42962384e-001,
          8.54674503e-002, 3.26318778e-002, 2.77973264e-002,
          1.76990181e-001, 2.61903644e-001, 4.51747961e-002,
          9.01140943e-002, 1.58653423e-001, 3.42962384e-001,
          1.07932165e-001, 7.90638104e-002, 4.66515049e-002,
          3.11048627e-001, 1.31020784e-001, 5.62369963e-003,
          1.14006624e-002, 2.64618900e-002, 5.63879162e-002,
          4.44068834e-002, 3.33599001e-002, 4.86214571e-002,
          1.61592156e-001, 1.73147246e-001, 1.22053511e-001,
          1.44966841e-001, 1.42115802e-001, 1.96792275e-001,
          1.73519596e-001, 1.34915307e-001, 2.25447074e-001,
          1.61627471e-001, 2.62789339e-001, 4.95308600e-002,
          6.43111765e-002, 9.46202874e-002, 1.09878086e-001,
          1.18876226e-001, 7.12021515e-002, 1.24940924e-001,
          2.62789339e-001, 2.62789339e-001, 1.77554443e-001,
          1.51809037e-001, 1.58313811e-001, 2.62789339e-001,
          2.62789339e-001, 2.62789339e-001, 2.62789339e-001,
          2.62789339e-001, 9.84640718e-002, 1.06259696e-001,
          1.43471107e-001, 1.93167850e-001, 1.86115205e-001,
          1.05986789e-001, 9.45560485e-002, 1.40700907e-001,
          9.38527212e-002, 1.83717847e-001, 1.70403659e-001,
          1.29254431e-001, 2.23091170e-001, 2.23091170e-001,
          1.18514560e-001, 6.08652495e-002, 6.56156242e-002,
          1.41021878e-001, 1.40769944e-001, 1.13395154e-001,
          1.05920464e-001, 1.33018106e-001, 2.23091170e-001,
          1.47320420e-001, 2.23091170e-001, 2.23091170e-001,
          1.99438840e-001, 1.49219438e-001, 1.43084377e-001,
          1.44679815e-001, 1.96215227e-001, 2.23091170e-001,
          2.02145830e-001, 2.23091170e-001, 2.23091170e-001,
          2.23091170e-001, 2.30003014e-001, 7.04540461e-002,
          5.36805131e-002, 5.35152368e-002, 2.67949313e-001,
          5.25392145e-002, 3.22690904e-002, 3.77135463e-002,
          1.94249541e-001, 1.98504433e-001, 1.23274453e-001,
          1.98436007e-001, 2.67949313e-001, 2.67949313e-001,
          2.67949313e-001, 1.13984920e-001, 1.30172312e-001,
          2.57245123e-001, 5.39074317e-002, 7.84627423e-002,
          4.66846339e-002, 1.34622782e-001, 2.33174577e-001,
          1.29889026e-001, 1.87572464e-001, 9.42557827e-002,
          4.86381575e-002, 5.59008159e-002, 5.49753681e-002,
          1.16705932e-001, 1.84208438e-001, 2.67949313e-001,
          2.67949313e-001, 1.91887543e-001, 1.52769625e-001,
          9.47864503e-002, 1.57245561e-001, 1.27210185e-001,
          9.33825076e-002, 1.09857164e-001, 9.26904827e-002,
          1.17805921e-001, 3.06874625e-002, 6.41686246e-002,
          1.10230818e-001, 2.43886828e-001, 2.16148973e-001,
          1.17079437e-001, 1.32468492e-001, 2.43886828e-001,
          2.43886828e-001, 1.07536420e-001, 2.30521560e-001,
          2.39078030e-001, 9.33389664e-002, 1.85331538e-001,
          1.42206207e-001, 9.82015282e-002, 1.95559710e-001,
          1.52960867e-001, 6.64285347e-002, 5.85756972e-002,
          4.40908559e-002, 2.43886828e-001, 2.43886828e-001,
          2.43886828e-001, 1.34046108e-001, 2.43886828e-001,
          2.43886828e-001, 1.16376556e-001, 1.02514781e-001,
          1.84728846e-001, 1.88352808e-001, 1.16109990e-001,
          8.84943157e-002, 1.54145584e-001, 2.48091340e-001,
          2.48091340e-001, 1.98770553e-001, 2.48091340e-001,
          2.46635452e-001, 1.31668970e-001, 1.36308566e-001,
          1.31968930e-001, 1.47319883e-001, 2.14537546e-001,
          1.88096181e-001, 2.48091340e-001, 2.48091340e-001,
          2.48091340e-001, 1.97812349e-001, 1.48391128e-001,
          1.15971476e-001, 7.38674328e-002, 2.48091340e-001,
          2.48091340e-001, 8.96583498e-002, 5.94060905e-002,
          1.77949607e-001, 5.69941960e-002, 3.02794911e-002,
          2.55076457e-002, 3.17138880e-002, 1.10902570e-001,
          4.79305796e-002, 6.60421625e-002, 1.07820809e-001,
          9.00018290e-002 ]
      - [ 5.61626889e-002, 2.85063982e-002, 1.27695333e-002,
          3.84458266e-002, 1.63334250e-001, 2.17359468e-001,
          2.50663191e-001, 2.16856197e-001, 1.72433123e-001,
          6.91425279e-002, 2.96170842e-002, 1.74094345e-002,
          4.01951969e-002, 1.62653744e-001, 1.66101784e-001,
          2.06447527e-001, 1.36334121e-001, 1.27821997e-001,
          1.45405963e-001, 3.46016064e-002, 1.42474221e-002,
          3.46173905e-002, 1.12567283e-001, 2.50663191e-001,
          2.50663191e-001, 2.50663191e-001, 2.50663191e-001,
          2.50663191e-001, 1.23880319e-001, 3.63411643e-002,
          7.56855682e-002, 1.22093290e-001, 2.50663191e-001,
          2.50663191e-001, 2.50663191e-001, 2.50663191e-001,
          9.00433213e-002, 2.18167379e-002, 3.96396145e-002,
          4.10884619e-002, 8.44335556e-002, 5.51500171e-002,
          4.77723666e-002, 4.34798785e-002, 8.79027769e-002,
          1.18890598e-001, 4.92938757e-002, 8.53084475e-002,
          1.38459772e-001, 2.68269032e-001, 1.43486336e-001,
          1.76408380e-001, 5.86032867e-002, 9.31110531e-002,
          2.68269032e-001, 1.28194749e-001, 9.04926360e-002,
          1.87191561e-001, 1.28038600e-001, 1.03814989e-001,
          1.18590735e-001, 1.66175157e-001, 2.68269032e-001,
          2.68269032e-001, 1.34492218e-001, 2.16043621e-001,
          2.68269032e-001, 2.68269032e-001, 2.47842178e-001,
          2.51779824e-001, 1.86298370e-001, 2.68269032e-001,
          5.43538183e-002, 3.62454057e-002, 5.70469014e-002,
          8.35824534e-002, 2.40700111e-001, 1.25969440e-001,
          2.07103923e-001, 1.04000583e-001, 7.33637512e-002,
          1.25144616e-001, 1.13984384e-001, 6.89303800e-002,
          1.12458460e-001, 2.40700111e-001, 1.85883686e-001,
          2.40700111e-001, 2.40443543e-001, 1.53543428e-001,
          1.16527624e-001, 1.08613700e-001, 2.02664807e-001,
          1.59792319e-001, 2.40700111e-001, 1.09261386e-001,
          9.57267806e-002, 6.14677891e-002, 9.70300660e-002,
          2.40700111e-001, 2.40700111e-001, 2.40700111e-001,
          2.40700111e-001, 2.40700111e-001, 1.72964945e-001,
          1.84538960e-001, 9.09010693e-002, 1.61844075e-001,
          1.59589112e-001, 2.25325953e-002, 2.31473316e-002,
          8.36330652e-002, 1.92468926e-001, 2.15723082e-001,
          2.17931315e-001, 2.21357569e-001, 2.21357569e-001,
          2.21357569e-001, 1.12351328e-001, 3.66308764e-002,
          1.05593652e-001, 1.81047410e-001, 1.90626681e-001,
          2.04465985e-001, 2.21357569e-001, 2.21357569e-001,
          1.74266249e-001, 2.76585966e-002, 4.03715298e-002,
          1.19765088e-001, 2.21357569e-001, 5.03344163e-002,
          1.60115957e-001, 2.21027002e-001, 2.21357569e-001,
          1.75816864e-001, 8.27882066e-002, 4.33543511e-002,
          1.30346105e-001, 2.21357569e-001, 7.62764737e-002,
          1.43500850e-001, 2.21357569e-001, 2.21357569e-001,
          1.93312690e-001, 9.63346139e-002, 4.32883464e-002,
          1.05783314e-001, 1.21694818e-001, 6.44141361e-002,
          9.82275233e-002, 1.14743769e-001, 1.95109874e-001,
          1.83442637e-001, 9.44400057e-002, 5.19576408e-002,
          1.40999839e-001, 2.68354326e-001, 1.99190080e-001,
          2.68354326e-001, 2.68354326e-001, 2.10958436e-001,
          8.98905993e-002, 6.58405721e-002, 4.15850803e-002,
          6.79764226e-002, 1.42624423e-001, 5.86518124e-002,
          9.01594609e-002, 9.55558792e-002, 9.52421352e-002,
          1.64703980e-001, 1.63033858e-001, 4.36022282e-002,
          2.07442448e-001, 2.68354326e-001, 2.19065309e-001,
          2.68354326e-001, 2.68354326e-001, 2.46655881e-001,
          1.07157342e-001, 1.02242127e-001, 1.03312358e-001,
          8.54353085e-002, 2.23473057e-001, 7.43550733e-002,
          1.88060179e-001, 1.36312291e-001, 1.18723430e-001,
          1.95468947e-001, 1.61251426e-001, 2.23473057e-001,
          2.23473057e-001, 2.23473057e-001, 5.13038747e-002,
          6.84804693e-002, 5.86561300e-002, 1.75635740e-001,
          1.15968980e-001, 1.44845381e-001, 8.99657533e-002,
          1.09937944e-001, 2.23473057e-001, 1.42219812e-001,
          2.07240760e-001, 1.66898876e-001, 2.23473057e-001,
          1.31858394e-001, 1.87688008e-001, 2.23473057e-001,
          2.23473057e-001, 2.23473057e-001, 1.83948636e-001,
          1.72638103e-001, 1.31033346e-001, 2.23473057e-001,
          2.79798537e-001, 1.67021409e-001, 1.55694544e-001,
          2.20092520e-001, 2.47094452e-001, 8.21680874e-002,
          1.96532637e-001, 2.79798537e-001, 2.79798537e-001,
          2.79798537e-001, 2.79798537e-001, 1.42771661e-001,
          2.49611944e-001, 2.79798537e-001, 1.38196513e-001,
          1.91385522e-001, 2.79798537e-001, 2.79798537e-001,
          6.47286549e-002, 3.52404639e-002, 3.16583142e-002,
          3.19936685e-002, 4.04248293e-003, 1.95899773e-002,
          4.67215292e-003, 8.68577976e-003, 3.82112898e-002,
          8.92855823e-002, 4.62947488e-002, 4.13941741e-002,
          1.02311205e-002, 3.35776177e-003, 2.49121897e-002,
          2.11601742e-002, 2.20387541e-002, 5.06570674e-002,
          1.42969877e-001, 8.72341841e-002, 7.44024366e-002,
          8.25431719e-002, 1.65745080e-001, 8.06510001e-002,
          8.77223611e-002, 8.89755115e-002, 7.74934292e-002,
          2.98079431e-001, 2.71822423e-001, 1.45957217e-001,
          2.98735172e-001, 3.42213899e-001, 2.62456506e-001,
          1.89965665e-001, 3.11933279e-001, 3.42213899e-001,
          2.91426033e-002, 1.86348408e-002, 1.96243860e-002,
          9.15046502e-003, 2.12246682e-002, 1.58280209e-002,
          1.62469633e-002, 1.36679467e-002, 1.70052350e-002,
          6.85987771e-002, 3.60464342e-002, 5.91648929e-002,
          6.44829869e-002, 3.14454705e-001, 5.69190234e-002,
          2.67191716e-002, 8.25708508e-002, 2.53744990e-001,
          1.09933510e-001, 1.18672132e-001, 8.91033262e-002,
          1.21506408e-001, 2.51177043e-001, 2.19231308e-001,
          1.10299855e-001, 1.59499079e-001, 2.51177043e-001,
          1.43930838e-001, 1.75255880e-001, 2.31543481e-001,
          2.47294366e-001, 2.51177043e-001, 2.51177043e-001,
          2.51177043e-001, 2.51177043e-001, 2.51177043e-001,
          4.99159023e-002, 1.96699742e-002, 2.71025673e-002,
          4.77761067e-002, 1.34718731e-001, 5.21646775e-002,
          3.17655727e-002, 6.22331910e-002, 9.80106890e-002,
          1.07768811e-001, 6.56526163e-002, 7.00596496e-002,
          6.65282458e-002, 1.43512502e-001, 1.33150741e-001,
          2.38130122e-001, 2.40096167e-001, 1.89560413e-001 ]
      - [ 2.37933472e-002, 4.29046825e-002, 1.72009952e-002,
          3.62020917e-002, 2.27436721e-001, 9.64747090e-003,
          8.43720231e-003, 2.30931733e-002, 2.29969043e-002,
          3.05674344e-001, 2.06841275e-001, 1.14216246e-001,
          2.02147797e-001, 3.75793546e-001, 5.41176870e-002,
          7.73907974e-002, 1.68392360e-001, 3.75793546e-001,
          8.26126616e-003, 1.54927019e-002, 5.31936297e-003,
          2.04443205e-002, 3.75793546e-001, 8.29879567e-003,
          2.22754804e-003, 1.21258665e-003, 3.49680940e-003,
          1.01907276e-001, 1.28956363e-001, 9.18679610e-002,
          2.47168586e-001, 3.75793546e-001, 1.41291752e-001,
          7.22509548e-002, 6.48929551e-002, 1.42156065e-001,
          2.37305120e-001, 1.20890960e-001, 6.42172843e-002,
          8.47687721e-002, 1.89077854e-001, 5.15256412e-002,
          8.51419345e-002, 1.50942028e-001, 2.37305120e-001,
          2.18799397e-001, 1.94917440e-001, 3.34404483e-002,
          8.58447924e-002, 2.37305120e-001, 8.30939263e-002,
          1.86509863e-001, 2.09663287e-001, 2.37305120e-001,
          1.03280321e-001, 1.02468193e-001, 7.30280429e-002,
          1.32623136e-001, 2.37305120e-001, 1.55385658e-001,
          1.28563076e-001, 1.09766304e-001, 1.64378792e-001,
          1.33016199e-001, 2.06997961e-001, 7.20154047e-002,
          1.39075920e-001, 2.37305120e-001, 2.12668836e-001,
          2.12630600e-001, 2.13258877e-001, 2.01398492e-001,
          1.77557498e-001, 2.64756471e-001, 3.36924940e-002,
          1.42914176e-001, 2.64756471e-001, 1.26617864e-001,
          2.31263712e-001, 2.64756471e-001, 2.64756471e-001,
          3.23419794e-002, 2.08384767e-002, 1.73262749e-002,
          2.01132745e-002, 9.63108167e-002, 3.07286568e-002,
          3.05875018e-002, 3.15861776e-002, 3.49111743e-002,
          1.82054088e-001, 2.64756471e-001, 7.91829824e-002,
          2.40941390e-001, 2.64756471e-001, 2.58791745e-001,
          2.64756471e-001, 2.64756471e-001, 2.64756471e-001,
          4.51221839e-002, 3.72613370e-002, 1.80345103e-002,
          4.55278568e-002, 1.28599241e-001, 5.41086681e-002,
          1.47596687e-001, 1.11109637e-001, 6.68902695e-002,
          4.28283075e-003, 4.37866664e-003, 5.59291220e-004,
          5.15898503e-003, 3.16519558e-001, 7.41078146e-003,
          7.61509547e-003, 3.12621356e-003, 4.04417608e-003,
          9.14071202e-002, 9.85025615e-002, 2.82683838e-002,
          1.42698675e-001, 3.85703266e-001, 1.89344481e-001,
          1.13188103e-001, 5.31517379e-002, 7.42367804e-002,
          1.86686758e-002, 9.03282966e-003, 2.38117971e-003,
          1.29722608e-002, 3.37737590e-001, 1.15865143e-002,
          8.06332845e-003, 6.28625369e-003, 2.84774490e-002,
          2.32686967e-001, 2.27128908e-001, 3.26095000e-002,
          2.24554792e-001, 3.85703266e-001, 2.27602720e-001,
          2.20406413e-001, 1.71920910e-001, 3.14844608e-001,
          5.17249294e-002, 6.43891543e-002, 3.47667374e-002,
          1.05234295e-001, 2.46898293e-001, 2.03709766e-001,
          1.34355918e-001, 7.67567381e-002, 4.86877337e-002,
          4.73776050e-002, 5.34562953e-002, 4.90606464e-002,
          7.38394707e-002, 2.46898293e-001, 2.37349734e-001,
          2.27186769e-001, 1.49367824e-001, 1.47657588e-001,
          1.38776883e-001, 1.11492500e-001, 4.60510813e-002,
          1.97585270e-001, 2.46898293e-001, 2.46898293e-001,
          2.02604517e-001, 1.68746948e-001, 1.90718219e-001,
          1.10322028e-001, 4.35802899e-002, 9.35071260e-002,
          1.52048603e-001, 2.46898293e-001, 2.46898293e-001,
          2.40566060e-001, 1.90602571e-001, 2.46898293e-001,
          9.56518352e-002, 1.05210356e-001, 4.95642051e-002,
          7.63220116e-002, 2.50688761e-001, 2.33492553e-001,
          2.50688761e-001, 2.15018809e-001, 2.50688761e-001,
          7.64309615e-002, 5.48186563e-002, 1.85144134e-002,
          4.45140339e-002, 1.40398785e-001, 8.76199082e-002,
          1.32512003e-001, 9.77666527e-002, 9.19065028e-002,
          1.21317178e-001, 1.00113317e-001, 1.11009270e-001,
          1.21438034e-001, 2.50688761e-001, 2.50688761e-001,
          2.50688761e-001, 2.27813154e-001, 2.50688761e-001,
          1.20179400e-001, 7.37574548e-002, 6.98698163e-002,
          7.47245476e-002, 2.50688761e-001, 2.50688761e-001,
          1.55830368e-001, 1.79580241e-001, 1.94739744e-001,
          9.25604403e-002, 1.28251053e-002, 9.76321939e-003,
          3.21490429e-002, 2.69324869e-001, 2.09650323e-002,
          1.16754510e-002, 1.69545524e-002, 1.04279526e-001,
          2.44229749e-001, 1.73509985e-001, 2.57389322e-002,
          2.31412143e-001, 2.69324869e-001, 2.29435101e-001,
          2.19927892e-001, 1.72545165e-001, 2.69324869e-001,
          2.40600541e-001, 2.60294881e-002, 6.23732917e-002,
          6.98051229e-002, 2.69324869e-001, 1.12821020e-001,
          6.98720366e-002, 9.39559937e-002, 2.45863676e-001,
          2.55150914e-001, 3.80095989e-002, 5.25475740e-002,
          6.83385208e-002, 1.52699679e-001, 1.40927926e-001,
          1.45140335e-001, 2.14111596e-001, 2.69324869e-001,
          2.01637551e-001, 1.16671123e-001, 4.98414561e-002,
          2.30311483e-001, 2.51301527e-001, 2.51301527e-001,
          2.51301527e-001, 2.45625645e-001, 2.51301527e-001,
          1.99205533e-001, 6.25498593e-002, 1.57381535e-001,
          2.12254539e-001, 2.51301527e-001, 2.51301527e-001,
          2.51301527e-001, 2.37820759e-001, 2.51301527e-001,
          1.29120633e-001, 3.94376144e-002, 1.89106800e-002,
          6.68970197e-002, 1.33129478e-001, 1.21614799e-001,
          1.22562550e-001, 1.01250961e-001, 1.41488895e-001,
          7.78211281e-002, 4.06358466e-002, 3.41692530e-002,
          6.24626763e-002, 1.05818897e-001, 8.59894082e-002,
          7.15421364e-002, 6.35248125e-002, 1.03809349e-001,
          1.44791365e-001, 8.76993388e-002, 2.43684843e-001,
          2.08722681e-001, 2.55812556e-001, 2.55812556e-001,
          2.55812556e-001, 2.39044294e-001, 2.55812556e-001,
          1.09147608e-001, 7.94157013e-002, 1.40247539e-001,
          1.29545838e-001, 2.55812556e-001, 2.55812556e-001,
          1.78738087e-001, 2.25305080e-001, 2.07444146e-001,
          7.53169656e-002, 6.02329597e-002, 8.95957053e-002,
          8.39131698e-002, 7.04253092e-002, 6.58605024e-002,
          5.56093864e-002, 7.83838481e-002, 1.28453702e-001,
          1.58992693e-001, 8.25203583e-002, 8.17155614e-002,
          1.69703066e-001, 2.51101673e-001, 1.61622122e-001,
          8.90270248e-002, 5.31547107e-002, 9.35422555e-002 ]
      - [ 4.56547886e-002, 3.82920615e-002, 6.27739429e-002,
          6.51132613e-002, 1.35577664e-001, 1.11532912e-001,
          6.08628392e-002, 1.58534020e-001, 7.71976486e-002,
          1.76129669e-001, 1.12414412e-001, 9.83302668e-002,
          2.71450639e-001, 2.71450639e-001, 2.71450639e-001,
          2.71450639e-001, 2.71450639e-001, 2.71450639e-001,
          7.40352785e-003, 9.66089126e-003, 7.23126484e-003,
          4.80081001e-003, 4.54858094e-002, 3.72273251e-002,
          1.97634567e-002, 1.31109739e-002, 1.54462773e-002,
          2.36391902e-001, 8.15752745e-002, 1.17600277e-001,
          1.54459700e-001, 2.71450639e-001, 2.71450639e-001,
          2.70357281e-001, 1.60145044e-001, 2.71450639e-001,
          4.68398184e-002, 3.01284660e-002, 2.27031335e-002,
          5.32753877e-002, 8.90118331e-002, 6.31714314e-002,
          5.75731583e-002, 4.98715192e-002, 6.27555326e-002,
          1.24169655e-001, 1.65013567e-001, 2.45762601e-001,
          1.89119622e-001, 1.87032565e-001, 5.85636571e-002,
          4.82672378e-002, 1.31929880e-002, 6.05615713e-002,
          1.76233768e-001, 7.35045671e-002, 1.76606983e-001,
          9.27081108e-002, 2.25964203e-001, 6.97272718e-002,
          1.28131479e-001, 7.61095732e-002, 1.61812738e-001,
          3.39139581e-001, 3.46143275e-001, 3.46143275e-001,
          3.46143275e-001, 2.19174266e-001, 9.97755677e-002,
          1.84505835e-001, 7.08405599e-002, 1.81551933e-001,
          1.61552906e-001, 1.40344843e-001, 1.86276436e-001,
          1.40924752e-001, 2.79789805e-001, 8.79110768e-002,
          7.82528222e-002, 4.10773046e-002, 5.10113463e-002,
          9.93296877e-002, 6.10252433e-002, 5.63922487e-002,
          4.75642197e-002, 2.44193077e-001, 7.72077739e-002,
          6.78223148e-002, 5.59409410e-002, 5.71366437e-002,
          1.57005697e-001, 2.97163069e-001, 2.97163069e-001,
          2.97163069e-001, 1.71601355e-001, 1.61440387e-001,
          1.10528648e-001, 4.34890576e-002, 6.70967922e-002,
          1.19280532e-001, 2.43271112e-001, 2.97163069e-001,
          1.69418916e-001, 2.97163069e-001, 1.83422446e-001,
          9.08994302e-002, 5.84453978e-002, 1.30001545e-001,
          1.03513449e-002, 7.27933366e-003, 1.58598069e-002,
          4.05128550e-004, 5.52921630e-002, 5.29961707e-003,
          9.17145237e-003, 1.64811350e-002, 1.99903380e-002,
          2.25926682e-001, 1.44095406e-001, 2.76194304e-001,
          2.76194304e-001, 2.76194304e-001, 2.76194304e-001,
          1.77770421e-001, 1.04407527e-001, 2.76194304e-001,
          2.78912075e-002, 5.73405577e-003, 7.86658097e-003,
          1.19187718e-003, 6.83725700e-002, 4.64346772e-003,
          4.18785354e-003, 1.20234173e-002, 1.88051928e-002,
          2.76194304e-001, 9.29943919e-002, 2.16519803e-001,
          2.72126675e-001, 2.76194304e-001, 2.76194304e-001,
          2.08664164e-001, 1.13664493e-001, 2.76194304e-001,
          1.01808712e-001, 9.65646729e-002, 1.89581588e-001,
          8.15221369e-002, 1.39190793e-001, 9.95662063e-002,
          8.03625956e-002, 2.90066712e-002, 1.08318202e-001,
          2.03342363e-001, 2.87595272e-001, 2.87595272e-001,
          2.59408623e-001, 1.14283234e-001, 1.42560139e-001,
          1.43602416e-001, 4.66581210e-002, 1.73235729e-001,
          8.08768347e-002, 8.67950544e-002, 1.20010734e-001,
          6.67249709e-002, 9.63791981e-002, 1.42162070e-001,
          6.39688522e-002, 2.22649965e-002, 1.10601120e-001,
          1.54728204e-001, 2.87595272e-001, 2.87595272e-001,
          2.87595272e-001, 1.15628734e-001, 2.39873812e-001,
          1.71914279e-001, 5.56716248e-002, 2.67183930e-001,
          7.15475902e-002, 2.78297663e-001, 2.78297663e-001,
          1.82373211e-001, 5.96906133e-002, 9.65823904e-002,
          7.43017346e-002, 3.43979932e-002, 7.01996833e-002,
          9.29712728e-002, 1.96355000e-001, 2.78297663e-001,
          9.75365564e-002, 2.52760440e-001, 1.30188420e-001,
          9.35861990e-002, 4.39711772e-002, 1.18201777e-001,
          7.73083493e-002, 2.78297663e-001, 2.78297663e-001,
          2.46533349e-001, 5.05554825e-002, 1.24719121e-001,
          8.47849175e-002, 4.10325564e-002, 1.19836107e-001,
          1.21110044e-001, 2.78297663e-001, 2.78297663e-001,
          1.25977561e-001, 2.00271904e-001, 1.67289883e-001,
          9.84404236e-002, 4.74641062e-002, 1.06217206e-001,
          5.50266616e-002, 6.69934135e-003, 1.27165308e-002,
          5.02473023e-003, 1.23143710e-001, 8.80131591e-003,
          4.20287810e-003, 7.22366245e-003, 3.49239707e-002,
          2.84798652e-001, 1.01412646e-001, 1.53008908e-001,
          1.98037162e-001, 2.84798652e-001, 2.84798652e-001,
          2.82243788e-001, 1.92749619e-001, 2.84798652e-001,
          4.39441986e-002, 1.07447514e-002, 3.60079668e-002,
          6.31413935e-003, 1.24242328e-001, 5.15081780e-003,
          6.60700770e-003, 1.90726854e-002, 3.55746150e-002,
          2.84798652e-001, 2.84798652e-001, 2.84798652e-001,
          1.86339960e-001, 2.84798652e-001, 8.68071541e-002,
          8.95874426e-002, 1.71448126e-001, 1.96354017e-001,
          7.51544088e-002, 3.98520157e-002, 3.78839932e-002,
          4.09394838e-002, 8.68100300e-002, 1.03972159e-001,
          6.64347112e-002, 4.35070097e-002, 9.00491849e-002,
          1.74703866e-001, 2.58987606e-001, 2.89119750e-001,
          2.89119750e-001, 2.89119750e-001, 2.89119750e-001,
          2.89119750e-001, 1.09467313e-001, 2.89119750e-001,
          3.26591581e-002, 3.39341760e-002, 3.16528939e-002,
          2.15966832e-002, 5.22051454e-002, 1.58059131e-002,
          1.51244970e-002, 1.69007089e-002, 2.51051076e-002,
          8.73891413e-002, 6.67918473e-002, 2.66097188e-001,
          8.22433084e-002, 2.89119750e-001, 2.89119750e-001,
          1.67357534e-001, 4.73453514e-002, 2.19031557e-001,
          9.90147889e-002, 3.04998547e-001, 3.04998547e-001,
          2.99115419e-001, 1.70605198e-001, 1.94841012e-001,
          1.29997656e-001, 2.88576372e-002, 1.62650436e-001,
          8.41407180e-002, 3.04998547e-001, 3.04998547e-001,
          2.01404095e-001, 9.26009342e-002, 9.24862698e-002,
          2.72309631e-002, 1.48969442e-002, 5.96292652e-002,
          6.86207414e-002, 1.11007303e-001, 3.04998547e-001,
          1.06001481e-001, 2.32036173e-001, 1.48379743e-001,
          6.03054166e-002, 2.32576523e-002, 1.54603973e-001,
          3.25182229e-002, 1.13763757e-001, 3.04998547e-001,
          9.03421640e-002, 4.50495109e-002, 2.02907622e-002,
          5.45129646e-003, 6.34536799e-003, 4.59198207e-002 ]
      - [ 9.11398977e-003, 2.03499738e-002, 1.73320603e-002,
          1.53030697e-002, 3.24222371e-002, 5.94144175e-003,
          4.42973711e-003, 6.19284250e-003, 1.30404057e-002,
          1.33034110e-001, 2.67773360e-001, 1.17753528e-001,
          1.55973494e-001, 2.67773360e-001, 2.48632982e-001,
          2.67773360e-001, 7.98612610e-002, 1.00777149e-001,
          3.41489092e-002, 1.50603443e-001, 1.88633174e-001,
          1.30973548e-001, 9.65966284e-002, 2.93436609e-002,
          3.61226350e-002, 1.74144916e-002, 3.98454107e-002,
          1.32353067e-001, 2.67773360e-001, 2.67773360e-001,
          2.67773360e-001, 1.90312952e-001, 2.67773360e-001,
          2.67773360e-001, 2.67773360e-001, 2.67773360e-001,
          1.01055190e-001, 1.64819941e-001, 1.88708216e-001,
          1.29842982e-001, 2.01571807e-001, 1.91510066e-001,
          2.63950944e-001, 1.14106834e-001, 1.36415631e-001,
          4.92622852e-002, 5.17720990e-002, 1.64991528e-001,
          9.04143602e-002, 1.21020280e-001, 1.20821252e-001,
          1.74892470e-001, 1.56341970e-001, 1.21825084e-001,
          6.76265284e-002, 1.77297980e-001, 1.56077117e-001,
          1.49182439e-001, 1.35208055e-001, 2.71712244e-001,
          2.71712244e-001, 2.71712244e-001, 1.72392502e-001,
          4.04789336e-002, 2.25886554e-002, 9.50004384e-002,
          4.15993892e-002, 1.01028912e-001, 2.28662997e-001,
          2.71712244e-001, 2.71712244e-001, 1.18538104e-001,
          7.00924546e-002, 5.96507192e-002, 7.45625496e-002,
          8.40653852e-002, 1.06019311e-001, 1.81193754e-001,
          2.57102132e-001, 2.57102132e-001, 1.69396773e-001,
          1.13220409e-001, 7.10086524e-002, 6.50277138e-002,
          7.22983032e-002, 1.17388196e-001, 6.99912384e-002,
          7.12261498e-002, 8.90644565e-002, 9.88565832e-002,
          1.73124135e-001, 8.66207033e-002, 1.36983231e-001,
          8.61935914e-002, 2.05598578e-001, 2.57102132e-001,
          2.57102132e-001, 2.57102132e-001, 2.57102132e-001,
          2.57102132e-001, 1.78905413e-001, 1.28657848e-001,
          2.25132868e-001, 2.57102132e-001, 1.87595919e-001,
          9.50051844e-002, 1.53563008e-001, 1.81649119e-001,
          3.02638058e-002, 9.38098282e-002, 1.16124466e-001,
          6.33216575e-002, 1.74245894e-001, 4.36442085e-002,
          8.91793519e-002, 4.22618799e-002, 3.07115279e-002,
          7.17503577e-002, 1.66776419e-001, 2.43899092e-001,
          1.28737971e-001, 2.74419427e-001, 2.23271579e-001,
          2.97016442e-001, 2.97016442e-001, 1.77298650e-001,
          3.13395523e-002, 2.96350159e-002, 2.97502391e-002,
          2.93348171e-002, 1.96825445e-001, 8.06753114e-002,
          2.25357801e-001, 6.83345720e-002, 2.92109605e-002,
          5.84342070e-002, 5.37199676e-002, 7.36457855e-002,
          8.44477043e-002, 2.97016442e-001, 2.97016442e-001,
          2.97016442e-001, 2.97016442e-001, 8.90347585e-002,
          2.73974780e-002, 3.28136832e-002, 5.41470759e-002,
          3.64906229e-002, 8.98637027e-002, 2.02009320e-001,
          2.82379061e-001, 2.82379061e-001, 1.14239208e-001,
          7.91962445e-002, 2.85301148e-003, 5.26434556e-002,
          3.37234437e-002, 7.90097490e-002, 1.74824655e-001,
          2.82379061e-001, 2.82379061e-001, 1.19469352e-001,
          5.13075255e-002, 3.01465020e-002, 3.27824168e-002,
          4.86735143e-002, 1.59495518e-001, 2.65378028e-001,
          2.82379061e-001, 2.82379061e-001, 1.05507605e-001,
          1.38067260e-001, 1.60267986e-002, 3.51895094e-002,
          8.39957669e-002, 1.53544649e-001, 1.99642554e-001,
          2.82379061e-001, 2.82379061e-001, 1.57971188e-001,
          2.44676515e-001, 4.96925041e-002, 1.55911341e-001,
          8.99184495e-002, 2.44676515e-001, 2.40523383e-001,
          2.44676515e-001, 2.44676515e-001, 2.44676515e-001,
          1.75981030e-001, 1.58431038e-001, 8.74446854e-002,
          1.32531345e-001, 2.44676515e-001, 1.76881820e-001,
          9.81819630e-002, 1.00516155e-001, 1.37082055e-001,
          2.44676515e-001, 2.14306768e-002, 1.12831630e-001,
          1.20341100e-001, 2.44676515e-001, 1.85777918e-001,
          2.44676515e-001, 2.36281320e-001, 1.86218560e-001,
          9.39619690e-002, 9.78102013e-002, 5.13895117e-002,
          5.78771606e-002, 1.51826978e-001, 6.29815236e-002,
          5.37865870e-002, 4.81812395e-002, 7.50147700e-002,
          3.38411778e-002, 8.05129018e-003, 3.60354176e-003,
          2.73613986e-002, 9.71441269e-002, 9.77693275e-002,
          1.92490190e-001, 6.29268438e-002, 3.42532694e-002,
          1.12318292e-001, 7.35581890e-002, 9.98031870e-002,
          1.25501633e-001, 3.18617314e-001, 3.18617314e-001,
          3.18617314e-001, 3.18617314e-001, 1.03709489e-001,
          4.64170352e-002, 8.59435834e-003, 2.92314310e-003,
          1.08052408e-002, 8.28895792e-002, 8.13749209e-002,
          1.05134152e-001, 9.10575390e-002, 5.29124849e-002,
          1.56270012e-001, 3.85257713e-002, 5.84703945e-002,
          5.84167689e-002, 3.18617314e-001, 3.18617314e-001,
          3.18617314e-001, 2.75849640e-001, 1.47416174e-001,
          1.51853025e-001, 1.08754188e-001, 1.31147459e-001,
          1.39196962e-001, 2.65492827e-001, 2.65492827e-001,
          2.65492827e-001, 2.65492827e-001, 1.53205022e-001,
          1.61501691e-001, 5.13891056e-002, 5.23699932e-002,
          1.09133102e-001, 2.65492827e-001, 2.19580933e-001,
          2.65492827e-001, 2.33456254e-001, 1.76910624e-001,
          1.66225508e-001, 4.23678681e-002, 7.20616430e-002,
          8.96649733e-002, 2.65492827e-001, 1.99274510e-001,
          2.65492827e-001, 1.31147489e-001, 1.31948173e-001,
          7.75066242e-002, 1.66324060e-002, 2.48887092e-002,
          4.56534438e-002, 1.64424747e-001, 4.43076231e-002,
          4.62394506e-002, 2.87079308e-002, 5.65915741e-002,
          3.26414376e-001, 9.11762863e-002, 1.21978767e-001,
          3.05129796e-001, 3.26414376e-001, 3.26414376e-001,
          3.26414376e-001, 3.26414376e-001, 3.26414376e-001,
          1.45420849e-001, 1.32010162e-001, 9.58874226e-002,
          4.56880406e-002, 2.01648533e-001, 4.17619608e-002,
          6.09279945e-002, 1.16021797e-001, 1.42613813e-001,
          1.09184437e-001, 2.37587467e-002, 1.70839168e-002,
          3.91494073e-002, 1.67434245e-001, 3.31501663e-002,
          5.52014410e-002, 2.63992362e-002, 8.57834145e-002,
          1.01859406e-001, 1.95296668e-002, 3.08095589e-002,
          2.83947699e-002, 1.85879022e-001, 1.24397092e-002,
          6.32420555e-003, 2.64593698e-002, 9.42650661e-002 ]
      - [ 1.62559040e-002, 1.79037061e-002, 2.50493158e-002,
          3.19071338e-002, 6.18507974e-002, 1.12421885e-002,
          3.02297249e-003, 1.31564746e-002, 2.29887199e-002,
          1.97313696e-001, 1.80562049e-001, 1.24785058e-001,
          2.56051093e-001, 2.56051093e-001, 2.35501260e-001,
          1.71385512e-001, 1.20320998e-001, 1.17716223e-001,
          3.18309404e-002, 7.67552555e-002, 2.56051093e-001,
          1.95955306e-001, 6.98213428e-002, 4.03436720e-002,
          2.05850601e-002, 1.24305589e-002, 3.43331508e-002,
          2.03420222e-001, 2.56051093e-001, 2.56051093e-001,
          2.56051093e-001, 2.24483892e-001, 2.56051093e-001,
          2.56051093e-001, 2.56051093e-001, 2.34261900e-001,
          1.54803067e-001, 1.11847773e-001, 1.12860255e-001,
          2.35852346e-001, 1.68622389e-001, 2.32801273e-001,
          2.54296839e-001, 9.46559459e-002, 9.97750983e-002,
          5.97952046e-002, 4.86709438e-002, 8.85905027e-002,
          1.67824626e-001, 1.13110401e-001, 1.31540626e-001,
          1.95991442e-001, 9.44017172e-002, 7.51016065e-002,
          9.50618312e-002, 8.25391933e-002, 9.63170677e-002,
          1.11419484e-001, 1.26508698e-001, 2.96618670e-001,
          2.96618670e-001, 2.96618670e-001, 1.55226156e-001,
          2.75817905e-002, 2.19059456e-002, 3.77280302e-002,
          5.13978079e-002, 7.25333691e-002, 2.42563725e-001,
          2.96618670e-001, 2.96618670e-001, 1.18364953e-001,
          7.06094131e-002, 4.72584739e-002, 3.59501988e-002,
          8.47057253e-002, 1.85357347e-001, 1.68955654e-001,
          1.65399343e-001, 1.68051332e-001, 1.68102667e-001,
          1.28810748e-001, 5.26634678e-002, 3.08637451e-002,
          4.78540063e-002, 2.43125930e-001, 2.30116680e-001,
          1.40104815e-001, 1.14807665e-001, 2.53692269e-001,
          6.15536906e-002, 4.14627902e-002, 1.11136258e-001,
          6.02347590e-002, 2.43357986e-001, 2.14378089e-001,
          2.54346609e-001, 2.54346609e-001, 2.54346609e-001,
          6.42975420e-002, 2.64663715e-002, 4.27940674e-002,
          5.94330356e-002, 2.43456751e-001, 2.46305108e-001,
          2.37663165e-001, 1.76388264e-001, 2.54346609e-001,
          2.37932634e-002, 4.13011126e-002, 1.86049983e-001,
          1.39176816e-001, 8.63995627e-002, 1.11411206e-001,
          1.09585874e-001, 2.96538100e-002, 3.35354246e-002,
          8.35373551e-002, 9.52235013e-002, 3.06557804e-001,
          1.91586226e-001, 1.01144724e-001, 3.06557804e-001,
          3.06557804e-001, 3.06557804e-001, 1.80427849e-001,
          1.37292091e-002, 2.05994155e-002, 4.81319316e-002,
          4.48700190e-002, 8.18893611e-002, 1.78031072e-001,
          2.31900781e-001, 4.06969376e-002, 3.17993909e-002,
          3.24135125e-002, 4.86259162e-002, 7.76097775e-002,
          6.89400509e-002, 1.57604262e-001, 3.06557804e-001,
          3.06557804e-001, 3.06557804e-001, 1.20792419e-001,
          3.01444605e-002, 2.18473412e-002, 4.50236611e-002,
          2.57415585e-002, 4.28921804e-002, 2.31783703e-001,
          2.86767960e-001, 2.86767960e-001, 1.10693537e-001,
          5.80656938e-002, 2.11695936e-002, 5.84887750e-002,
          7.16337143e-003, 6.81308657e-002, 1.72171861e-001,
          2.86767960e-001, 2.86767960e-001, 1.45828620e-001,
          3.27941701e-002, 6.94685057e-002, 3.57831679e-002,
          3.25538889e-002, 1.21741727e-001, 2.86767960e-001,
          2.86767960e-001, 2.86767960e-001, 1.14963591e-001,
          1.19928852e-001, 1.33885592e-001, 1.10011749e-001,
          3.01386975e-002, 1.29891798e-001, 1.65607587e-001,
          2.86767960e-001, 2.16410875e-001, 1.78276092e-001,
          1.81217000e-001, 6.15148433e-002, 2.50594169e-001,
          4.52124141e-002, 2.50594169e-001, 1.89393714e-001,
          2.50594169e-001, 2.50594169e-001, 2.50594169e-001,
          1.01592489e-001, 3.10707018e-002, 6.90213889e-002,
          5.70855439e-002, 2.14842096e-001, 1.39519125e-001,
          1.33401752e-001, 1.05495587e-001, 1.63210511e-001,
          2.50594169e-001, 1.61337346e-001, 2.38973469e-001,
          3.95039469e-002, 1.97081029e-001, 1.54666886e-001,
          2.47321531e-001, 1.59580469e-001, 2.50594169e-001,
          2.26459831e-001, 3.52173001e-002, 4.95464988e-002,
          3.23159359e-002, 1.25840053e-001, 6.04628660e-002,
          7.61225447e-002, 5.05031310e-002, 1.57878116e-001,
          2.76441090e-002, 2.52490137e-002, 4.00825739e-002,
          2.19374839e-002, 7.68143535e-002, 1.50940850e-001,
          1.92166269e-001, 4.95227017e-002, 2.84618437e-002,
          6.40495569e-002, 1.09736457e-001, 9.04354528e-002,
          5.92724048e-002, 2.75567263e-001, 3.51946563e-001,
          3.51946563e-001, 3.51946563e-001, 1.34803981e-001,
          6.27560988e-002, 2.52138674e-002, 1.57125387e-002,
          2.45007928e-002, 9.20500606e-002, 8.00114870e-002,
          1.35044470e-001, 7.56111518e-002, 3.42282020e-002,
          1.07313685e-001, 1.07890360e-001, 1.04868695e-001,
          4.98388037e-002, 2.42626145e-001, 3.32324833e-001,
          3.51946563e-001, 2.03525946e-001, 1.17978781e-001,
          8.90939012e-002, 1.86213613e-001, 1.28174216e-001,
          6.21535927e-002, 2.50921935e-001, 2.50921935e-001,
          2.50921935e-001, 2.50921935e-001, 1.90781698e-001,
          1.49215564e-001, 2.34692648e-001, 1.50977731e-001,
          7.84785002e-002, 2.50921935e-001, 1.80180833e-001,
          2.12157965e-001, 1.14638619e-001, 1.92852810e-001,
          1.01829313e-001, 1.27801701e-001, 1.40350610e-001,
          3.52822542e-002, 2.50921935e-001, 2.21608728e-001,
          2.28914246e-001, 8.98537412e-002, 1.37275353e-001,
          7.13911429e-002, 6.18193746e-002, 7.40800723e-002,
          3.58161442e-002, 2.50921935e-001, 1.16385520e-001,
          5.33044040e-002, 3.88608649e-002, 1.16984747e-001,
          2.69434005e-001, 2.69434005e-001, 1.90793857e-001,
          1.00412056e-001, 2.69434005e-001, 1.87464193e-001,
          2.10497186e-001, 1.51763111e-001, 2.69434005e-001,
          2.69434005e-001, 6.10693321e-002, 5.31334355e-002,
          3.82510200e-002, 1.19543970e-001, 7.06848353e-002,
          7.58081004e-002, 8.88197199e-002, 1.75328940e-001,
          1.52720034e-001, 3.25311758e-002, 4.71467562e-002,
          1.00351140e-001, 2.69434005e-001, 2.69434005e-001,
          1.48733482e-001, 1.69623360e-001, 2.69434005e-001,
          8.67399722e-002, 2.64321938e-002, 3.58245336e-002,
          5.30977398e-002, 2.32202604e-001, 8.74812603e-002,
          4.42077219e-002, 9.95192677e-002, 1.50263533e-001 ]
      - [ 1.79995388e-001, 1.87237673e-002, 1.89568568e-002,
          2.05420777e-002, 7.40149915e-002, 9.07224230e-003,
          8.13710038e-003, 2.64071804e-002, 1.57316849e-001,
          2.71147341e-001, 1.31450027e-001, 1.15821987e-001,
          1.69510484e-001, 2.71147341e-001, 8.36398974e-002,
          1.25272006e-001, 1.86278626e-001, 2.71147341e-001,
          2.71147341e-001, 1.98333003e-002, 2.67070662e-002,
          2.38852855e-002, 4.75282818e-002, 3.38552743e-002,
          1.97473709e-002, 4.81137633e-002, 2.69780308e-001,
          2.71147341e-001, 5.39796613e-002, 1.17123246e-001,
          2.47852594e-001, 2.71147341e-001, 1.64157212e-001,
          2.32502416e-001, 2.48171613e-001, 2.71147341e-001,
          1.60846218e-001, 5.69173247e-002, 3.51274572e-002,
          9.22806635e-002, 2.34033927e-001, 7.70045295e-002,
          1.53405219e-001, 1.43945083e-001, 2.34033927e-001,
          2.16458902e-001, 1.24363028e-001, 2.09206969e-001,
          5.40609136e-002, 1.38222277e-001, 5.35257943e-002,
          1.23698197e-001, 1.05170332e-001, 1.78185463e-001,
          2.09454551e-001, 4.36092354e-002, 4.51425016e-002,
          1.45291701e-001, 2.34033927e-001, 1.17404014e-001,
          2.34033927e-001, 2.34033927e-001, 2.34033927e-001,
          2.34033927e-001, 2.10351795e-001, 1.61208466e-001,
          7.91481137e-002, 1.45265043e-001, 1.15138687e-001,
          1.97137162e-001, 2.21184000e-001, 2.34033927e-001,
          2.79831469e-001, 2.79831469e-001, 2.79831469e-001,
          1.23691671e-001, 2.08725542e-001, 1.19280159e-001,
          9.61278826e-002, 4.58826013e-002, 1.90750018e-001,
          6.67259246e-002, 4.44453731e-002, 9.95510146e-002,
          5.75895011e-002, 9.80722234e-002, 7.20923841e-002,
          4.87288535e-002, 1.95930023e-002, 4.58718129e-002,
          2.79831469e-001, 2.79831469e-001, 2.79831469e-001,
          1.64515883e-001, 2.79831469e-001, 2.72665143e-001,
          1.76879153e-001, 1.17596626e-001, 2.79831469e-001,
          5.10825925e-002, 6.77050427e-002, 1.12994425e-001,
          9.55084860e-002, 1.30441755e-001, 8.96888003e-002,
          7.76011795e-002, 3.24168913e-002, 5.34672476e-002,
          9.57555920e-002, 7.52133736e-003, 1.69265270e-002,
          1.52006233e-002, 5.09333089e-002, 4.82919216e-002,
          4.28893007e-002, 3.78740132e-002, 7.74568394e-002,
          1.96859390e-001, 9.23908278e-002, 2.60972798e-001,
          2.67868638e-001, 2.68936843e-001, 1.25708282e-001,
          1.94261357e-001, 1.22372538e-001, 2.47230470e-001,
          4.03875373e-002, 1.68355461e-002, 2.31730510e-002,
          1.52038513e-002, 1.90798014e-001, 9.00304019e-002,
          8.65451843e-002, 7.68504441e-002, 4.71632294e-002,
          1.55092150e-001, 2.18019098e-001, 2.68936843e-001,
          2.52434820e-001, 2.68936843e-001, 1.97628170e-001,
          2.68936843e-001, 2.40348861e-001, 2.68936843e-001,
          1.73763186e-001, 4.76535931e-002, 9.74021703e-002,
          1.16191238e-001, 1.61081955e-001, 7.49295652e-002,
          2.35754490e-001, 1.49251267e-001, 2.48632982e-001,
          2.48632982e-001, 1.08353481e-001, 5.02254441e-002,
          6.75688162e-002, 7.86764994e-002, 1.04323059e-001,
          2.48632982e-001, 1.40987545e-001, 2.48632982e-001,
          1.71158805e-001, 8.78266469e-002, 9.86767709e-002,
          8.95413458e-002, 1.51765436e-001, 6.83690906e-002,
          2.48632982e-001, 2.27233320e-001, 2.48632982e-001,
          2.48632982e-001, 3.74974050e-002, 3.30408439e-002,
          8.62133726e-002, 1.02624327e-001, 7.54541233e-002,
          2.48632982e-001, 2.45436877e-001, 2.48632982e-001,
          2.60077953e-001, 1.88760102e-001, 9.84654427e-002,
          1.44175783e-001, 2.60077953e-001, 2.47044072e-001,
          2.60077953e-001, 1.00704111e-001, 2.60077953e-001,
          6.19634762e-002, 4.46380526e-002, 4.87841703e-002,
          8.52067545e-002, 1.76682055e-001, 9.97480229e-002,
          8.65060613e-002, 4.89548296e-002, 7.75767341e-002,
          2.60077953e-001, 6.14431165e-002, 4.95713986e-002,
          2.19135940e-001, 2.60077953e-001, 1.97949454e-001,
          2.60077953e-001, 1.93076119e-001, 2.60077953e-001,
          9.48988423e-002, 4.45850603e-002, 3.87698598e-002,
          8.71115625e-002, 2.38071471e-001, 1.18019007e-001,
          6.84825331e-002, 7.79470876e-002, 1.19510509e-001,
          6.96982071e-002, 3.60912569e-002, 4.08532321e-002,
          3.03758960e-002, 2.74047256e-001, 9.12893042e-002,
          1.07008077e-001, 1.00635767e-001, 1.11626722e-001,
          1.89194813e-001, 1.96945608e-001, 1.40575945e-001,
          2.10965201e-001, 3.14279884e-001, 2.52503067e-001,
          3.14279884e-001, 3.14279884e-001, 3.14279884e-001,
          8.21107179e-002, 1.64291244e-002, 4.17713933e-002,
          4.00443636e-002, 9.73778963e-002, 1.07818879e-001,
          2.75589168e-001, 1.43201217e-001, 1.25006780e-001,
          1.07891940e-001, 3.52049507e-002, 3.33387181e-002,
          5.57331741e-002, 9.60847586e-002, 6.38676435e-002,
          1.65510088e-001, 1.50305897e-001, 2.21343175e-001,
          1.78967834e-001, 8.04770365e-002, 4.24601436e-002,
          6.24161698e-002, 1.08937666e-001, 8.71196315e-002,
          2.85293400e-001, 2.85293400e-001, 2.85293400e-001,
          2.85293400e-001, 4.78900634e-002, 4.71916944e-002,
          7.01163337e-002, 2.85293400e-001, 1.34306952e-001,
          2.85293400e-001, 2.85293400e-001, 2.85293400e-001,
          8.06419551e-002, 1.82397105e-002, 1.43592674e-002,
          2.15810630e-002, 3.45064439e-002, 2.74442006e-002,
          1.00255840e-001, 1.22719750e-001, 1.84440002e-001,
          1.32094815e-001, 3.32764462e-002, 3.20764259e-002,
          2.70949136e-002, 1.74590558e-001, 7.28765056e-002,
          1.58628970e-001, 1.75910398e-001, 2.72162586e-001,
          2.79154062e-001, 9.32292417e-002, 8.09116215e-002,
          1.66088581e-001, 2.79154062e-001, 2.79154062e-001,
          2.79154062e-001, 2.79154062e-001, 2.79154062e-001,
          1.24455921e-001, 7.07193613e-002, 3.60103175e-002,
          7.93235302e-002, 2.66742349e-001, 1.42534673e-001,
          9.72074047e-002, 8.64656866e-002, 1.09957956e-001,
          1.67704180e-001, 7.18327686e-002, 5.75506538e-002,
          6.37205765e-002, 2.79154062e-001, 1.79863468e-001,
          2.36389384e-001, 1.71585843e-001, 2.27998257e-001,
          5.68649285e-002, 3.46748717e-002, 2.21315399e-002,
          3.61255892e-002, 1.50584415e-001, 9.15087089e-002,
          8.89689997e-002, 4.42165770e-002, 5.35793900e-002 ]
      - [ 3.64935547e-002, 1.56302396e-002, 1.02139059e-002,
          3.18770073e-002, 8.90999362e-002, 2.62295827e-002,
          1.63621642e-002, 3.58772241e-002, 3.72996591e-002,
          2.79909581e-001, 1.57256305e-001, 2.14606151e-001,
          1.84696361e-001, 2.79909581e-001, 1.73339978e-001,
          1.56637356e-001, 1.36456370e-001, 2.79909581e-001,
          1.38525981e-002, 2.51749121e-002, 1.69739202e-002,
          5.47159500e-002, 7.82075226e-002, 7.26376548e-002,
          1.43001691e-001, 8.38887766e-002, 1.90522783e-002,
          2.53207475e-001, 1.14540413e-001, 1.11962937e-001,
          2.79909581e-001, 2.79909581e-001, 2.34398991e-001,
          2.79909581e-001, 2.61390835e-001, 2.79909581e-001,
          1.81821436e-001, 1.69639543e-001, 1.22866899e-001,
          6.74647465e-002, 2.49159858e-001, 5.86752929e-002,
          6.44390732e-002, 5.69696017e-002, 1.43667877e-001,
          2.53345102e-001, 2.53345102e-001, 2.53345102e-001,
          1.21665023e-001, 1.43479005e-001, 5.28383069e-002,
          3.55795734e-002, 3.29792276e-002, 1.39481783e-001,
          2.12799639e-001, 1.76356912e-001, 1.13690294e-001,
          1.62515670e-001, 2.53345102e-001, 7.11005703e-002,
          1.07172929e-001, 1.18408553e-001, 1.95429608e-001,
          2.53345102e-001, 2.53345102e-001, 2.53345102e-001,
          1.87921956e-001, 1.25055507e-001, 5.07484525e-002,
          6.06287941e-002, 8.53286758e-002, 2.53345102e-001,
          2.72507638e-001, 2.72507638e-001, 2.72507638e-001,
          2.50832766e-001, 1.05865002e-001, 1.43536508e-001,
          6.18093796e-002, 5.16644642e-002, 1.40103117e-001,
          8.37931260e-002, 6.51575625e-002, 1.10048957e-001,
          8.74851793e-002, 6.42353967e-002, 9.53090042e-002,
          1.68442458e-001, 1.47240788e-001, 1.35769472e-001,
          2.72507638e-001, 2.72507638e-001, 2.72507638e-001,
          2.72507638e-001, 1.70138091e-001, 1.44085437e-001,
          7.42460191e-002, 9.04902294e-002, 2.72507638e-001,
          1.02324031e-001, 6.50857463e-002, 5.13173304e-002,
          1.32772952e-001, 1.18348144e-001, 8.81272182e-002,
          1.16931647e-001, 1.21653438e-001, 1.44908160e-001,
          2.47417744e-002, 4.90335636e-002, 3.05144489e-002,
          6.42167330e-002, 7.46163651e-002, 8.90037790e-002,
          2.37685427e-001, 1.07198320e-001, 2.56324038e-002,
          1.47905841e-001, 1.32971779e-001, 1.16737656e-001,
          3.13591748e-001, 3.13591748e-001, 2.33577073e-001,
          3.13591748e-001, 2.18108729e-001, 1.09547243e-001,
          3.15105207e-002, 7.41356611e-002, 4.50505465e-002,
          3.81055474e-002, 4.56427671e-002, 4.58875857e-002,
          8.87525976e-002, 5.43788187e-002, 3.71234864e-002,
          1.55101642e-001, 1.38379931e-001, 1.41006336e-001,
          3.13591748e-001, 3.13591748e-001, 2.45178878e-001,
          2.50760853e-001, 1.36094153e-001, 1.29125178e-001,
          2.23361015e-001, 9.55980271e-002, 9.41079035e-002,
          1.30254328e-001, 2.70193607e-001, 4.83049564e-002,
          6.46625459e-002, 6.88951612e-002, 1.80401951e-001,
          2.89502531e-001, 1.82079673e-001, 1.64352015e-001,
          8.38839337e-002, 1.16933197e-001, 3.43910679e-002,
          3.91624905e-002, 1.30682185e-001, 2.89502531e-001,
          2.73632854e-001, 5.59940413e-002, 7.11233914e-002,
          1.63052276e-001, 2.89502531e-001, 6.02818318e-002,
          7.92343095e-002, 5.69620952e-002, 2.71499515e-001,
          2.89502531e-001, 1.29697263e-001, 8.44876096e-002,
          5.85259758e-002, 1.41190797e-001, 4.71467003e-002,
          4.85452265e-002, 1.65212020e-001, 2.89502531e-001,
          2.99202919e-001, 2.97901988e-001, 1.61653534e-001,
          2.15414271e-001, 1.76639766e-001, 1.19449489e-001,
          3.86108533e-002, 2.31903419e-001, 2.99202919e-001,
          7.52320811e-002, 6.34039044e-002, 3.20806280e-002,
          9.91767272e-002, 1.17347397e-001, 7.01611191e-002,
          4.23622318e-002, 6.34557530e-002, 1.16155140e-001,
          2.99202919e-001, 2.46281698e-001, 1.31628752e-001,
          1.41710564e-001, 2.24240497e-001, 1.86096743e-001,
          4.24269885e-002, 2.99202919e-001, 2.99202919e-001,
          5.03670461e-002, 4.61211540e-002, 3.70565690e-002,
          6.52759746e-002, 1.18089467e-001, 9.11509544e-002,
          2.54354570e-002, 8.14887807e-002, 6.48753643e-002,
          3.14798169e-002, 8.17051828e-002, 3.98576818e-002,
          1.96384247e-002, 3.46590318e-002, 2.88268793e-002,
          3.32507566e-002, 2.89396401e-002, 3.24475802e-002,
          3.22549671e-001, 2.27521747e-001, 1.70124307e-001,
          3.22549671e-001, 3.22549671e-001, 2.53074616e-001,
          2.89092064e-001, 2.20982552e-001, 2.76462823e-001,
          5.45236208e-002, 5.13236523e-002, 9.99550615e-003,
          5.56397391e-003, 1.06292002e-001, 9.04617179e-003,
          9.00603645e-003, 1.99102722e-002, 5.00168279e-002,
          2.41987154e-001, 1.58873707e-001, 7.89014250e-002,
          1.55327067e-001, 3.22549671e-001, 8.30975994e-002,
          1.29538178e-001, 1.12423949e-001, 2.04422727e-001,
          3.76185894e-001, 8.52240175e-002, 7.30450079e-002,
          2.36663103e-001, 3.28795463e-001, 7.45719969e-002,
          1.22577928e-001, 1.18529841e-001, 3.76185894e-001,
          3.76185894e-001, 1.13710426e-001, 1.10344075e-001,
          8.09632167e-002, 1.31579667e-001, 5.08045442e-002,
          6.21816367e-002, 1.66154876e-001, 3.76185894e-001,
          1.40502498e-001, 4.46201302e-002, 2.87357587e-002,
          5.01304828e-002, 7.85758942e-002, 2.05871053e-002,
          3.14447731e-002, 2.35112440e-002, 1.08687118e-001,
          2.27002472e-001, 1.93687193e-002, 1.82134565e-002,
          2.30543409e-002, 4.49040607e-002, 7.55060138e-003,
          6.54288707e-003, 4.08044597e-003, 1.89404994e-001,
          3.76740664e-001, 1.94710314e-001, 3.16093743e-001,
          2.03800485e-001, 3.11776221e-001, 2.24019185e-001,
          5.07506467e-002, 3.76740664e-001, 3.76740664e-001,
          1.28068477e-001, 3.86432484e-002, 9.96822640e-002,
          9.42631438e-002, 1.81571007e-001, 1.14494510e-001,
          2.69044302e-002, 9.84898731e-002, 7.53096789e-002,
          2.73963034e-001, 3.66014391e-002, 4.64229919e-002,
          2.91231740e-002, 5.73918931e-002, 1.10371476e-002,
          5.13044093e-003, 3.64775513e-003, 2.07435697e-001,
          6.60475567e-002, 2.94296425e-002, 2.50747129e-002,
          2.13852730e-002, 8.57049599e-002, 7.25242356e-003,
          5.41728223e-003, 5.43422159e-003, 5.06426618e-002 ]
      - [ 9.15485993e-002, 1.14680901e-001, 5.25051355e-002,
          5.20460457e-002, 1.01625204e-001, 2.87617669e-002,
          3.17766592e-002, 2.55995169e-002, 3.85257937e-002,
          2.60002851e-001, 2.60002851e-001, 1.71383560e-001,
          1.15224510e-001, 1.55964017e-001, 9.24027339e-002,
          7.63119608e-002, 4.94217873e-002, 2.51909614e-001,
          9.27697048e-002, 1.37395352e-001, 6.57938123e-002,
          5.96934147e-002, 2.60002851e-001, 8.22717249e-002,
          1.35824546e-001, 4.10641357e-002, 5.54109141e-002,
          2.60002851e-001, 2.60002851e-001, 2.60002851e-001,
          9.28755626e-002, 2.60002851e-001, 2.60002851e-001,
          2.60002851e-001, 2.42636412e-001, 2.60002851e-001,
          2.09272504e-001, 1.03176288e-001, 1.62409514e-001,
          1.73110232e-001, 1.64701104e-001, 1.92843407e-001,
          1.16105095e-001, 5.88139705e-002, 1.61781490e-001,
          8.90150294e-002, 4.66416851e-002, 1.51468888e-001,
          2.28715658e-001, 2.17351526e-001, 1.94948554e-001,
          1.68823540e-001, 8.84882808e-002, 8.84051025e-002,
          2.28715658e-001, 1.07639611e-001, 2.05402255e-001,
          1.10354282e-001, 2.28715658e-001, 2.28715658e-001,
          2.02922761e-001, 1.38425767e-001, 1.51384324e-001,
          1.25926629e-001, 4.11883630e-002, 1.63385466e-001,
          2.13305041e-001, 2.28715658e-001, 2.28715658e-001,
          2.24577576e-001, 1.01952627e-001, 5.84211275e-002,
          7.51078650e-002, 4.21961583e-002, 1.49108484e-001,
          2.50763088e-001, 2.50763088e-001, 2.29853138e-001,
          2.31538326e-001, 1.52769729e-001, 1.51805907e-001,
          8.57416987e-002, 1.96111146e-002, 1.18647814e-002,
          6.20221458e-002, 2.50763088e-001, 2.18716010e-001,
          2.50763088e-001, 2.50763088e-001, 2.50763088e-001,
          6.75640255e-002, 6.55454099e-002, 1.27278984e-001,
          2.50763088e-001, 2.50763088e-001, 2.50763088e-001,
          2.50763088e-001, 1.42265260e-001, 9.21857208e-002,
          8.01562592e-002, 5.26079834e-002, 1.32845398e-002,
          3.18220407e-002, 1.35974303e-001, 6.93451017e-002,
          8.58424455e-002, 1.14933327e-001, 1.36288330e-001,
          1.94112007e-002, 1.88120585e-002, 2.24158168e-002,
          3.60750780e-002, 2.71613091e-001, 8.97513330e-002,
          5.28493114e-002, 4.95540313e-002, 5.38571365e-002,
          1.37546718e-001, 6.01290725e-002, 9.76975560e-002,
          6.24234416e-002, 3.07759613e-001, 3.02011549e-001,
          1.98162496e-001, 2.93442160e-001, 1.82969451e-001,
          5.81239490e-003, 7.39930477e-003, 1.31743765e-002,
          4.99896705e-002, 2.46906340e-001, 1.09391220e-001,
          3.94910499e-002, 3.01539004e-002, 3.54529656e-002,
          2.33822733e-001, 1.15223281e-001, 8.83544981e-002,
          1.15940206e-001, 3.07759613e-001, 3.07759613e-001,
          2.76471674e-001, 1.85265660e-001, 2.34197780e-001,
          1.23864219e-001, 3.64165977e-002, 5.50797917e-002,
          3.13327834e-002, 2.54505157e-001, 2.30342254e-001,
          2.07257167e-001, 1.51720852e-001, 8.25512037e-002,
          5.97177260e-002, 3.46323773e-002, 2.78660227e-002,
          5.40727451e-002, 2.54505157e-001, 2.54505157e-001,
          2.54505157e-001, 1.34818792e-001, 4.58826125e-002,
          1.99051321e-001, 1.09111920e-001, 6.96956664e-002,
          7.04245120e-002, 2.54505157e-001, 1.62541732e-001,
          2.26075009e-001, 1.71578273e-001, 2.08244175e-001,
          1.05383404e-001, 1.03865698e-001, 4.50442210e-002,
          1.00217178e-001, 2.54505157e-001, 2.19765991e-001,
          2.54505157e-001, 2.29170457e-001, 1.49356231e-001,
          3.59392725e-002, 5.84020428e-002, 2.19634362e-002,
          1.03445262e-001, 3.30466539e-001, 3.30466539e-001,
          3.30466539e-001, 2.30355814e-001, 4.57786582e-002,
          2.96622962e-002, 2.76068170e-002, 1.27546107e-002,
          2.48006284e-002, 7.86725432e-002, 3.30316871e-002,
          3.13850790e-002, 3.29965055e-002, 3.70447077e-002,
          1.83882058e-001, 1.28954053e-001, 3.88532765e-002,
          2.17988223e-001, 3.30466539e-001, 3.30466539e-001,
          3.30466539e-001, 3.30466539e-001, 1.25984341e-001,
          4.21722271e-002, 1.83429066e-002, 8.98242928e-003,
          5.33450991e-002, 1.38903409e-001, 5.59024550e-002,
          4.72758785e-002, 4.58380617e-002, 3.01744230e-002,
          2.05841325e-002, 1.14192665e-002, 1.48133123e-002,
          4.14379947e-002, 2.49051645e-001, 1.02956057e-001,
          9.99824703e-002, 1.31008737e-002, 2.89528202e-002,
          3.06855977e-001, 2.63467699e-001, 1.10677689e-001,
          2.46245861e-001, 3.06855977e-001, 3.06855977e-001,
          3.06855977e-001, 1.55823201e-001, 3.06855977e-001,
          3.01906075e-002, 6.22466020e-003, 1.22245345e-002,
          2.12605428e-002, 6.98129386e-002, 1.81859899e-002,
          2.74041146e-002, 7.07153138e-003, 2.63955500e-002,
          2.98903108e-001, 5.57189099e-002, 4.96022180e-002,
          1.35442421e-001, 3.06855977e-001, 1.30094230e-001,
          1.20051920e-001, 3.77012156e-002, 1.58110902e-001,
          2.41523430e-001, 1.91257700e-001, 9.01795700e-002,
          1.91035837e-001, 2.41523430e-001, 2.26287663e-001,
          2.41523430e-001, 2.19640106e-001, 2.41523430e-001,
          1.65044278e-001, 1.42286524e-001, 7.71526843e-002,
          1.79318547e-001, 2.41523430e-001, 2.08813444e-001,
          2.41523430e-001, 2.41523430e-001, 2.41523430e-001,
          1.61902696e-001, 3.52190807e-002, 3.31850573e-002,
          9.12896842e-002, 1.96207717e-001, 8.75834972e-002,
          7.47528076e-002, 6.06390238e-002, 1.11964002e-001,
          6.68508783e-002, 2.68953592e-002, 2.32516322e-002,
          5.59540614e-002, 1.22122824e-001, 1.35849044e-001,
          1.85640246e-001, 1.64559186e-001, 1.11513987e-001,
          2.71468461e-001, 1.45145774e-001, 6.01623245e-002,
          2.38093808e-001, 2.71468461e-001, 2.71468461e-001,
          2.71468461e-001, 2.71468461e-001, 2.36823499e-001,
          9.79469195e-002, 3.03001795e-002, 3.47442478e-002,
          6.72554001e-002, 1.36422575e-001, 9.31510925e-002,
          7.63042644e-002, 6.88595325e-002, 8.47576410e-002,
          9.01678652e-002, 5.74510396e-002, 2.99327578e-002,
          4.93847840e-002, 1.76520467e-001, 2.71468461e-001,
          2.71468461e-001, 2.71468461e-001, 1.49295866e-001,
          1.30275071e-001, 5.74906059e-002, 8.03379640e-002,
          2.51580477e-002, 1.54690027e-001, 2.08919123e-001,
          8.44192356e-002, 1.05738819e-001, 1.65907189e-001 ]
      - [ 2.35790443e-002, 1.02061769e-002, 1.41119715e-002,
          2.36313324e-002, 6.48886636e-002, 2.39442755e-002,
          1.53798396e-002, 2.09209565e-002, 1.57415029e-002,
          2.82156676e-001, 2.15768710e-001, 2.58453220e-001,
          1.42738417e-001, 2.82156676e-001, 2.46227428e-001,
          1.52273253e-001, 2.03650802e-001, 2.82156676e-001,
          2.30496917e-002, 1.69613715e-002, 1.64336208e-002,
          2.28025038e-002, 5.54012172e-002, 1.70742292e-002,
          1.34560606e-002, 7.53190694e-003, 2.48895735e-002,
          2.68268049e-001, 1.71784908e-001, 1.58634394e-001,
          2.37517074e-001, 2.82156676e-001, 2.82156676e-001,
          1.75475314e-001, 1.83546811e-001, 2.82156676e-001,
          1.94041729e-001, 1.73366368e-001, 1.22227006e-001,
          5.79194352e-002, 2.22679049e-001, 7.91068226e-002,
          4.91929092e-002, 7.86305219e-002, 1.51281476e-001,
          2.53366739e-001, 2.53366739e-001, 2.53366739e-001,
          1.38062149e-001, 1.16644293e-001, 5.66882864e-002,
          3.14948782e-002, 4.30552997e-002, 1.63130686e-001,
          2.53366739e-001, 1.65023953e-001, 1.11157566e-001,
          1.14452116e-001, 2.19343230e-001, 1.68276072e-001,
          6.19657524e-002, 1.15553796e-001, 2.00696394e-001,
          2.53366739e-001, 2.53366739e-001, 2.47212186e-001,
          1.94556341e-001, 8.49037766e-002, 7.94263184e-002,
          4.11815681e-002, 9.30866078e-002, 2.53366739e-001,
          2.70146579e-001, 2.70146579e-001, 2.70146579e-001,
          2.70146579e-001, 8.24912190e-002, 1.14326634e-001,
          5.46935834e-002, 5.70503399e-002, 1.55619532e-001,
          3.55897062e-002, 2.99734361e-002, 7.23360777e-002,
          1.01968996e-001, 4.95557785e-002, 5.51790148e-002,
          6.02291860e-002, 8.76075849e-002, 4.41355929e-002,
          2.70146579e-001, 2.70146579e-001, 2.26869628e-001,
          2.70146579e-001, 1.00204088e-001, 1.49836257e-001,
          1.52976125e-001, 1.57855615e-001, 2.70146579e-001,
          4.96207885e-002, 5.56134917e-002, 3.01080290e-002,
          1.11349195e-001, 6.30114749e-002, 1.28743917e-001,
          2.70146579e-001, 2.70146579e-001, 9.45305154e-002,
          5.11857383e-002, 2.76754685e-002, 4.38422002e-002,
          5.37371337e-002, 7.26632550e-002, 4.54080775e-002,
          1.95046030e-002, 3.71757373e-002, 7.25674927e-002,
          1.97853044e-001, 9.43104997e-002, 1.85833052e-001,
          2.48618871e-001, 2.69843489e-001, 2.69843489e-001,
          9.36831459e-002, 6.42663389e-002, 1.54213652e-001,
          1.07543714e-001, 4.52143550e-002, 4.84023318e-002,
          9.41990241e-002, 1.82684943e-001, 1.57666132e-001,
          8.93997252e-002, 9.81145278e-002, 2.11003423e-001,
          2.20595077e-001, 1.03393108e-001, 2.69843489e-001,
          2.69843489e-001, 2.69843489e-001, 2.69843489e-001,
          1.72362939e-001, 2.22920820e-001, 2.69843489e-001,
          2.72814572e-001, 6.33814111e-002, 9.58144441e-002,
          9.49764922e-002, 2.43992701e-001, 1.25569955e-001,
          4.92612384e-002, 3.76990549e-002, 1.81775868e-001,
          2.96185255e-001, 1.86296001e-001, 1.30937770e-001,
          9.52239335e-002, 1.05649494e-001, 6.87886924e-002,
          3.94970365e-002, 1.09889470e-001, 2.96185255e-001,
          2.84484297e-001, 4.24625166e-002, 1.05334736e-001,
          1.10290170e-001, 2.27781460e-001, 9.10511911e-002,
          5.54513261e-002, 9.38259140e-002, 2.96185255e-001,
          2.96185255e-001, 1.33942842e-001, 7.11197779e-002,
          5.62026538e-002, 1.34150475e-001, 5.99619783e-002,
          4.59744595e-002, 1.76685989e-001, 2.96185255e-001,
          2.57708400e-001, 2.57708400e-001, 7.95445889e-002,
          1.83323488e-001, 9.51796025e-002, 1.26248047e-001,
          9.44670141e-002, 2.01770321e-001, 2.57708400e-001,
          5.10025285e-002, 8.79599452e-002, 2.67594587e-002,
          8.83565098e-002, 5.94978146e-002, 1.27399758e-001,
          2.57708400e-001, 2.42805988e-001, 1.13776423e-001,
          2.57708400e-001, 2.07348719e-001, 8.48832428e-002,
          1.16404004e-001, 1.76390558e-001, 1.77309066e-001,
          5.98506667e-002, 2.57708400e-001, 2.57708400e-001,
          9.20782164e-002, 8.47954229e-002, 4.91811857e-002,
          7.14283139e-002, 1.00736357e-001, 1.99253887e-001,
          1.44514501e-001, 2.57708400e-001, 1.31184965e-001,
          1.07457951e-001, 5.90768941e-002, 3.87013070e-002,
          5.36076874e-002, 1.45299643e-001, 1.44887254e-001,
          1.34048566e-001, 8.64785761e-002, 2.13034645e-001,
          1.97743267e-001, 1.42537922e-001, 1.50349334e-001,
          2.01284260e-001, 2.45977387e-001, 2.45977387e-001,
          2.24391744e-001, 2.45977387e-001, 2.45977387e-001,
          7.74232000e-002, 6.16122745e-002, 2.48446167e-002,
          2.84633674e-002, 1.14350289e-001, 9.58192796e-002,
          8.18606913e-002, 8.67617726e-002, 1.16222970e-001,
          2.45977387e-001, 1.97715923e-001, 4.57117073e-002,
          7.24913403e-002, 2.45977387e-001, 2.45977387e-001,
          2.00284645e-001, 2.45977387e-001, 2.45977387e-001,
          3.60943258e-001, 4.16930169e-002, 1.06042147e-001,
          1.21646844e-001, 2.16869637e-001, 1.70188725e-001,
          8.35629404e-002, 2.53260851e-001, 3.60943258e-001,
          3.60943258e-001, 8.70726556e-002, 9.27619711e-002,
          6.16326593e-002, 1.17386863e-001, 6.15578182e-002,
          4.80560362e-002, 1.92307770e-001, 3.60943258e-001,
          1.55610204e-001, 4.35485914e-002, 1.38290422e-002,
          2.24472601e-002, 1.44286439e-001, 1.43551126e-001,
          7.64564052e-002, 1.28449813e-001, 2.13353857e-001,
          2.03893796e-001, 1.42771611e-002, 1.56888459e-002,
          1.39205055e-002, 6.68981448e-002, 3.49165052e-002,
          2.08757687e-002, 1.90747790e-002, 1.96772590e-001,
          2.74053335e-001, 1.13402173e-001, 1.58405721e-001,
          1.24718897e-001, 2.36035258e-001, 1.41677469e-001,
          1.04020610e-001, 2.59919107e-001, 2.74053335e-001,
          2.74053335e-001, 4.38984632e-002, 7.00346902e-002,
          8.33547339e-002, 1.69743001e-001, 1.95275903e-001,
          2.74053335e-001, 2.74053335e-001, 2.74053335e-001,
          1.88416749e-001, 3.94778177e-002, 4.16599400e-002,
          3.67775336e-002, 7.82635137e-002, 1.60285626e-002,
          5.98660633e-002, 4.40598764e-002, 1.31065190e-001,
          2.36845791e-001, 2.65649222e-002, 3.05985380e-002,
          3.71475890e-002, 8.53030309e-002, 3.03290058e-002,
          2.11709455e-001, 1.32490396e-001, 2.43541345e-001 ]
      - [ 5.33351628e-003, 2.12430081e-004, 1.15505364e-002,
          3.87368142e-003, 5.69169298e-002, 8.49395338e-003,
          6.93964865e-003, 4.81200375e-004, 4.93813027e-003,
          2.98513085e-001, 2.10062057e-001, 2.75878370e-001,
          1.16120495e-001, 2.98513085e-001, 1.47896782e-001,
          1.81894600e-001, 1.52094260e-001, 2.38703072e-001,
          8.23929310e-002, 4.30502137e-003, 1.29431561e-002,
          1.43771609e-002, 1.27536297e-001, 6.97625801e-002,
          2.81773414e-002, 2.45162882e-002, 8.32575038e-002,
          2.98513085e-001, 1.14031479e-001, 1.47954509e-001,
          1.36316448e-001, 2.98513085e-001, 2.32911110e-001,
          2.98513085e-001, 2.25115582e-001, 2.89956361e-001,
          2.05060527e-001, 1.50390565e-001, 1.31971076e-001,
          7.32142106e-002, 2.13889584e-001, 5.78629971e-002,
          8.96537825e-002, 1.06299758e-001, 1.02896698e-001,
          2.53932685e-001, 2.53932685e-001, 2.53932685e-001,
          1.29194111e-001, 1.30741864e-001, 7.63546005e-002,
          6.99286312e-002, 1.13156483e-001, 1.63379028e-001,
          2.53932685e-001, 1.46014184e-001, 1.21875457e-001,
          6.66718856e-002, 2.53932685e-001, 7.02970102e-002,
          1.02521390e-001, 1.35878325e-001, 1.89380065e-001,
          2.53932685e-001, 2.53932685e-001, 2.53932685e-001,
          1.32343635e-001, 1.43659353e-001, 6.21146075e-002,
          4.36011590e-002, 1.11118548e-001, 2.53932685e-001,
          2.77030826e-001, 2.77030826e-001, 2.77030826e-001,
          2.75304556e-001, 1.90496907e-001, 1.93015769e-001,
          3.40698287e-002, 8.93261209e-002, 1.89219370e-001,
          3.18323150e-002, 4.94929403e-002, 7.84702301e-002,
          9.56887305e-002, 9.60967168e-002, 7.33729526e-002,
          1.32023664e-002, 3.17022614e-002, 3.20776030e-002,
          2.77030826e-001, 2.77030826e-001, 2.77030826e-001,
          2.77030826e-001, 2.19846234e-001, 1.98728591e-001,
          4.50361818e-002, 7.42347836e-002, 2.77030826e-001,
          4.56211604e-002, 5.66726401e-002, 6.54739216e-002,
          1.32505193e-001, 1.34452626e-001, 8.64132568e-002,
          2.13158559e-002, 2.85255574e-002, 6.37519434e-002,
          1.47383615e-001, 2.41192430e-002, 1.98426284e-002,
          3.01487688e-002, 1.85228452e-001, 1.17159970e-001,
          1.27216429e-001, 9.18460637e-002, 1.77563593e-001,
          2.26043135e-001, 6.52305558e-002, 1.86287433e-001,
          2.00849533e-001, 2.70242304e-001, 2.00271681e-001,
          2.23636165e-001, 1.20239303e-001, 1.93555549e-001,
          1.01223916e-001, 3.10958065e-002, 1.72583647e-002,
          2.41848715e-002, 1.14396468e-001, 4.98672538e-002,
          1.35663569e-001, 7.42022395e-002, 1.58136055e-001,
          2.03926235e-001, 8.83834362e-002, 2.70242304e-001,
          2.70242304e-001, 2.70242304e-001, 2.21733436e-001,
          1.71755403e-001, 1.65126115e-001, 2.70242304e-001,
          2.47864902e-001, 5.43760732e-002, 1.32748201e-001,
          6.66765794e-002, 2.78246343e-001, 5.45386411e-002,
          6.32950515e-002, 5.78072108e-002, 2.09484965e-001,
          2.99493283e-001, 1.51257470e-001, 1.96799532e-001,
          6.09596297e-002, 1.24788418e-001, 4.82089296e-002,
          4.62976657e-002, 1.06353380e-001, 2.99493283e-001,
          2.74293393e-001, 3.69398333e-002, 1.30715847e-001,
          1.18198916e-001, 2.14317873e-001, 6.79642633e-002,
          5.42431660e-002, 7.32142255e-002, 2.99493283e-001,
          2.99493283e-001, 1.04038678e-001, 1.11401342e-001,
          5.59046604e-002, 1.27123505e-001, 6.06402233e-002,
          5.66827469e-002, 1.33560404e-001, 2.99493283e-001,
          2.91863263e-001, 2.45780259e-001, 2.17493340e-001,
          2.04673499e-001, 1.65263236e-001, 1.54471159e-001,
          8.25951248e-002, 1.49607629e-001, 2.91863263e-001,
          3.70627902e-002, 5.03899343e-002, 5.25020808e-002,
          9.93345305e-002, 1.10779189e-001, 6.64303899e-002,
          4.15030681e-002, 4.67625447e-002, 8.48408416e-002,
          2.91863263e-001, 1.82448998e-001, 1.96444690e-001,
          1.57420814e-001, 2.02889279e-001, 2.07793608e-001,
          1.57792568e-001, 2.81340361e-001, 2.91863263e-001,
          4.48063351e-002, 3.63793559e-002, 7.60756508e-002,
          7.39846900e-002, 1.09711431e-001, 1.28295213e-001,
          1.61833599e-001, 1.36492550e-001, 9.52710137e-002,
          9.24880803e-002, 2.53756419e-002, 2.05880124e-002,
          1.93589404e-002, 8.65148306e-002, 2.16039997e-002,
          6.80469275e-002, 4.06791940e-002, 1.51028752e-001,
          3.37269753e-001, 8.98450688e-002, 3.37269753e-001,
          3.37269753e-001, 3.37269753e-001, 3.37269753e-001,
          1.98981777e-001, 3.37269753e-001, 3.37269753e-001,
          2.02235635e-002, 9.28089547e-004, 3.24257242e-004,
          5.14840183e-004, 2.81692464e-002, 0., 0., 9.32496449e-004,
          1.22511536e-002, 1.83830708e-001, 5.30456007e-003,
          4.50923806e-003, 1.46889267e-002, 1.45228907e-001,
          4.71743941e-002, 1.64399277e-002, 8.91453996e-002,
          1.96769804e-001, 4.07811850e-001, 2.16729362e-002,
          1.28942356e-001, 1.25162125e-001, 2.07863584e-001,
          1.14901558e-001, 8.07976574e-002, 1.79606572e-001,
          4.07811850e-001, 4.07811850e-001, 8.60237330e-002,
          1.26203179e-001, 8.78897384e-002, 9.97851044e-002,
          5.14912680e-002, 6.54228851e-002, 1.53857753e-001,
          4.07811850e-001, 1.09782673e-001, 1.41955307e-003,
          1.33156974e-003, 4.21615411e-003, 2.52066366e-002,
          1.11375498e-002, 7.99625926e-003, 2.73383074e-002,
          1.31974459e-001, 2.26541072e-001, 5.54554164e-003,
          8.30689818e-003, 1.21366978e-002, 1.63242370e-002,
          4.26310953e-003, 8.74437485e-003, 9.06742550e-003,
          2.19181404e-001, 2.86072224e-001, 1.05187155e-001,
          2.30311632e-001, 1.90966383e-001, 1.55561447e-001,
          1.39625072e-001, 1.58945099e-001, 2.50660002e-001,
          2.86072224e-001, 8.83896649e-002, 4.11941782e-002,
          1.04807660e-001, 9.76490900e-002, 1.37837812e-001,
          2.53195316e-001, 2.86072224e-001, 2.76372313e-001,
          1.65906414e-001, 1.74402162e-001, 2.13628542e-002,
          2.88684815e-002, 3.91600132e-002, 4.97936867e-002,
          2.92200837e-002, 3.55467834e-002, 2.68128701e-002,
          1.42143682e-001, 1.03750058e-001, 6.33448735e-002,
          2.82264259e-002, 8.19392875e-002, 2.05163449e-001,
          2.61166155e-001, 1.75459981e-001, 1.81264296e-001,
          2.17328101e-001 ]
      - [ 1.02274157e-001, 5.23223542e-002, 3.74455415e-002,
          7.88887590e-002, 1.73448727e-001, 9.46666226e-002,
          1.89927667e-001, 2.13874832e-001, 2.51917660e-001,
          2.10804343e-001, 6.60924613e-002, 5.97774647e-002,
          1.47282183e-001, 2.05284774e-001, 1.68272167e-001,
          2.51917660e-001, 2.51917660e-001, 2.51917660e-001,
          8.11882168e-002, 4.60677668e-002, 6.61055595e-002,
          4.51688170e-002, 1.71848565e-001, 1.68416813e-001,
          9.25738215e-002, 6.92482069e-002, 1.72136799e-001,
          1.07010081e-001, 9.00277421e-002, 1.09872855e-001,
          1.25146747e-001, 2.51917660e-001, 2.51917660e-001,
          2.04827264e-001, 2.48536691e-001, 2.51917660e-001,
          9.41991806e-002, 3.58963534e-002, 3.78456227e-002,
