%YAML:1.0
my_svm: !!opencv-ml-svm
   svm_type: C_SVC
   kernel: { type:RBF, gamma:8.9999999999999997e-002 }
   C: 10.
   term_criteria: { epsilon:1.1920928955078125e-007,
       iterations:2147483647 }
   var_all: 324
   var_count: 324
   class_count: 9
   class_labels: !!opencv-matrix
      rows: 1
      cols: 9
      dt: i
      data: [ 1, 2, 3, 4, 5, 6, 7, 8, 9 ]
   sv_total: 395
   support_vectors:
      - [ 1.27442718e-001, 5.13398796e-002, 3.75857316e-002,
          5.29660471e-002, 1.63147643e-001, 1.11442894e-001,
          6.18450344e-002, 9.29543227e-002, 2.25955382e-001,
          3.26368302e-001, 2.51930028e-001, 1.41027063e-001,
          1.64324671e-001, 3.26368302e-001, 9.50473621e-002,
          6.91501126e-002, 1.53902069e-001, 3.26368302e-001,
          1.03178464e-001, 4.42551784e-002, 4.91329096e-002,
          6.41886145e-002, 1.48469850e-001, 5.95115125e-002,
          2.63418984e-002, 3.21515501e-002, 1.31809652e-001,
          1.51978359e-001, 1.97531387e-001, 1.65373787e-001,
          3.26368302e-001, 3.26368302e-001, 1.77613571e-001,
          1.64190866e-002, 1.02514438e-002, 7.37032741e-002,
          2.51987666e-001, 2.05913156e-001, 1.10163473e-001,
          1.11629270e-001, 1.95973769e-001, 3.56872156e-002,
          5.02131470e-002, 8.00409392e-002, 2.51987666e-001,
          1.93966255e-001, 1.72873735e-001, 1.33044347e-001,
          1.74703643e-001, 2.51987666e-001, 9.46682319e-002,
          4.67281938e-002, 5.50690107e-002, 1.04802072e-001,
          1.86375991e-001, 2.35086679e-001, 1.53689161e-001,
          2.49807030e-001, 2.51987666e-001, 7.99231082e-002,
          1.10643003e-002, 6.92373700e-003, 3.80092226e-002,
          2.51987666e-001, 2.51987666e-001, 2.03262359e-001,
          2.51987666e-001, 2.51987666e-001, 7.14012906e-002,
          1.07935406e-002, 9.57868341e-003, 4.85021397e-002,
          3.27120632e-001, 1.60174042e-001, 1.39515966e-001,
          1.99541524e-001, 3.27120632e-001, 1.16535306e-001,
          9.14105214e-003, 2.52705440e-002, 3.27120632e-001,
          3.27120632e-001, 3.69599871e-002, 3.20760831e-002,
          3.35469916e-002, 6.47296086e-002, 2.62784585e-002,
          1.07944841e-002, 4.62651923e-002, 3.27120632e-001,
          1.90994382e-001, 2.02246651e-001, 1.65969238e-001,
          3.21121097e-001, 3.27120632e-001, 8.72109160e-002,
          8.81309062e-003, 2.95208506e-002, 6.66129738e-002,
          5.74598610e-002, 2.60649901e-002, 3.11218109e-002,
          5.34829311e-002, 6.11330643e-002, 3.54927741e-002,
          1.16754249e-002, 4.24069613e-002, 9.48969275e-002,
          1.08669497e-001, 1.03961103e-001, 8.13693181e-002,
          5.72785325e-002, 6.78063631e-002, 2.35868804e-002,
          1.42595805e-002, 2.32261214e-002, 4.55650948e-002,
          1.48579031e-001, 2.16867924e-001, 1.46231011e-001,
          2.68827647e-001, 2.82848358e-001, 1.21500053e-001,
          1.51756667e-002, 6.59711007e-003, 2.02232115e-002,
          2.82848358e-001, 2.82848358e-001, 1.88969523e-001,
          1.76780954e-001, 9.11403447e-002, 1.23935780e-002,
          1.23701692e-002, 2.40027905e-002, 2.42781714e-001,
          2.82848358e-001, 2.82848358e-001, 2.82848358e-001,
          2.82848358e-001, 2.79867053e-001, 4.34477478e-002,
          1.14416070e-002, 3.07779759e-002, 4.55015711e-002,
          9.12682042e-002, 1.38457090e-001, 1.50167957e-001,
          2.72187203e-001, 2.72187203e-001, 1.68621853e-001,
          1.66515615e-002, 2.62405467e-003, 1.81901883e-002,
          1.86336756e-001, 1.83100387e-001, 1.39050752e-001,
          2.22812667e-001, 2.72187203e-001, 1.10940158e-001,
          8.91121849e-003, 4.42777341e-003, 3.48450691e-002,
          2.45024830e-001, 2.72187203e-001, 2.52326131e-001,
          2.72187203e-001, 2.72187203e-001, 9.34868827e-002,
          1.23012876e-002, 1.76125243e-002, 2.40565613e-002,
          9.36293155e-002, 1.08969361e-001, 1.18022479e-001,
          2.72187203e-001, 2.72187203e-001, 7.86457732e-002,
          1.03688547e-002, 1.84946577e-003, 1.71395801e-002,
          3.10062289e-001, 3.10062289e-001, 3.10062289e-001,
          3.10062289e-001, 3.10062289e-001, 1.27710164e-001,
          3.02154794e-002, 7.19447434e-002, 2.05200255e-001,
          1.30390480e-001, 5.24848290e-002, 4.96215411e-002,
          1.00134440e-001, 6.67607933e-002, 4.48558591e-002,
          2.39614118e-002, 6.23898283e-002, 1.09550066e-001,
          3.07429641e-001, 1.27860218e-001, 1.81614906e-001,
          3.10062289e-001, 3.10062289e-001, 1.13427714e-001,
          4.15225327e-002, 4.42354046e-002, 1.26491308e-001,
          1.20962769e-001, 3.07017807e-002, 3.71131115e-002,
          5.01809083e-002, 5.05971909e-002, 3.13880406e-002,
          1.76314712e-002, 3.84402014e-002, 5.52024692e-002,
          2.64876544e-001, 1.53014660e-001, 7.72107616e-002,
          8.96377563e-002, 6.14946969e-002, 3.94249149e-002,
          2.08535045e-002, 4.21439111e-002, 2.64876544e-001,
          2.51083195e-001, 2.60622740e-001, 1.72688708e-001,
          2.64876544e-001, 2.64876544e-001, 8.66858140e-002,
          2.28353292e-002, 4.62390855e-002, 8.39573592e-002,
          2.64876544e-001, 7.66563267e-002, 4.65533920e-002,
          5.40684611e-002, 7.21112788e-002, 9.48084593e-002,
          1.06124535e-001, 1.86664432e-001, 2.64876544e-001,
          1.42012984e-001, 8.19916576e-002, 8.50962400e-002,
          2.56047219e-001, 2.64876544e-001, 1.82102337e-001,
          1.04106531e-001, 1.83954671e-001, 1.85676619e-001,
          2.57516593e-001, 2.57516593e-001, 2.55770475e-001,
          2.57516593e-001, 2.57516593e-001, 8.36736411e-002,
          1.04057593e-002, 2.42634974e-002, 3.56236473e-002,
          1.96927711e-001, 1.80933431e-001, 1.46384761e-001,
          2.30143964e-001, 2.14247286e-001, 2.55977977e-002,
          1.02103036e-002, 9.48979892e-003, 6.89408258e-002,
          2.26466730e-001, 1.19440809e-001, 7.68093020e-002,
          2.57516593e-001, 2.57516593e-001, 1.69171512e-001,
          5.65698035e-002, 8.73645023e-002, 1.65710747e-001,
          2.57516593e-001, 1.80717245e-001, 2.01383188e-001,
          8.70961547e-002, 1.03435367e-001, 4.14107442e-002,
          3.27329449e-002, 4.42026034e-002, 1.63759053e-001,
          2.43795440e-001, 8.49600807e-002, 1.19316742e-001,
          1.78847775e-001, 1.47262961e-001, 5.45000210e-002,
          3.77514139e-002, 4.53157574e-002, 2.06197053e-001,
          1.12687729e-001, 1.95093174e-002, 1.80434771e-002,
          3.06391828e-002, 4.25664559e-002, 3.41966078e-002,
          3.05223856e-002, 3.95561904e-002, 1.02452129e-001,
          2.43795440e-001, 2.43795440e-001, 2.43795440e-001,
          2.42433369e-001, 2.43795440e-001, 2.20686153e-001,
          1.54521376e-001, 1.38606191e-001, 2.43795440e-001,
          1.96934521e-001, 7.20834285e-002, 5.33877499e-002,
          2.18345881e-001, 2.43795440e-001, 2.31132269e-001,
          1.96946189e-001, 1.91522196e-001, 2.30518430e-001 ]
      - [ 8.91336426e-003, 4.34527099e-002, 2.18935937e-001,
          2.94660240e-001, 2.94660240e-001, 2.40857527e-002,
          1.22243837e-002, 6.65361807e-003, 1.15831606e-002,
          1.33530125e-002, 4.84527647e-002, 2.06422910e-001,
          2.94660240e-001, 2.94660240e-001, 4.32523340e-002,
          1.60769597e-002, 1.45012923e-002, 2.58798078e-002,
          1.38879782e-002, 2.50662062e-002, 2.73165464e-001,
          2.94660240e-001, 2.94660240e-001, 4.31699567e-002,
          9.17417463e-003, 1.08484905e-002, 1.47686331e-002,
          2.71888431e-002, 1.53099641e-001, 2.94660240e-001,
          2.94660240e-001, 2.94660240e-001, 1.06286034e-001,
          3.52885425e-002, 2.87885889e-002, 3.74966823e-002,
          8.78940523e-003, 1.58276856e-002, 6.44565299e-002,
          3.10651988e-001, 3.10651988e-001, 1.26441628e-001,
          2.60987487e-002, 8.19599628e-003, 1.18900184e-002,
          1.64919123e-002, 9.57289245e-003, 1.45838456e-002,
          2.05892578e-001, 3.10651988e-001, 1.53222740e-001,
          3.38378288e-002, 1.38355820e-002, 1.19168311e-002,
          4.57272269e-002, 2.09266394e-001, 3.10651988e-001,
          3.10651988e-001, 3.10651988e-001, 2.51997888e-001,
          1.22193530e-001, 5.16262874e-002, 4.02742922e-002,
          8.01647604e-002, 4.02456447e-002, 7.27922916e-002,
          1.27849653e-001, 1.72984064e-001, 3.10651988e-001,
          1.65477335e-001, 7.15017244e-002, 1.06611803e-001,
          8.63637030e-002, 7.04773292e-002, 4.74992767e-002,
          1.13007531e-001, 2.96531081e-001, 2.41907731e-001,
          9.08094198e-002, 4.62089367e-002, 4.47928719e-002,
          9.32462886e-002, 6.50587454e-002, 5.58585748e-002,
          1.12596989e-001, 2.87110955e-001, 1.90942302e-001,
          9.33491513e-002, 7.32464120e-002, 7.35187903e-002,
          2.96531081e-001, 4.49578762e-002, 6.23165071e-002,
          1.00433081e-001, 1.80543840e-001, 2.96531081e-001,
          1.67174309e-001, 9.56203341e-002, 2.96531081e-001,
          2.96531081e-001, 1.09784536e-001, 6.79652840e-002,
          8.37323070e-002, 2.37740800e-001, 1.69045985e-001,
          9.25108939e-002, 3.12212855e-002, 2.96531081e-001,
          1.14592619e-001, 1.06308877e-001, 2.69361943e-001,
          2.69361943e-001, 2.67844915e-001, 7.62306750e-002,
          1.69938263e-002, 1.38151636e-002, 3.55400480e-002,
          1.19949043e-001, 2.40810990e-001, 2.69361943e-001,
          2.69361943e-001, 2.69361943e-001, 2.69361943e-001,
          1.03188738e-001, 1.21969029e-001, 1.22088626e-001,
          1.56673104e-001, 9.98243839e-002, 1.65039912e-001,
          2.31770501e-001, 1.38719171e-001, 6.80232048e-002,
          2.94567756e-002, 1.64548084e-002, 6.63798153e-002,
          1.60197407e-001, 1.33610502e-001, 1.05667897e-001,
          1.11853920e-001, 2.09984794e-001, 1.88738659e-001,
          1.07132263e-001, 1.32823259e-001, 1.56615138e-001,
          1.81936964e-001, 2.37503156e-001, 2.37503156e-001,
          1.63899928e-001, 1.23108722e-001, 1.82490200e-001,
          1.53228775e-001, 1.96686864e-001, 1.27588078e-001,
          2.37503156e-001, 1.34872526e-001, 8.26745331e-002,
          3.05978619e-002, 3.03586703e-002, 1.51597351e-001,
          2.01444492e-001, 2.36285359e-001, 2.37503156e-001,
          2.35244066e-001, 2.37503156e-001, 1.04668193e-001,
          4.15096879e-002, 6.67315274e-002, 9.86750722e-002,
          1.05705202e-001, 1.98292300e-001, 1.50262669e-001,
          2.37503156e-001, 1.80681944e-001, 8.94787610e-002,
          5.42167798e-002, 3.50788869e-002, 6.59206584e-002,
          1.30681232e-001, 2.19326332e-001, 2.37503156e-001,
          3.46443743e-001, 1.64417308e-002, 1.05633577e-002,
          7.17169698e-003, 1.44725461e-002, 3.99524868e-002,
          4.89263646e-002, 6.02992773e-002, 3.46443743e-001,
          3.46443743e-001, 3.32799666e-002, 8.84944014e-003,
          5.35269221e-003, 1.86050087e-002, 1.34156849e-002,
          1.02580739e-002, 2.16081291e-002, 3.46443743e-001,
          3.46443743e-001, 5.24608716e-002, 4.02808487e-002,
          3.72791588e-002, 3.09858248e-002, 1.73460972e-002,
          4.76250798e-002, 7.36440793e-002, 3.46443743e-001,
          3.46443743e-001, 5.07808104e-002, 2.57761590e-002,
          1.69037357e-002, 1.27389217e-002, 6.86716242e-003,
          2.04990171e-002, 8.30394253e-002, 3.46443743e-001,
          1.51086792e-001, 2.49024667e-002, 3.58484462e-002,
          7.07802027e-002, 1.48898408e-001, 5.24118729e-002,
          2.71827243e-002, 3.74027453e-002, 1.48017764e-001,
          1.88468799e-001, 9.37428698e-002, 7.16572031e-002,
          4.17220257e-002, 9.97914895e-002, 3.62061188e-002,
          3.12596820e-002, 7.22828135e-002, 1.49178013e-001,
          4.39570159e-001, 2.30739396e-002, 1.07421586e-002,
          3.07581592e-002, 5.27041070e-002, 1.44237708e-002,
          2.11479217e-002, 6.45367503e-002, 4.39570159e-001,
          4.39570159e-001, 9.91924331e-002, 2.84639299e-002,
          1.04367388e-002, 5.24922945e-002, 2.60290448e-002,
          5.32497354e-002, 1.63971812e-001, 4.39570159e-001,
          1.80844739e-001, 1.39756039e-001, 8.13258812e-002,
          3.66814807e-002, 4.90663834e-002, 4.79783677e-002,
          4.46230397e-002, 7.95992389e-002, 1.15430787e-001,
          2.24078700e-001, 1.31936729e-001, 1.04797080e-001,
          8.86416435e-002, 8.28586668e-002, 7.25166723e-002,
          7.00678453e-002, 8.23886395e-002, 1.23713955e-001,
          3.04004759e-001, 1.51948586e-001, 5.56353442e-002,
          2.08700094e-002, 7.42563382e-002, 6.49837554e-002,
          1.26037791e-001, 3.04004759e-001, 3.04004759e-001,
          3.04004759e-001, 3.04004759e-001, 2.16377407e-001,
          9.09942910e-002, 1.32779062e-001, 5.77057861e-002,
          1.06662415e-001, 3.01046222e-001, 3.04004759e-001,
          2.21500471e-001, 5.96650727e-002, 6.56079501e-002,
          6.46690950e-002, 8.60461518e-002, 2.81428322e-002,
          3.92243303e-002, 5.49693778e-002, 1.70166135e-001,
          2.40468189e-001, 7.00219199e-002, 5.68045713e-002,
          5.41279651e-002, 4.22532931e-002, 1.23607907e-002,
          3.15689445e-002, 7.15590119e-002, 2.64188588e-001,
          4.07934159e-001, 2.11173758e-001, 1.21753395e-001,
          4.91263047e-002, 7.69154131e-002, 1.50507446e-002,
          1.62521116e-002, 6.41302690e-002, 4.07934159e-001,
          4.07934159e-001, 6.16664588e-002, 3.70230712e-002,
          2.72490401e-002, 2.71068234e-002, 3.96632450e-003,
          8.13687500e-003, 4.05340493e-002, 4.07934159e-001 ]
      - [ 7.41706789e-002, 2.76769828e-002, 2.81697568e-002,
          1.23661183e-001, 3.14583868e-001, 2.68040538e-001,
          3.91547456e-002, 9.07973200e-003, 1.22196481e-001,
          1.47229359e-001, 5.51464856e-002, 3.67021374e-002,
          6.39829636e-002, 3.02613109e-001, 7.38791302e-002,
          1.49612343e-002, 1.57568026e-002, 1.92659497e-001,
          9.05263722e-002, 3.92967723e-002, 1.07694536e-001,
          2.10969076e-001, 3.14583868e-001, 3.14583868e-001,
          1.03389688e-001, 4.49250676e-002, 1.17267951e-001,
          3.14583868e-001, 7.23504508e-003, 9.51108802e-003,
          2.96657458e-002, 3.14583868e-001, 1.54805109e-001,
          8.12819079e-002, 6.04344457e-002, 3.14583868e-001,
          2.67211378e-001, 1.62627876e-001, 1.37843177e-001,
          9.82658863e-002, 7.11731762e-002, 6.00463571e-003,
          7.88645819e-003, 2.45138742e-002, 2.18810335e-001,
          7.07330257e-002, 7.96846300e-002, 1.27508998e-001,
          1.43772632e-001, 7.30688497e-002, 1.20131001e-002,
          1.66546851e-002, 1.29516739e-002, 3.35905142e-002,
          4.33955044e-001, 2.59844735e-002, 2.29514334e-002,
          1.18960859e-002, 3.32872234e-002, 1.03614340e-002,
          1.98596641e-002, 3.83637436e-002, 4.33955044e-001,
          4.33955044e-001, 2.76495535e-002, 3.27922478e-002,
          2.10570395e-002, 1.07042128e-002, 3.22160311e-003,
          6.65018382e-003, 5.63835213e-003, 4.33955044e-001,
          4.72253673e-002, 3.12086791e-002, 2.52963845e-002,
          2.84969024e-002, 2.34946739e-002, 1.32973017e-002,
          2.02813931e-002, 2.15289630e-002, 3.13046724e-002,
          7.02974051e-002, 7.39544332e-002, 1.48020416e-001,
          3.29845577e-001, 3.44440848e-001, 7.42004737e-002,
          1.07442411e-002, 2.04776246e-002, 5.88430054e-002,
          3.44440848e-001, 2.03520767e-002, 1.59058738e-002,
          7.62518449e-003, 4.56311600e-003, 2.47700582e-003,
          6.05804753e-003, 6.44421903e-003, 3.44440848e-001,
          3.44440848e-001, 1.33754656e-001, 1.38814658e-001,
          2.82498509e-001, 3.44440848e-001, 9.43093002e-002,
          4.83505940e-003, 1.20951934e-002, 3.44440848e-001,
          1.05214335e-001, 5.77313229e-002, 2.21334830e-001,
          2.65599728e-001, 2.90948898e-001, 2.53237844e-001,
          1.29445240e-001, 8.16529691e-002, 1.89911827e-001,
          2.90948898e-001, 2.21574842e-003, 4.87210089e-003,
          1.57112777e-002, 1.48416117e-001, 1.16424121e-001,
          1.02458477e-001, 8.39335322e-002, 2.90948898e-001,
          2.15801328e-001, 2.35393327e-002, 8.70141536e-002,
          9.53179970e-002, 2.90948898e-001, 1.82341620e-001,
          8.51372778e-002, 8.15558881e-002, 2.50191569e-001,
          2.90948898e-001, 9.72635765e-003, 9.71622113e-003,
          1.14980964e-002, 2.30253134e-002, 2.45006569e-002,
          2.96053365e-002, 4.87571470e-002, 2.90948898e-001,
          3.52621168e-001, 1.21575373e-003, 3.26734805e-003,
          3.36287613e-003, 5.10230986e-003, 2.89651542e-003,
          4.61911270e-003, 8.63355584e-003, 3.52621168e-001,
          3.52621168e-001, 2.49210582e-003, 4.90148412e-003,
          1.95813528e-003, 2.07179645e-003, 1.55062566e-003,
          1.35877647e-003, 1.63910224e-003, 3.52621168e-001,
          3.52621168e-001, 4.47133603e-003, 1.18238283e-002,
          1.22012924e-002, 1.46828778e-002, 8.29920359e-003,
          5.72752999e-003, 2.20343228e-002, 3.52621168e-001,
          3.52621168e-001, 6.33809576e-003, 1.39203500e-002,
          6.78864866e-003, 8.15834850e-003, 6.20222604e-003,
          4.02572192e-003, 5.62017271e-003, 3.52621168e-001,
          3.41824502e-001, 3.76458978e-003, 3.64685454e-003,
          9.27855028e-004, 2.70662457e-003, 3.45591968e-003,
          2.60214950e-003, 1.75775343e-003, 3.41824502e-001,
          3.41824502e-001, 1.13269694e-001, 1.03651196e-001,
          1.23029292e-001, 1.18816607e-001, 1.68476682e-002,
          3.25570209e-003, 5.61951660e-003, 3.41824502e-001,
          3.41824502e-001, 8.01424775e-003, 7.78036425e-003,
          4.05539852e-003, 1.48174167e-002, 1.23422528e-002,
          9.12876520e-003, 4.64881537e-003, 3.41824502e-001,
          3.41824502e-001, 4.32547517e-002, 4.12681848e-002,
          1.87776200e-002, 3.10989302e-002, 2.68912464e-002,
          1.94695313e-002, 4.48131189e-002, 3.41824502e-001,
          3.35091978e-001, 1.91322658e-002, 6.12310460e-003,
          8.97246413e-003, 1.22560628e-001, 1.56448916e-001,
          1.14481598e-001, 1.17321037e-001, 3.35091978e-001,
          3.35091978e-001, 1.12500498e-002, 5.40667400e-003,
          4.06676391e-003, 1.17517319e-002, 6.49664504e-003,
          9.48471762e-003, 4.35642824e-002, 3.35091978e-001,
          3.35091978e-001, 5.79220913e-002, 4.48245816e-002,
          1.89084094e-002, 2.47758087e-002, 5.15089780e-002,
          5.95145226e-002, 7.40125999e-002, 3.35091978e-001,
          3.35091978e-001, 2.22096257e-002, 1.47087909e-002,
          3.64232250e-003, 1.32801980e-002, 7.37988157e-003,
          5.57289086e-002, 8.42537805e-002, 3.35091978e-001,
          3.50555509e-001, 1.75036918e-002, 9.84122884e-003,
          7.12169288e-003, 9.19987820e-003, 3.94801842e-003,
          7.83052668e-003, 3.60426046e-002, 3.50555509e-001,
          3.50555509e-001, 2.60348879e-002, 1.23421839e-002,
          5.68278600e-003, 5.00825280e-003, 4.04091598e-003,
          3.43955751e-003, 6.05352549e-003, 3.50555509e-001,
          3.45605075e-001, 3.81370597e-002, 4.33058590e-002,
          1.83924381e-002, 1.52145931e-002, 8.00297502e-003,
          5.85342720e-002, 6.50711209e-002, 3.50555509e-001,
          3.50555509e-001, 6.02242313e-002, 5.92739321e-002,
          2.27591898e-002, 2.17709858e-002, 2.06009168e-002,
          1.59493070e-002, 1.30349752e-002, 3.40951324e-001,
          3.18617254e-001, 1.48055227e-002, 4.19139210e-003,
          2.37061828e-003, 7.67678628e-003, 6.38114568e-003,
          4.11271071e-003, 2.49734172e-003, 3.18617254e-001,
          3.18617254e-001, 2.27355957e-002, 5.75131038e-003,
          8.07202235e-003, 1.34186119e-001, 1.13743462e-001,
          5.88628799e-002, 1.05784304e-001, 3.18617254e-001,
          3.18617254e-001, 2.43841540e-002, 1.38348583e-002,
          4.95708361e-003, 2.11508423e-002, 2.56324317e-002,
          8.51419009e-003, 2.61877151e-003, 3.15799683e-001,
          3.18617254e-001, 2.61259768e-002, 9.53140855e-003,
          5.18108718e-002, 3.18617254e-001, 1.76195145e-001,
          6.19755089e-002, 7.24128559e-002, 3.07096213e-001 ]
      - [ 2.07220167e-001, 2.52345413e-001, 2.23577276e-001,
          1.50022507e-001, 2.58227557e-001, 1.75339580e-001,
          5.72132505e-002, 4.18265760e-002, 5.03266454e-002,
          7.86469877e-002, 1.15612037e-001, 1.45442694e-001,
          2.41708964e-001, 3.13958347e-001, 2.05663428e-001,
          7.72333816e-002, 4.97299470e-002, 7.62425736e-002,
          6.48219660e-002, 6.62317351e-002, 5.41218817e-002,
          8.49047452e-002, 3.13958347e-001, 3.13958347e-001,
          3.98157276e-002, 1.95599180e-002, 9.24219936e-003,
          9.92592499e-002, 8.13027248e-002, 1.15891151e-001,
          1.76060364e-001, 3.13958347e-001, 2.75540113e-001,
          2.49089673e-002, 4.98086996e-002, 4.60420512e-002,
          7.75199533e-002, 7.58360475e-002, 7.66097084e-002,
          1.29345506e-001, 2.59114504e-001, 1.41807601e-001,
          6.57932386e-002, 3.83737311e-002, 5.14518805e-002,
          2.59114504e-001, 2.59114504e-001, 2.59114504e-001,
          1.44215569e-001, 4.34873290e-002, 4.00304981e-002,
          2.94246171e-002, 2.76828818e-002, 7.97544494e-002,
          2.59114504e-001, 2.42850944e-001, 2.59114504e-001,
          2.48855919e-001, 2.59114504e-001, 1.35900095e-001,
          2.62167621e-002, 4.15040515e-002, 7.49650076e-002,
          2.59114504e-001, 2.59114504e-001, 2.59114504e-001,
          2.59114504e-001, 4.26696949e-002, 1.51435761e-002,
          2.18713582e-002, 4.19308916e-002, 1.09424591e-001,
          2.49857336e-001, 2.49857336e-001, 2.49857336e-001,
          1.69787422e-001, 3.40148844e-002, 1.20085096e-002,
          6.43467763e-003, 1.72232445e-002, 1.00799978e-001,
          2.05207080e-001, 2.35444561e-001, 2.49857336e-001,
          2.37658083e-001, 1.82103381e-001, 6.74372464e-002,
          2.12430842e-002, 2.97314320e-002, 9.58578661e-002,
          2.49857336e-001, 2.49857336e-001, 2.49857336e-001,
          1.96067885e-001, 3.16667818e-002, 5.88937243e-003,
          1.42103564e-002, 2.59669703e-002, 9.97117236e-002,
          2.49857336e-001, 2.49857336e-001, 2.49857336e-001,
          2.45484307e-001, 4.93822135e-002, 1.39944730e-002,
          1.02074770e-002, 1.61357075e-002, 1.29496813e-001,
          9.15216748e-003, 9.47699975e-003, 2.96721607e-002,
          1.06339544e-001, 3.46361220e-001, 2.13831931e-001,
          2.05488130e-002, 1.02814194e-002, 1.09395366e-002,
          1.13568604e-001, 1.07151441e-001, 1.62148148e-001,
          1.78799272e-001, 3.46361220e-001, 2.51341194e-001,
          5.82460985e-002, 1.12448439e-001, 1.64534032e-001,
          3.12849358e-002, 6.80304170e-002, 2.20712036e-001,
          3.26728672e-001, 3.46361220e-001, 5.08385375e-002,
          1.05827311e-002, 1.08741056e-002, 1.25836376e-002,
          2.04894215e-001, 1.09009489e-001, 1.78286061e-001,
          2.17336327e-001, 2.19303176e-001, 1.07173599e-001,
          4.25930806e-002, 7.29742572e-002, 1.59169883e-001,
          2.44895533e-001, 1.84719488e-001, 2.21092731e-001,
          2.00147003e-001, 1.59887910e-001, 7.74053410e-002,
          2.03628782e-002, 6.18911162e-002, 1.05914347e-001,
          2.48887688e-001, 2.48887688e-001, 2.48887688e-001,
          2.24587202e-001, 2.92479191e-002, 9.84928105e-003,
          1.19382199e-002, 3.82529050e-002, 6.80482611e-002,
          2.48887688e-001, 1.97369099e-001, 2.32371882e-001,
          2.48887688e-001, 8.54556188e-002, 5.42575531e-002,
          2.33339183e-002, 5.93741238e-002, 1.32882848e-001,
          2.48887688e-001, 2.48887688e-001, 2.48887688e-001,
          2.48887688e-001, 7.28117526e-002, 2.42425986e-002,
          4.21629921e-002, 7.77792335e-002, 1.16970241e-001,
          2.78637826e-001, 2.78637826e-001, 2.78637826e-001,
          2.36756399e-001, 2.35563610e-002, 8.59452412e-003,
          1.42131886e-002, 2.46071871e-002, 6.80215284e-002,
          2.78637826e-001, 2.78637826e-001, 2.78637826e-001,
          2.38512293e-001, 4.40771878e-002, 1.88613981e-002,
          1.17290737e-002, 2.99924612e-003, 1.04416162e-001,
          2.78637826e-001, 2.67861933e-001, 2.78637826e-001,
          2.17380211e-001, 4.55361605e-002, 1.80243663e-002,
          2.97395308e-002, 4.39535044e-002, 7.50835612e-002,
          1.39142245e-001, 1.36204809e-001, 2.36168027e-001,
          1.16371006e-001, 6.75431266e-002, 3.47275920e-002,
          1.94802526e-002, 7.32947420e-003, 2.15148013e-002,
          6.53106645e-002, 9.29761156e-002, 1.84803590e-001,
          2.05773145e-001, 2.33730122e-001, 7.42162913e-002,
          9.33932662e-002, 3.80441584e-002, 3.63848917e-002,
          1.87561616e-001, 1.47764206e-001, 2.33730122e-001,
          2.33730122e-001, 1.64195985e-001, 7.05832019e-002,
          4.57724407e-002, 4.53593135e-002, 6.08426258e-002,
          1.15858376e-001, 1.68317825e-001, 1.62554666e-001,
          1.95546702e-001, 2.15766579e-001, 2.33730122e-001,
          2.33730122e-001, 1.81175038e-001, 1.18440934e-001,
          2.33730122e-001, 2.33730122e-001, 2.33730122e-001,
          2.33730122e-001, 2.33730122e-001, 1.32719785e-001,
          1.20337345e-001, 1.08697876e-001, 6.64377660e-002,
          2.45614603e-001, 1.97645694e-001, 2.45614603e-001,
          2.45614603e-001, 1.95528477e-001, 1.20699704e-001,
          1.03592277e-001, 7.04031959e-002, 1.10753872e-001,
          2.45614603e-001, 1.58580750e-001, 1.95559025e-001,
          1.92001775e-001, 1.03756264e-001, 9.01201591e-002,
          1.26460746e-001, 1.15859605e-001, 1.25062287e-001,
          1.78532824e-001, 1.41556188e-001, 1.75153434e-001,
          2.29791358e-001, 2.09311634e-001, 2.45614603e-001,
          2.45614603e-001, 1.42177016e-001, 3.63035016e-002,
          6.25792593e-002, 2.91706081e-002, 3.42389606e-002,
          2.07908042e-002, 8.81844163e-002, 2.25066647e-001,
          2.45614603e-001, 1.37254134e-001, 8.28367546e-002,
          2.48584345e-001, 2.48584345e-001, 2.48584345e-001,
          2.42830515e-001, 1.49995014e-001, 8.71763080e-002,
          1.32310778e-001, 1.72262475e-001, 1.82915166e-001,
          1.29234523e-001, 1.80875614e-001, 2.48584345e-001,
          2.30199188e-001, 1.33145213e-001, 3.62199172e-002,
          3.54255401e-002, 3.97033915e-002, 4.18800898e-002,
          1.61419153e-001, 1.82370648e-001, 1.94694042e-001,
          8.89782384e-002, 1.06217727e-001, 1.37583598e-001,
          1.96769565e-001, 2.30865240e-001, 1.90387785e-001,
          1.01878613e-001, 2.00351447e-001, 2.48584345e-001,
          2.48584345e-001, 1.14557050e-001, 6.14396809e-003,
          2.41244342e-002, 3.35040055e-002, 4.48720977e-002 ]
      - [ 8.69504083e-003, 1.16911065e-002, 2.07532406e-001,
          3.24025869e-001, 3.24025869e-001, 9.40012634e-002,
          4.23443876e-003, 8.61313660e-003, 2.60967226e-003,
          2.64272932e-002, 4.63603809e-003, 6.75521418e-002,
          1.28063694e-001, 3.24025869e-001, 1.36462137e-001,
          1.16070816e-002, 7.31752627e-003, 2.23557316e-002,
          1.44247580e-002, 1.09860580e-002, 2.34142616e-001,
          3.24025869e-001, 3.24025869e-001, 1.66826755e-001,
          2.65763793e-002, 2.88527589e-002, 1.07960962e-002,
          1.92332178e-001, 2.27726460e-003, 4.23047915e-002,
          8.61230418e-002, 3.24025869e-001, 2.94855237e-001,
          8.81971717e-002, 7.55729228e-002, 2.05727264e-001,
          9.69746113e-002, 0., 0., 0., 4.09044892e-001, 6.45797923e-002,
          9.77932196e-003, 2.29569222e-003, 9.66797695e-002,
          1.25389934e-001, 0., 0., 0., 0., 0., 0., 0., 1.25650898e-001,
          4.09044892e-001, 0., 0., 0., 2.69899398e-001, 1.52596101e-001,
          7.11202025e-002, 6.00210801e-002, 4.09044892e-001,
          4.09044892e-001, 0., 0., 0., 0., 0., 0., 0., 4.09044892e-001,
          1.21055514e-001, 4.23183774e-005, 6.81203441e-004,
          2.35033198e-003, 2.30100355e-003, 1.25565668e-004,
          6.13869852e-005, 6.89327484e-004, 1.30698606e-001,
          1.32872015e-001, 8.23173393e-003, 7.78494868e-003,
          2.36145947e-002, 1.92585737e-002, 7.30169844e-003,
          4.21797158e-003, 1.10160587e-002, 1.71368614e-001,
          4.77938265e-001, 8.87708084e-005, 5.24120114e-004,
          2.28930986e-003, 1.09669205e-003, 0., 0., 1.51652051e-003,
          4.77938265e-001, 4.77938265e-001, 1.80448703e-002,
          5.59292175e-003, 2.03872956e-002, 8.20450019e-003,
          4.85336734e-003, 1.27527490e-003, 2.51477789e-002,
          4.77938265e-001, 3.32563408e-002, 2.94427164e-002,
          2.90808201e-001, 2.90808201e-001, 2.90808201e-001,
          2.03789562e-001, 5.32417670e-002, 5.37697971e-002,
          4.95554283e-002, 2.90808201e-001, 3.71568953e-003,
          3.73364501e-002, 7.05528408e-002, 2.90808201e-001,
          2.90808201e-001, 1.47525817e-001, 1.69919118e-001,
          2.90808201e-001, 5.51926121e-002, 4.56689708e-002,
          1.57063767e-001, 2.73926228e-001, 2.90808201e-001,
          1.34924755e-001, 1.78887006e-002, 1.93796363e-002,
          5.69136404e-002, 1.56310663e-001, 4.26542386e-003,
          2.18180660e-002, 1.21590430e-002, 1.04361124e-001,
          7.70066455e-002, 2.80683190e-002, 3.28566097e-002,
          2.02713087e-001, 3.95820022e-001, 2.54618499e-004,
          1.66161743e-003, 1.61928565e-005, 4.98526953e-002,
          6.88646436e-002, 4.42046002e-002, 5.89834042e-002,
          3.95820022e-001, 3.95820022e-001, 0., 0., 0., 0., 0., 0., 0.,
          3.95820022e-001, 2.59358615e-001, 6.49556692e-004,
          3.57287424e-003, 8.35981977e-004, 1.05294762e-002,
          1.04285004e-002, 7.92280864e-003, 1.04444474e-002,
          2.74187416e-001, 3.26689988e-001, 5.34752035e-004,
          1.60018215e-003, 0., 0., 0., 9.11291048e-004, 3.04538291e-004,
          3.27271998e-001, 4.03527349e-001, 2.25425838e-003,
          3.20387830e-004, 1.55509333e-004, 1.71359032e-004,
          1.01222575e-003, 2.87052593e-004, 3.83986218e-004,
          4.03527349e-001, 4.03527349e-001, 2.58656200e-002,
          5.04980376e-003, 4.83106310e-003, 7.12439418e-003,
          1.07849296e-002, 1.08217243e-002, 3.01423743e-002,
          4.03527349e-001, 2.92309195e-001, 2.95911590e-003,
          6.79869845e-004, 1.00481193e-004, 2.48907163e-004,
          2.93798349e-003, 1.76089210e-003, 8.69484269e-004,
          2.73166269e-001, 3.15437645e-001, 4.79293019e-002,
          8.32555816e-003, 2.07523704e-002, 2.38615721e-002,
          2.38588490e-002, 2.21633017e-002, 3.03930137e-002,
          2.78884143e-001, 1.72747403e-001, 1.40795082e-001,
          1.63902491e-001, 3.15186441e-001, 3.24779123e-001,
          3.24779123e-001, 8.57664421e-002, 5.75997755e-002,
          1.73940688e-001, 9.26324055e-002, 2.42342055e-002,
          4.79795896e-002, 6.36936799e-002, 3.24779123e-001,
          2.16967151e-001, 3.76989469e-002, 1.85046047e-002,
          1.03047326e-001, 9.38241184e-002, 1.20339327e-001,
          1.55386031e-001, 2.03081265e-001, 3.24779123e-001,
          2.48212725e-001, 1.35505021e-001, 8.12992677e-002,
          1.40187129e-001, 1.01544470e-001, 4.38007936e-002,
          4.95463088e-002, 6.24334775e-002, 1.59434751e-001,
          9.86723006e-002, 7.96863139e-002, 4.77243513e-002,
          1.60543755e-001, 3.41482013e-001, 3.53427567e-002,
          9.63679776e-002, 4.40309197e-002, 7.82034397e-002,
          7.08705857e-002, 8.16192031e-002, 2.69645825e-002,
          3.41482013e-001, 3.41482013e-001, 2.43903995e-002,
          7.29852766e-002, 0., 0., 0., 6.08946010e-002, 2.03499272e-002,
          3.41482013e-001, 3.41482013e-001, 3.92077416e-002,
          7.06676245e-002, 2.50810273e-002, 3.89649123e-002,
          2.28522532e-002, 8.22111890e-002, 3.72983031e-002,
          3.41482013e-001, 3.41482013e-001, 1.54974516e-002,
          4.63741496e-002, 0., 0., 0., 5.12626469e-002, 1.71310827e-002,
          3.41482013e-001, 2.71130621e-001, 1.56577956e-002,
          2.74737086e-002, 3.52950580e-003, 1.42652134e-003,
          2.36460567e-002, 3.88210714e-002, 1.75414626e-002,
          2.71130621e-001, 2.71130621e-001, 2.71130621e-001,
          6.56759068e-002, 2.06310511e-001, 1.44560903e-001,
          1.61995605e-001, 1.89616591e-001, 1.88446596e-001,
          2.71130621e-001, 2.71130621e-001, 9.85551253e-003,
          2.79260296e-002, 1.60432071e-003, 1.03283604e-003,
          1.28360484e-002, 4.77883853e-002, 2.29139067e-002,
          2.71130621e-001, 2.71130621e-001, 1.27919719e-001,
          4.66253906e-002, 3.94835472e-002, 4.97473180e-002,
          8.19354430e-002, 2.58619398e-001, 2.58435547e-001,
          2.71130621e-001 ]
      - [ 1.44283935e-001, 8.14969093e-002, 8.69529471e-002,
          1.97609097e-001, 2.87551582e-001, 1.72121808e-001,
          9.31281596e-002, 6.76746219e-002, 1.78495228e-001,
          5.88937439e-002, 6.23179711e-002, 4.73233946e-002,
          9.15766358e-002, 1.75304174e-001, 9.78743806e-002,
          5.68893366e-002, 5.56494035e-002, 7.21769109e-002,
          1.65916368e-001, 7.00133368e-002, 1.02583706e-001,
          3.22935402e-001, 3.51753443e-001, 3.51753443e-001,
          1.35325208e-001, 1.33369818e-001, 2.82547176e-001,
          7.80420750e-002, 6.49669841e-002, 6.26065955e-002,
          1.22953206e-001, 3.31355393e-001, 1.33908793e-001,
          7.24292397e-002, 1.23476796e-001, 8.33980814e-002,
          7.40591511e-002, 5.05899787e-002, 5.43051027e-002,
          6.10727072e-002, 1.96181774e-001, 7.50577226e-002,
          6.97513968e-002, 4.60974053e-002, 1.03003956e-001,
          9.98932421e-002, 5.18569909e-002, 6.32740706e-002,
          7.41051733e-002, 2.26583794e-001, 6.65772185e-002,
          6.71307668e-002, 3.90013158e-002, 7.58300498e-002,
          3.58031362e-001, 2.24671677e-001, 1.91187084e-001,
          2.23572955e-001, 2.14621410e-001, 6.21151477e-002,
          6.79358169e-002, 9.05336589e-002, 1.50064796e-001,
          3.58031362e-001, 3.58031362e-001, 1.89223170e-001,
          1.56757325e-001, 1.36279255e-001, 3.70007642e-002,
          5.81558757e-002, 1.07478730e-001, 3.58031362e-001,
          4.97300662e-002, 2.43336968e-002, 2.73835007e-002,
          4.90164161e-002, 7.16546997e-002, 2.57904734e-002,
          2.04745065e-002, 1.51520139e-002, 3.01323645e-002,
          3.24025378e-002, 5.27949780e-002, 2.31809825e-001,
          3.21722627e-001, 3.21722627e-001, 2.43064407e-002,
          1.78607851e-002, 1.06716398e-002, 2.75818128e-002,
          3.21722627e-001, 8.14699531e-002, 4.93463725e-002,
          8.89284685e-002, 6.21029325e-002, 1.37098916e-002,
          2.39676908e-002, 5.23129143e-002, 3.21722627e-001,
          2.31403917e-001, 1.60604686e-001, 3.21722627e-001,
          3.21722627e-001, 3.21722627e-001, 1.67652071e-002,
          1.45666823e-002, 2.34069638e-002, 3.07565182e-001,
          1.25775248e-001, 2.70031486e-002, 1.98687240e-002,
          9.98993441e-002, 3.33214968e-001, 2.08562642e-001,
          6.78485408e-002, 7.68516213e-002, 1.47674948e-001,
          2.38699004e-001, 7.46967420e-002, 4.85109352e-002,
          7.47604147e-002, 1.21414959e-001, 3.52445021e-002,
          3.37174833e-002, 6.39390498e-002, 1.93130031e-001,
          3.09107095e-001, 2.05606930e-002, 3.31628621e-002,
          7.20996037e-002, 3.33214968e-001, 2.34805346e-001,
          1.05827034e-001, 1.41855180e-001, 3.33214968e-001,
          3.33214968e-001, 1.02360569e-001, 4.70801853e-002,
          4.28935811e-002, 3.90105657e-002, 2.13752873e-002,
          3.03013697e-002, 6.00705594e-002, 3.33214968e-001,
          2.25579709e-001, 1.93279505e-001, 1.84821665e-001,
          2.46792987e-001, 6.91430718e-002, 7.47680850e-003,
          1.58352032e-002, 2.42870413e-002, 9.60229635e-002,
          2.46792987e-001, 2.45198473e-001, 1.83211312e-001,
          2.22778052e-001, 4.19108123e-002, 7.95098301e-003,
          1.41556775e-002, 4.44240831e-002, 2.46792987e-001,
          2.46792987e-001, 2.46025443e-001, 1.88485295e-001,
          2.40821242e-001, 4.58847769e-002, 7.65962433e-003,
          9.55372956e-003, 2.02175323e-002, 2.46792987e-001,
          2.46792987e-001, 2.16730550e-001, 2.01770857e-001,
          2.46792987e-001, 8.48208368e-002, 2.38030255e-002,
          2.26434954e-002, 4.62414548e-002, 1.78223744e-001,
          2.79601365e-001, 9.43541005e-002, 5.27804866e-002,
          5.66906929e-002, 2.29780730e-002, 6.44169981e-003,
          1.84996575e-002, 7.03929812e-002, 2.79601365e-001,
          2.78254896e-001, 1.48812741e-001, 2.73189187e-001,
          2.79601365e-001, 2.07888067e-001, 8.45816582e-002,
          2.38529313e-002, 4.27605584e-002, 2.79601365e-001,
          2.79601365e-001, 9.36656073e-002, 5.42123429e-002,
          5.33582307e-002, 3.42714079e-002, 1.39021324e-002,
          2.83456873e-002, 6.93185106e-002, 2.79601365e-001,
          2.79601365e-001, 7.63044059e-002, 9.02417898e-002,
          1.40888229e-001, 1.37423575e-001, 1.56261951e-001,
          9.20855552e-002, 1.30058572e-001, 2.79601365e-001,
          2.05941528e-001, 5.54456338e-002, 8.00900236e-002,
          1.35028377e-001, 2.51213819e-001, 7.74110630e-002,
          3.70108783e-002, 8.17846134e-002, 2.99476355e-001,
          2.99476355e-001, 9.53922793e-002, 3.88914384e-002,
          2.61509027e-002, 2.32266672e-002, 8.09198897e-003,
          1.90859884e-002, 5.53402081e-002, 2.99476355e-001,
          2.09908485e-001, 1.35490447e-001, 1.58910900e-001,
          2.69232512e-001, 2.99476355e-001, 9.57457907e-003,
          1.14462776e-002, 2.28125807e-002, 2.14000016e-001,
          2.99476355e-001, 1.91831857e-001, 1.08501390e-001,
          1.37186423e-001, 1.35010630e-001, 6.97872974e-003,
          1.54581768e-002, 6.05445988e-002, 2.99476355e-001,
          2.83664942e-001, 1.18678242e-001, 5.54087721e-002,
          5.75750470e-002, 2.62390263e-002, 2.02147998e-002,
          2.19382942e-002, 5.93419373e-002, 2.61315465e-001,
          1.86470613e-001, 1.94279701e-001, 2.13697344e-001,
          2.79978752e-001, 6.07383959e-002, 2.80462801e-002,
          2.79514641e-002, 5.38500361e-002, 1.22956432e-001,
          2.83664942e-001, 1.28080040e-001, 3.23915035e-002,
          3.08624022e-002, 1.73111912e-002, 1.74822882e-002,
          2.30493527e-002, 1.07558608e-001, 2.83664942e-001,
          2.83664942e-001, 2.83664942e-001, 2.83664942e-001,
          2.83664942e-001, 3.43501233e-002, 2.02498082e-002,
          2.22412180e-002, 8.08817372e-002, 2.83664942e-001,
          2.64834732e-001, 1.84536800e-001, 1.71639562e-001,
          1.73695773e-001, 2.28220429e-002, 6.49622688e-003,
          9.41987336e-003, 2.00016052e-002, 2.16580376e-001,
          2.64834732e-001, 7.68369958e-002, 4.38660979e-002,
          4.25925441e-002, 8.43861923e-002, 1.32203698e-001,
          8.94889906e-002, 1.50216073e-001, 2.64834732e-001,
          2.64834732e-001, 2.64834732e-001, 2.64834732e-001,
          2.64834732e-001, 2.72275228e-002, 1.18529527e-002,
          4.30724816e-003, 7.31916726e-003, 1.33159459e-001,
          2.64834732e-001, 8.45724195e-002, 6.51554093e-002,
          1.66747987e-001, 2.64834732e-001, 1.49672940e-001,
          4.82309349e-002, 8.30995068e-002, 2.64834732e-001 ]
      - [ 5.94264194e-002, 3.95366456e-003, 1.34826759e-002,
          1.06651552e-001, 3.52568358e-001, 1.62121519e-001,
          4.25731763e-002, 4.20360900e-002, 1.06419049e-001,
          2.02965394e-001, 0., 0., 1.38545698e-002, 1.73336044e-001,
          3.15160677e-002, 1.37387542e-002, 2.04830468e-002,
          2.44615719e-001, 2.70675510e-001, 2.67439000e-002,
          4.43751514e-002, 1.14159703e-001, 3.36959481e-001,
          2.50155061e-001, 1.37851626e-001, 1.36254370e-001,
          3.52568358e-001, 3.52568358e-001, 0., 0., 2.35660002e-003,
          4.21840660e-002, 4.10197675e-002, 3.36091556e-002,
          5.32035828e-002, 3.52568358e-001, 2.68823326e-001, 0., 0., 0.,
          2.02042400e-003, 0., 0., 0., 2.68495888e-001, 3.05728048e-001,
          0., 0., 0., 0., 0., 0., 0., 3.09821934e-001, 4.06852573e-001,
          0., 0., 0., 3.05277965e-004, 0., 0., 0., 4.06852573e-001,
          4.06852573e-001, 0., 0., 0., 0., 0., 0., 0., 4.06852573e-001,
          2.38566250e-001, 7.18681957e-004, 1.78568152e-004,
          1.06668565e-003, 3.03683802e-003, 2.19939859e-003,
          2.64076545e-004, 1.83434179e-003, 2.49725834e-001,
          2.02956095e-001, 3.64994183e-002, 5.22114709e-002,
          1.08015500e-001, 3.61720204e-001, 9.78305489e-002,
          2.03670911e-003, 7.94881489e-003, 2.03521311e-001,
          3.61720204e-001, 1.25006458e-003, 4.12080299e-005,
          4.03121056e-004, 5.11157152e-004, 3.76760436e-004,
          2.25664277e-004, 1.53418898e-003, 3.61720204e-001,
          3.61720204e-001, 1.43259808e-001, 1.31211430e-001,
          1.77216947e-001, 2.12795854e-001, 1.89490188e-002,
          2.07421626e-003, 1.05488328e-002, 3.61720204e-001,
          2.93862939e-001, 2.50873901e-002, 2.75492482e-002,
          3.76968682e-002, 2.63854172e-002, 8.71775597e-002,
          9.52060223e-002, 1.04554102e-001, 3.46514225e-001,
          3.46514225e-001, 1.51089946e-004, 0., 0., 5.23224752e-003,
          9.94767901e-003, 1.80862639e-002, 2.93407086e-002,
          3.46514225e-001, 3.46514225e-001, 1.12880737e-001,
          2.16299947e-002, 4.35105246e-003, 1.01648280e-002,
          6.33210735e-003, 2.13108156e-002, 1.23995304e-001,
          3.46514225e-001, 3.46514225e-001, 8.77055451e-002,
          1.60094369e-002, 1.30577199e-003, 5.49100013e-003, 0.,
          2.20463774e-003, 8.68840702e-003, 3.46514225e-001,
          3.52927744e-001, 0., 0., 0., 2.64368078e-004, 0., 0., 0.,
          3.52927744e-001, 3.52927744e-001, 0., 0., 0., 0., 0., 0., 0.,
          3.52927744e-001, 3.52927744e-001, 3.11632897e-003,
          1.37233597e-004, 0., 3.39901773e-004, 0., 0., 0.,
          3.52927744e-001, 3.52927744e-001, 0., 0., 0., 0., 0., 0., 0.,
          3.52927744e-001, 3.41025800e-001, 2.43212981e-003,
          5.19600464e-004, 4.23410384e-004, 1.63876533e-003, 0.,
          6.21306361e-004, 5.35753905e-004, 3.41025800e-001,
          3.41025800e-001, 9.57166925e-002, 5.84014021e-002,
          5.21566793e-002, 2.26947796e-002, 9.94645618e-003,
          1.80702768e-002, 2.45652683e-002, 3.41025800e-001,
          3.41025800e-001, 3.94365983e-003, 7.33501744e-004,
          9.31502786e-004, 2.31522811e-003, 0., 2.82411958e-004,
          5.06808865e-004, 3.41025800e-001, 3.41025800e-001,
          3.00260242e-002, 6.74310559e-003, 1.03948526e-002,
          2.75084004e-002, 1.14349701e-001, 1.38633877e-001,
          1.23400442e-001, 3.41025800e-001, 3.31190825e-001,
          1.94306016e-001, 6.91808909e-002, 4.45444286e-002,
          1.18871249e-001, 7.08418265e-002, 3.98536101e-002,
          1.75191879e-001, 3.31190825e-001, 3.31190825e-001,
          1.59337938e-001, 5.49832694e-002, 3.47925685e-002,
          7.09562525e-002, 1.52583728e-002, 3.54283815e-003,
          1.69398673e-002, 3.31190825e-001, 9.92920846e-002,
          9.24543142e-002, 5.23388870e-002, 6.80234656e-002,
          3.31190825e-001, 2.26681083e-001, 4.55310494e-002,
          8.12496841e-002, 1.10031366e-001, 2.44537264e-001,
          7.01704621e-002, 4.04368788e-002, 4.54603359e-002,
          3.31190825e-001, 5.57173975e-002, 2.79713934e-003,
          8.40164907e-003, 1.94619834e-001, 3.95721346e-001,
          1.05322460e-002, 1.45561108e-003, 1.97620410e-003,
          3.95409670e-003, 0., 0., 0., 3.95721346e-001, 3.95721346e-001,
          0., 0., 0., 0., 0., 0., 0., 3.95721346e-001, 2.82819539e-001,
          6.29513757e-003, 1.52676529e-003, 2.54083378e-003,
          2.66989488e-002, 0., 0., 0., 2.77569383e-001, 3.27618003e-001,
          0., 0., 0., 0., 0., 0., 0., 3.23119372e-001, 3.54471684e-001,
          1.10778993e-003, 1.01892569e-004, 3.53873707e-004,
          2.88197282e-003, 0., 8.29883211e-004, 2.11926666e-003,
          3.54471684e-001, 3.54471684e-001, 7.79823074e-003,
          8.33713857e-004, 6.36624219e-003, 2.08683163e-001,
          2.26666853e-001, 1.70286760e-001, 1.12854406e-001,
          3.54471684e-001, 2.38889784e-001, 0., 0., 4.92115738e-004,
          1.77340545e-002, 0., 1.06699264e-003, 2.22631195e-003,
          2.58172005e-001, 1.49582118e-001, 0., 0., 1.33078601e-002,
          3.54471684e-001, 1.45140842e-001, 6.79576993e-002,
          3.10513116e-002, 2.41222784e-001 ]
      - [ 1.86944500e-001, 2.84845252e-002, 9.18591693e-002,
          7.03878552e-002, 7.62790740e-002, 4.61807549e-002,
          5.45650311e-002, 3.55974436e-002, 1.59783006e-001,
          2.13231951e-001, 7.31227472e-002, 1.58702090e-001,
          1.84922516e-001, 1.49780676e-001, 1.10743493e-001,
          4.91583571e-002, 9.22857746e-002, 1.86604857e-001,
          2.59121478e-001, 1.63962573e-001, 2.08858654e-001,
          4.49638627e-002, 1.51470765e-001, 2.41328299e-001,
          1.75095037e-001, 2.17617184e-001, 2.59121478e-001,
          2.59121478e-001, 9.54250619e-002, 1.27091452e-001,
          1.16536312e-001, 2.59121478e-001, 2.48943374e-001,
          1.22360796e-001, 1.91448301e-001, 2.59121478e-001,
          8.34903121e-002, 5.03516607e-002, 4.73412648e-002,
          8.51304606e-002, 1.03886686e-001, 6.37084916e-002,
          2.74613947e-002, 3.67557965e-002, 7.38310888e-002,
          2.36191541e-001, 2.71497726e-001, 1.69856727e-001,
          2.45811149e-001, 2.71497726e-001, 1.68307588e-001,
          3.60361896e-002, 3.58606577e-002, 7.99210221e-002,
          1.89104542e-001, 2.09054217e-001, 1.32654458e-001,
          1.87363714e-001, 2.71497726e-001, 5.15668169e-002,
          1.66157782e-002, 3.79075371e-002, 1.12535357e-001,
          2.71497726e-001, 2.71497726e-001, 2.71497726e-001,
          2.71497726e-001, 2.71497726e-001, 1.28906369e-001,
          3.57340463e-002, 7.00106621e-002, 1.08805314e-001,
          1.91661581e-001, 2.42471173e-001, 1.16016619e-001,
          1.89894184e-001, 2.46381506e-001, 1.73894390e-001,
          3.69442999e-002, 2.19548699e-002, 4.43177857e-002,
          2.46381506e-001, 1.48326978e-001, 1.22698404e-001,
          1.62954181e-001, 2.46381506e-001, 9.06724036e-002,
          4.85976785e-002, 4.60908413e-002, 2.08172634e-001,
          1.89994752e-001, 2.46381506e-001, 1.58195272e-001,
          2.42088616e-001, 2.38802448e-001, 8.96521285e-002,
          5.31854928e-002, 4.84528132e-002, 4.56723720e-002,
          1.26821876e-001, 2.46381506e-001, 2.46381506e-001,
          2.46381506e-001, 2.46381506e-001, 4.40478809e-002,
          3.91558446e-002, 1.70898754e-002, 3.53678949e-002,
          2.29341596e-001, 1.04687124e-001, 1.17024556e-001,
          1.00556267e-002, 1.54688567e-001, 2.37439275e-001,
          1.35062262e-001, 1.64327070e-001, 1.34139106e-001,
          8.22830126e-002, 8.37116092e-002, 6.51914030e-002,
          1.08579226e-001, 2.03569323e-001, 1.52015492e-001,
          1.01600736e-001, 1.48272663e-001, 9.92807671e-002,
          1.16098046e-001, 6.51599467e-002, 6.27591908e-002,
          6.35732850e-003, 1.72671199e-001, 2.56203651e-001,
          2.56203651e-001, 2.56203651e-001, 1.30939439e-001,
          1.62206456e-001, 1.76408872e-001, 1.25530809e-001,
          2.53571570e-001, 2.56203651e-001, 1.44278318e-001,
          2.56203651e-001, 2.56203651e-001, 1.38569444e-001,
          1.44221976e-001, 2.36882374e-001, 1.77270576e-001,
          2.36882374e-001, 2.36882374e-001, 4.06566039e-002,
          1.56969409e-002, 3.49077508e-002, 7.11762905e-002,
          1.69104844e-001, 2.36882374e-001, 1.92939579e-001,
          2.36882374e-001, 2.36882374e-001, 6.94135204e-002,
          1.42959058e-002, 4.72351760e-002, 6.34962693e-002,
          1.68651819e-001, 2.36882374e-001, 2.22054437e-001,
          2.36882374e-001, 2.36882374e-001, 2.60251313e-002,
          7.22855106e-002, 8.50473642e-002, 5.86579852e-002,
          1.79888457e-001, 2.36882374e-001, 2.27405146e-001,
          2.36882374e-001, 2.36882374e-001, 7.20555037e-002,
          2.52801497e-002, 1.15948021e-002, 4.88939323e-002,
          1.28415361e-001, 2.57667363e-001, 2.21488789e-001,
          2.49454454e-001, 1.84096605e-001, 5.36905713e-002,
          2.19552740e-002, 3.90005186e-002, 3.85041162e-002,
          9.88233313e-002, 2.57667363e-001, 2.57667363e-001,
          2.57667363e-001, 1.39792398e-001, 3.48425768e-002,
          4.09917608e-002, 2.43513864e-002, 4.00375985e-002,
          2.01185986e-001, 2.57667363e-001, 2.57667363e-001,
          2.57667363e-001, 2.57667363e-001, 8.04325938e-002,
          2.82387547e-002, 1.77361816e-002, 7.96385854e-002,
          1.07026130e-001, 2.57667363e-001, 1.92104161e-001,
          2.19495714e-001, 1.57721698e-001, 4.45951000e-002,
          4.05269526e-002, 6.39188141e-002, 1.18025117e-001,
          3.03255152e-002, 5.98848611e-003, 8.63833120e-004,
          6.27397001e-003, 1.28282100e-001, 2.70653546e-001,
          2.70653546e-001, 2.70653546e-001, 1.02562256e-001,
          1.72525227e-001, 1.22312523e-001, 9.24835503e-002,
          1.34066656e-001, 1.26518697e-001, 8.89147073e-002,
          2.70653546e-001, 2.70653546e-001, 1.38743848e-001,
          7.04727555e-003, 2.07946729e-003, 5.50380908e-003,
          5.88469096e-002, 2.70653546e-001, 2.70653546e-001,
          2.70653546e-001, 2.70653546e-001, 5.45369163e-002,
          7.66472518e-002, 1.07087024e-001, 7.98380822e-002,
          1.21987753e-001, 2.70653546e-001, 2.35859692e-001,
          1.18147403e-001, 6.76044747e-002, 5.56588136e-002,
          1.51767626e-001, 1.92613706e-001, 1.56782851e-001,
          2.17486367e-001, 1.76095828e-001, 1.61870029e-002,
          5.05305901e-002, 5.74224256e-002, 5.13482243e-002,
          2.37280950e-001, 2.37280950e-001, 2.08207741e-001,
          2.37280950e-001, 2.18764305e-001, 9.97411609e-002,
          6.13532476e-002, 1.57097280e-002, 9.04391930e-002,
          1.57535553e-001, 2.37280950e-001, 1.96589738e-001,
          2.37280950e-001, 2.37280950e-001, 3.63038480e-002,
          1.52491927e-002, 8.44391342e-003, 5.21194004e-002,
          2.37280950e-001, 2.37280950e-001, 2.19738498e-001,
          2.37280950e-001, 2.37280950e-001, 6.80292621e-002,
          3.73436101e-002, 3.61571051e-002, 1.61454290e-001,
          2.51887798e-001, 2.51887798e-001, 2.50242412e-001,
          2.51887798e-001, 2.49130130e-001, 1.27966851e-001,
          1.16566755e-001, 5.18928021e-002, 2.49775052e-001,
          2.06543550e-001, 1.64702818e-001, 8.03879648e-002,
          8.19840729e-002, 9.72763151e-002, 7.28561729e-002,
          6.71729594e-002, 1.24658391e-001, 2.48061135e-001,
          2.51887798e-001, 2.51887798e-001, 1.69857368e-001,
          7.22039416e-002, 1.02754116e-001, 6.96138218e-002,
          8.71097893e-002, 5.99172190e-002, 2.51887798e-001,
          2.51887798e-001, 1.43065423e-001, 9.18030664e-002,
          9.58143827e-003, 2.12077647e-002, 6.42714575e-002,
          6.87778071e-002, 7.95259923e-002, 2.21407905e-001 ]
      - [ 2.02207658e-002, 2.61472482e-002, 2.05430016e-001,
          2.95216292e-001, 3.36443007e-001, 1.14601012e-002,
          5.45600615e-003, 4.92243841e-003, 2.01583076e-002,
          6.49062637e-003, 1.87324584e-002, 2.23558694e-001,
          3.36443007e-001, 3.36443007e-001, 2.95825955e-003,
          1.44324417e-003, 2.42855377e-003, 3.41696292e-003,
          1.16149196e-002, 3.26945446e-002, 1.84759647e-001,
          2.96183556e-001, 3.36443007e-001, 3.32751200e-002,
          6.10701600e-003, 5.66748157e-003, 1.22437533e-002,
          1.19840419e-002, 1.04746139e-002, 1.01247028e-001,
          3.36443007e-001, 3.36443007e-001, 3.07120662e-002,
          8.12966470e-003, 1.01937549e-002, 5.29483659e-003,
          3.80185223e-003, 1.43884281e-002, 2.09241718e-001,
          3.91377270e-001, 3.91377270e-001, 2.15602033e-002,
          4.86030150e-003, 2.71167047e-003, 2.88781384e-003,
          1.31526552e-002, 2.54401527e-002, 9.21139121e-002,
          3.90166491e-001, 2.42746532e-001, 5.18000796e-002,
          1.34383719e-002, 4.20010136e-003, 6.32757181e-003,
          7.93540198e-003, 2.33689379e-002, 7.78582543e-002,
          3.91377270e-001, 3.91377270e-001, 4.64986190e-002,
          1.13312667e-002, 1.32702598e-002, 5.69593860e-003,
          1.32790105e-002, 3.76638882e-002, 5.16871028e-002,
          1.96732700e-001, 2.45650977e-001, 5.14783449e-002,
          9.20486264e-003, 1.36993686e-002, 9.38731898e-003,
          1.16769090e-001, 1.66026562e-001, 1.31309062e-001,
          2.49393150e-001, 2.49393150e-001, 1.48044810e-001,
          4.84490693e-002, 7.46449009e-002, 2.70608291e-002,
          1.16893217e-001, 1.26264006e-001, 9.57939103e-002,
          2.49393150e-001, 2.49393150e-001, 1.22997016e-001,
          5.77599630e-002, 1.97739214e-001, 7.67813250e-002,
          1.09223567e-001, 1.59879908e-001, 1.76268175e-001,
          2.49393150e-001, 2.49393150e-001, 1.56458780e-001,
          3.21091861e-002, 1.32842273e-001, 7.26098418e-002,
          1.75352797e-001, 1.72595412e-001, 1.27572775e-001,
          2.49393150e-001, 2.49393150e-001, 1.36033237e-001,
          7.83269331e-002, 2.49393150e-001, 1.67440981e-001,
          5.25928438e-002, 7.14827850e-002, 2.94704407e-001,
          2.94704407e-001, 2.94704407e-001, 7.87757263e-002,
          9.15571116e-003, 2.86144996e-003, 2.19862591e-002,
          2.25015227e-002, 9.37509537e-003, 1.38777778e-001,
          2.94704407e-001, 2.94704407e-001, 1.65799499e-001,
          6.28355145e-002, 5.13167046e-002, 4.64789346e-002,
          1.69995993e-001, 8.59650224e-002, 2.15837404e-001,
          2.94704407e-001, 2.34218657e-001, 1.00706242e-001,
          2.69028787e-002, 9.86953825e-003, 6.87887594e-002,
          9.82014909e-002, 1.58404820e-002, 5.41052483e-002,
          2.04363823e-001, 2.94704407e-001, 2.03321442e-001,
          1.33684292e-001, 1.35317847e-001, 1.81170046e-001,
          7.73746148e-002, 1.08995326e-002, 4.71958816e-002,
          3.29893321e-001, 3.29893321e-001, 1.18632339e-001,
          6.30381405e-002, 8.21583271e-002, 1.92120299e-001,
          2.41631612e-001, 4.34701890e-002, 2.80319117e-002,
          4.81109023e-002, 1.00188933e-001, 3.09985597e-002,
          1.49778863e-002, 5.75398505e-002, 2.99356759e-001,
          2.95916110e-001, 1.78216156e-002, 1.68206356e-002,
          1.01289913e-001, 1.71536922e-001, 1.28146976e-001,
          1.13568649e-001, 1.82886004e-001, 3.29893321e-001,
          3.29893321e-001, 9.87491086e-002, 1.29372785e-002,
          1.60677247e-002, 2.94551384e-002, 2.28923969e-002,
          2.04722956e-002, 1.11287393e-001, 3.29893321e-001,
          2.84478158e-001, 3.42644900e-002, 2.70709116e-002,
          1.85150076e-002, 4.47991230e-002, 1.38824899e-002,
          7.41356006e-003, 5.05388230e-002, 2.59409159e-001,
          3.37443203e-001, 2.12549102e-002, 1.88856255e-002,
          3.82620879e-002, 4.00148332e-002, 1.45893991e-002,
          7.48705864e-003, 3.68602499e-002, 3.52453977e-001,
          3.77672046e-001, 1.05168387e-001, 8.15943908e-003,
          9.47815180e-003, 2.61091664e-002, 1.40258763e-002,
          6.99538691e-003, 1.03970319e-001, 3.77672046e-001,
          3.77672046e-001, 4.81327362e-002, 3.93531239e-003,
          9.11342911e-003, 1.20099438e-002, 1.00567387e-002,
          6.75162626e-003, 3.39037925e-002, 3.77672046e-001,
          2.60137051e-001, 1.44386724e-001, 1.82352647e-001,
          2.60137051e-001, 2.60137051e-001, 2.60137051e-001,
          1.14598997e-001, 5.60477152e-002, 1.78789601e-001,
          2.60137051e-001, 8.00711438e-002, 7.44092762e-002,
          1.40254393e-001, 2.60137051e-001, 2.60137051e-001,
          2.60137051e-001, 2.60137051e-001, 2.60137051e-001,
          2.51220781e-002, 1.80994086e-002, 3.22684720e-002,
          4.57732938e-002, 2.60137051e-001, 1.63418770e-001,
          9.23531130e-002, 5.05575202e-002, 2.22036615e-002,
          6.90322071e-002, 2.79928930e-002, 2.37734616e-002,
          3.11422944e-002, 1.83303460e-001, 1.15252241e-001,
          1.22734033e-001, 7.80130848e-002, 3.95072810e-002,
          4.07423556e-001, 5.47949895e-002, 4.46059927e-002,
          5.10426909e-002, 7.99720138e-002, 1.38446644e-001,
          1.56230435e-001, 2.16973171e-001, 4.07423556e-001,
          4.07423556e-001, 2.12201208e-001, 7.71256760e-002,
          8.89128223e-002, 1.59140319e-001, 1.18729755e-001,
          9.53168646e-002, 1.79291695e-001, 4.07423556e-001,
          4.48914580e-002, 2.62420196e-002, 2.10564081e-002,
          2.80734934e-002, 8.67713094e-002, 7.40154088e-002,
          5.97974993e-002, 2.65397131e-002, 3.82829234e-002,
          2.49722544e-002, 4.22217548e-002, 5.48716001e-002,
          6.00903369e-002, 1.87120855e-001, 1.04806624e-001,
          7.83236921e-002, 5.02232872e-002, 3.74129452e-002,
          4.23706114e-001, 2.09466144e-001, 2.97220200e-002,
          5.41504100e-002, 1.67738453e-001, 9.80816185e-002,
          4.02146615e-002, 1.71167597e-001, 4.23706114e-001,
          4.23706114e-001, 1.07404351e-001, 5.52044204e-003,
          2.02948339e-002, 8.40075165e-002, 8.48026723e-002,
          5.13547286e-002, 7.20492080e-002, 4.23706114e-001,
          2.34658644e-002, 3.02834064e-002, 3.02170292e-002,
          4.44690436e-002, 2.07222551e-001, 9.81902853e-002,
          5.95881343e-002, 6.87475428e-002, 4.01579812e-002,
          3.36976312e-002, 2.46444438e-002, 1.58051588e-002,
          3.69263552e-002, 1.81468084e-001, 1.11814275e-001,
          5.08382209e-002, 5.54285906e-002, 7.72305727e-002 ]
      - [ 3.38125750e-002, 8.11588671e-003, 5.92597909e-002,
          2.51208484e-001, 3.29038590e-001, 1.19939528e-001,
          3.63046154e-002, 2.73321308e-002, 3.09645571e-002,
          1.74011678e-001, 6.15181122e-003, 2.21898011e-003,
          7.31183514e-002, 3.29038590e-001, 8.24508369e-002,
          2.51198485e-002, 3.14803384e-002, 1.42436445e-001,
          1.14154585e-001, 3.12747024e-002, 2.38657862e-001,
          3.12956154e-001, 3.29038590e-001, 2.07803294e-001,
          1.11910276e-001, 8.94520357e-002, 1.76661789e-001,
          3.29038590e-001, 6.24893559e-003, 6.25941064e-003,
          2.93850247e-002, 1.17171682e-001, 1.18200220e-001,
          7.80400336e-002, 8.49048644e-002, 3.29038590e-001,
          2.77860105e-001, 2.22326652e-003, 1.15098781e-003,
          6.74157357e-003, 1.28969159e-002, 4.28057415e-003,
          1.74022687e-003, 6.07407093e-003, 2.60411024e-001,
          3.13112170e-001, 3.58095422e-004, 1.07155379e-003, 0., 0., 0.,
          6.64155581e-004, 2.21949129e-004, 3.12892526e-001,
          4.04540598e-001, 1.45568524e-003, 1.09151064e-004,
          1.28231349e-003, 2.00297800e-003, 2.24593468e-003,
          4.34557907e-004, 9.69674997e-003, 4.04540598e-001,
          4.04540598e-001, 2.38730281e-005, 7.14369235e-005, 0., 0., 0.,
          4.42770433e-005, 1.47966093e-005, 4.04540598e-001,
          2.61348307e-001, 4.62509785e-003, 2.55053956e-003,
          1.69718941e-003, 1.47202413e-003, 9.01581880e-005,
          6.80103956e-004, 2.53205071e-004, 2.41024822e-001,
          2.50418425e-001, 5.67052402e-002, 6.76306933e-002,
          2.13640586e-001, 3.55054200e-001, 1.35237281e-003,
          1.47890067e-003, 8.83117085e-004, 1.42457798e-001,
          3.55054200e-001, 3.52104125e-003, 7.39735842e-004,
          5.50273922e-004, 8.63700639e-004, 0., 4.24018108e-005,
          9.18038422e-005, 3.55054200e-001, 3.55054200e-001,
          1.33806795e-001, 1.17510654e-001, 2.02079907e-001,
          1.75215289e-001, 0., 5.55848063e-004, 1.35026313e-003,
          3.55054200e-001, 1.24890804e-001, 3.33329849e-002,
          1.61391035e-001, 2.02330172e-001, 3.03845376e-001,
          1.83553547e-001, 8.09210539e-002, 7.28442892e-002,
          1.80894107e-001, 3.03845376e-001, 3.97166517e-003,
          6.00400148e-003, 9.45623964e-003, 2.19020154e-002,
          3.44900154e-002, 4.18973416e-002, 5.11288717e-002,
          3.03845376e-001, 3.03845376e-001, 9.22570005e-003,
          4.35644761e-003, 4.89385948e-002, 2.63585925e-001,
          2.41424903e-001, 1.61306620e-001, 1.59523666e-001,
          3.03845376e-001, 3.03845376e-001, 4.58962796e-003,
          8.47383460e-004, 4.33284743e-003, 2.09086910e-002,
          5.31360321e-003, 6.91113807e-003, 1.68346521e-002,
          3.03845376e-001, 3.52924556e-001, 0., 9.06284695e-005,
          1.85379045e-004, 3.36088333e-003, 0., 1.84647197e-005,
          1.97850494e-003, 3.52924556e-001, 3.52924556e-001, 0., 0., 0.,
          0., 0., 0., 0., 3.52924556e-001, 3.52924556e-001, 0.,
          4.11947585e-005, 8.42632071e-005, 3.56488419e-003, 0., 0.,
          2.89781543e-004, 3.52924556e-001, 3.52924556e-001, 0., 0., 0.,
          0., 0., 0., 0., 3.52924556e-001, 3.47226411e-001,
          1.13580900e-004, 0., 0., 2.58058193e-003, 1.21704223e-004, 0.,
          1.55030750e-004, 3.47226411e-001, 3.47226411e-001,
          6.19120114e-002, 4.42033149e-002, 4.72797453e-002,
          3.15197334e-002, 2.18214327e-003, 3.02178576e-003,
          4.02849354e-003, 3.47226411e-001, 3.47226411e-001, 0., 0., 0.,
          2.44725822e-003, 2.67749303e-004, 0., 3.57763311e-005,
          3.47226411e-001, 3.47226411e-001, 1.78711012e-003,
          2.45768041e-003, 1.76383153e-004, 5.29816225e-002,
          9.02962014e-002, 6.13713972e-002, 9.05890241e-002,
          3.47226411e-001, 3.74317646e-001, 4.55765799e-002,
          1.32454587e-002, 9.86450724e-003, 5.11826426e-002,
          1.04767583e-001, 1.62932783e-001, 2.11766213e-001,
          3.74317646e-001, 3.74317646e-001, 2.05458030e-002,
          6.50583021e-003, 5.86210983e-003, 9.76581313e-003,
          1.70377782e-003, 7.96996802e-003, 3.86909693e-002,
          3.74317646e-001, 2.51160532e-001, 6.73911944e-002,
          3.05755865e-002, 1.69655867e-002, 3.85496207e-002,
          8.87596700e-003, 3.98315154e-002, 6.07415885e-002,
          2.12196782e-001, 3.05799156e-001, 2.64674611e-002,
          1.42074162e-002, 1.89312454e-002, 2.80604288e-002,
          1.82331691e-003, 1.20649319e-002, 3.38180587e-002,
          3.58806163e-001, 3.91991168e-001, 1.45870814e-004,
          4.10395616e-004, 1.03290763e-003, 1.65110407e-003, 0.,
          6.06475864e-004, 5.93083026e-003, 3.91991168e-001,
          3.91991168e-001, 2.06782152e-005, 6.18771010e-005, 0., 0., 0.,
          9.98329706e-005, 3.33625103e-005, 3.91991168e-001,
          2.69773126e-001, 8.56211816e-004, 2.17054458e-003,
          3.47783952e-003, 4.40125167e-003, 2.42383860e-004,
          2.30167271e-003, 7.37408549e-003, 3.01063716e-001,
          3.29896510e-001, 3.10173200e-004, 9.28156544e-004, 0., 0., 0.,
          1.49749452e-003, 5.00437687e-004, 3.30253720e-001,
          3.47449750e-001, 1.92328720e-004, 1.07349595e-004,
          1.72119908e-005, 3.54525750e-004, 5.26503245e-005,
          7.99938716e-005, 2.67326177e-005, 3.47449750e-001,
          3.47449750e-001, 2.68286932e-003, 1.00559846e-003,
          1.01885330e-002, 2.47519299e-001, 2.10095599e-001,
          9.93416458e-002, 1.13896847e-001, 3.47449750e-001,
          2.57977754e-001, 5.48826414e-004, 1.15576386e-003,
          7.90652470e-004, 5.31185931e-003, 0., 1.19990821e-003,
          4.00989258e-004, 2.48871014e-001, 2.48281419e-001,
          4.36010910e-003, 5.74909989e-003, 6.24442399e-002,
          3.47449750e-001, 1.82530925e-001, 4.67893220e-002,
          2.80410536e-002, 1.84805378e-001 ]
      - [ 8.12906176e-002, 4.38142242e-003, 3.42889056e-002,
          2.03070641e-001, 3.34178418e-001, 1.45222127e-001,
          4.30980101e-002, 3.53155956e-002, 8.33942592e-002,
          2.31455177e-001, 5.13677020e-003, 1.33245820e-002,
          5.48450127e-002, 1.30838484e-001, 2.61123590e-002,
          1.34550631e-002, 1.75975375e-002, 2.30217680e-001,
          3.29736590e-001, 3.23046148e-002, 8.20653588e-002,
          1.41600370e-001, 2.90538579e-001, 2.90572077e-001,
          1.84838161e-001, 1.23106800e-001, 3.02273452e-001,
          3.34178418e-001, 5.87817840e-003, 4.34325170e-003,
          8.34243465e-003, 3.54594998e-002, 4.18991521e-002,
          4.25455570e-002, 4.83267233e-002, 3.34178418e-001,
          2.75007039e-001, 4.44045803e-003, 1.45283551e-003,
          1.48762856e-003, 6.66547799e-004, 0., 0., 3.70439049e-003,
          2.77450681e-001, 3.19539636e-001, 4.89526708e-003, 0., 0., 0.,
          0., 1.19468349e-003, 4.00986196e-003, 3.14486563e-001,
          4.00716752e-001, 1.22186402e-003, 7.10664899e-004,
          1.32228175e-004, 0., 0., 4.17084433e-004, 8.87521717e-004,
          4.00716752e-001, 4.00716752e-001, 1.25828513e-003,
          4.41546086e-004, 0., 0., 0., 7.09506508e-004, 1.12218712e-003,
          4.00716752e-001, 2.50399083e-001, 5.79659920e-003,
          1.18555257e-003, 1.00177145e-004, 3.22893471e-003,
          3.20029241e-004, 4.03003069e-003, 2.36111926e-003,
          2.40747586e-001, 2.18059421e-001, 2.20448356e-002,
          5.71855754e-002, 1.65254816e-001, 3.49214733e-001,
          4.80043888e-003, 4.24603093e-003, 3.32821929e-003,
          1.65192202e-001, 3.49214733e-001, 2.57832906e-003,
          1.25457218e-003, 7.79155671e-005, 9.54465359e-004,
          2.63980706e-004, 1.64825842e-003, 3.10010719e-003,
          3.49214733e-001, 3.49214733e-001, 8.74164104e-002,
          1.43001050e-001, 2.23703653e-001, 2.85709172e-001,
          1.27356267e-003, 3.55043169e-003, 1.65555552e-002,
          3.49214733e-001, 2.96095014e-001, 5.33859208e-002,
          6.52264506e-002, 6.77867383e-002, 1.72127299e-002,
          1.48346260e-001, 1.55526072e-001, 1.17317326e-001,
          2.70411283e-001, 3.50580424e-001, 1.95273738e-002,
          5.91706717e-003, 4.91249189e-003, 2.10076757e-003,
          1.89798716e-002, 3.24818455e-002, 3.09484489e-002,
          3.50580424e-001, 3.50580424e-001, 6.05962127e-002,
          1.51208593e-002, 2.13435348e-002, 6.83174282e-003,
          3.80485430e-002, 4.69710976e-002, 1.15622118e-001,
          3.50580424e-001, 3.50580424e-001, 3.89197469e-002,
          6.21680357e-003, 8.59588850e-003, 2.82165920e-003,
          1.01566222e-002, 9.42831673e-003, 1.54401455e-002,
          3.50580424e-001, 3.52927148e-001, 9.44494561e-004,
          1.28242583e-003, 4.53400193e-004, 1.01190715e-004, 0.,
          1.19395112e-003, 3.98998527e-004, 3.52927148e-001,
          3.52927148e-001, 4.22397861e-004, 1.26397528e-003, 0., 0., 0.,
          1.27620867e-003, 4.26487561e-004, 3.52927148e-001,
          3.52927148e-001, 1.77519198e-003, 7.41529220e-004,
          7.51787389e-004, 2.01815084e-004, 0., 5.42705064e-004,
          1.81362964e-004, 3.52927148e-001, 3.52927148e-001,
          1.91999017e-004, 5.74534293e-004, 0., 0., 0., 5.80094813e-004,
          1.93857981e-004, 3.52927148e-001, 3.41921508e-001,
          1.93583453e-003, 1.98329869e-003, 4.37924522e-004,
          1.54219498e-003, 8.65885639e-004, 2.09783204e-003,
          6.36891928e-003, 3.41921508e-001, 3.41921508e-001,
          8.16082880e-002, 7.99051970e-002, 8.61567035e-002,
          4.92775775e-002, 3.91852763e-003, 8.95116478e-003,
          4.40043025e-002, 3.41921508e-001, 3.41921508e-001,
          1.44262111e-003, 1.22092641e-003, 9.63433937e-004,
          9.40513390e-004, 3.93584371e-004, 1.46227179e-003,
          5.44990133e-003, 3.41921508e-001, 3.41921508e-001,
          2.64211763e-002, 1.41794449e-002, 1.36645772e-002,
          2.35295072e-002, 8.09388012e-002, 7.91988149e-002,
          1.47705898e-001, 3.41921508e-001, 3.92854214e-001,
          4.74049784e-002, 1.91344507e-002, 9.23493691e-003,
          1.04167908e-002, 1.08990902e-002, 1.55940438e-002,
          5.99020012e-002, 3.92854214e-001, 3.92854214e-001,
          1.78286992e-002, 3.11855366e-003, 5.00258431e-003,
          4.31321701e-003, 3.27600539e-003, 4.36608447e-003,
          1.66867804e-002, 3.92854214e-001, 2.97873497e-001,
          3.49486396e-002, 2.72251200e-002, 2.30137091e-002,
          3.09987068e-002, 1.71613079e-002, 7.35078426e-003,
          1.60045456e-002, 2.56228030e-001, 3.02954972e-001,
          5.78883057e-003, 2.44631572e-003, 1.12336958e-002,
          1.41844759e-002, 3.96030163e-003, 3.86667438e-003,
          1.34945400e-002, 3.47131342e-001, 3.95689398e-001,
          6.35846809e-004, 3.78139266e-005, 1.56489972e-004,
          3.68417503e-004, 0., 0., 6.13550830e-004, 3.95689398e-001,
          3.95689398e-001, 0., 0., 0., 0., 0., 0., 0., 3.95689398e-001,
          2.80214965e-001, 0., 0., 0., 1.29973621e-003, 0., 0.,
          7.88851117e-004, 2.84813553e-001, 3.24320287e-001, 0., 0., 0.,
          0., 0., 0., 0., 3.23945135e-001, 3.54981869e-001,
          1.21967541e-003, 6.82636382e-005, 4.59904899e-004,
          1.03345304e-003, 3.89978784e-004, 1.28348969e-004,
          1.88644056e-003, 3.54981869e-001, 3.54981869e-001,
          7.60804117e-003, 1.08211592e-003, 9.55403410e-003,
          2.42175117e-001, 2.10578233e-001, 1.28593981e-001,
          1.32304206e-001, 3.54981869e-001, 2.47166663e-001,
          1.46275840e-003, 0., 1.49796286e-003, 5.99811366e-003,
          8.57953390e-004, 4.43588389e-004, 9.41225735e-004,
          2.34066576e-001, 1.97430402e-001, 6.33862009e-003, 0.,
          4.18058857e-002, 3.54981869e-001, 1.60054117e-001,
          5.55329397e-002, 3.29745673e-002, 2.06705302e-001 ]
      - [ 2.07964346e-001, 2.37278230e-002, 4.23813723e-002,
          9.05480757e-002, 3.26898605e-001, 1.31151393e-001,
          1.30978674e-001, 1.00763209e-001, 3.26898605e-001,
          3.26898605e-001, 2.42896052e-003, 2.12220987e-003,
          7.35288300e-003, 6.02234565e-002, 1.46990167e-002,
          2.40328163e-002, 2.38116309e-002, 3.26898605e-001,
          3.26898605e-001, 2.91943215e-002, 2.98153460e-002,
          2.49886718e-002, 5.13808019e-002, 6.94565400e-002,
          1.15457356e-001, 1.20648608e-001, 3.26898605e-001,
          3.26898605e-001, 1.09682058e-003, 7.38772796e-004,
          2.38023102e-004, 4.19849437e-003, 6.21778937e-003,
          1.45524563e-002, 2.18431875e-002, 3.26898605e-001,
          3.52929443e-001, 3.09294701e-004, 4.45382102e-005, 0.,
          3.58099132e-005, 0., 0., 0., 3.52929443e-001, 3.52929443e-001,
          2.37843524e-005, 7.11718603e-005, 0., 1.20088380e-005, 0., 0.,
          2.68097152e-004, 3.52929443e-001, 3.52929443e-001,
          1.11847203e-005, 0., 0., 0., 0., 0., 0., 3.52929443e-001,
          3.52929443e-001, 0., 0., 0., 3.24873166e-004, 0., 0.,
          1.78731443e-005, 3.52929443e-001, 3.15423787e-001,
          2.58434881e-002, 2.39087176e-002, 2.59404071e-002,
          5.60586788e-002, 7.26521364e-004, 3.47157329e-004,
          1.08494004e-003, 3.15423787e-001, 2.92860001e-001,
          9.05267075e-002, 1.18607119e-001, 2.17371851e-001,
          3.15423787e-001, 5.16293310e-002, 2.66150967e-003,
          4.46221977e-003, 1.61441490e-001, 3.15423787e-001,
          2.08569188e-002, 1.32215917e-002, 7.97033962e-003,
          8.94063339e-003, 5.08328842e-004, 5.89953677e-004,
          2.15234584e-003, 3.15423787e-001, 3.15423787e-001,
          9.26748738e-002, 9.55571309e-002, 1.19082585e-001,
          3.15423787e-001, 7.58779198e-002, 1.00718904e-002,
          1.64495427e-002, 2.69298553e-001, 3.51335078e-001,
          8.71837046e-003, 3.38612567e-003, 5.45490417e-004,
          6.38912618e-003, 5.91497123e-003, 2.05446873e-002,
          2.73321103e-002, 3.51335078e-001, 3.51335078e-001,
          7.24703888e-004, 4.20010561e-004, 0., 4.67036822e-004,
          2.70973658e-004, 1.83108926e-003, 2.87397043e-003,
          3.51335078e-001, 3.51335078e-001, 1.49805248e-002,
          1.43510792e-002, 1.75780226e-002, 4.38340716e-002,
          5.67684956e-002, 3.66714969e-002, 1.67607795e-002,
          3.51335078e-001, 3.51335078e-001, 2.83916062e-003,
          3.11171100e-003, 3.65375844e-003, 1.01333503e-002,
          1.97040546e-003, 2.52543227e-003, 7.59471965e-004,
          3.51335078e-001, 3.52929443e-001, 1.43989073e-005, 0., 0., 0.,
          0., 0., 0., 3.52929443e-001, 3.52929443e-001, 2.30093883e-005,
          0., 0., 2.62742222e-004, 0., 0., 0., 3.52929443e-001,
          3.52929443e-001, 2.82362686e-004, 1.98630732e-004,
          1.78699411e-004, 1.08731962e-004, 0., 0., 0., 3.52929443e-001,
          3.52929443e-001, 3.45140841e-004, 0., 0., 1.91585801e-004, 0.,
          1.03824314e-004, 3.46962588e-005, 3.52929443e-001,
          3.03173691e-001, 2.04723980e-003, 6.36307930e-004,
          8.23272130e-005, 7.80629739e-003, 8.17147456e-003,
          1.34879872e-002, 2.37508956e-002, 3.03173691e-001,
          2.22204253e-001, 1.14864344e-002, 1.03330966e-002,
          9.72771421e-002, 3.03173691e-001, 1.07268810e-001,
          8.66514891e-002, 9.59435329e-002, 3.03173691e-001,
          3.03173691e-001, 1.37783505e-003, 0., 1.60584191e-003,
          5.59961349e-002, 5.02867363e-002, 2.99327746e-002,
          3.76878455e-002, 3.03173691e-001, 1.51904806e-001,
          3.64337396e-003, 1.65151581e-002, 9.20960009e-002,
          3.03173691e-001, 3.03173691e-001, 1.60542130e-001,
          1.26354799e-001, 3.03173691e-001, 2.79445797e-001,
          1.66495323e-001, 2.24793404e-001, 2.32975304e-001,
          2.79445797e-001, 2.79445797e-001, 1.49632499e-001,
          8.06665272e-002, 2.79445797e-001, 2.79445797e-001,
          1.88736524e-002, 3.80935296e-002, 4.52071168e-002,
          8.89000446e-002, 1.42763220e-002, 1.68082602e-002,
          1.17601641e-002, 2.79445797e-001, 1.43626347e-001,
          2.13197619e-001, 2.23278955e-001, 2.79445797e-001,
          2.79445797e-001, 1.01068750e-001, 4.46463637e-002,
          9.47951227e-002, 1.20137759e-001, 7.69226551e-002,
          1.00824079e-002, 3.70714404e-002, 1.06466934e-001,
          1.45248249e-001, 1.61058512e-002, 1.29940640e-002,
          1.11122718e-002, 8.21104571e-002, 4.55709189e-001,
          3.78616923e-003, 7.41719315e-003, 5.05408086e-003,
          3.69433756e-003, 0., 7.10534910e-003, 2.37448886e-003,
          4.55709189e-001, 4.55709189e-001, 6.03599194e-003,
          1.07534826e-002, 0., 7.07749696e-003, 0., 5.22684585e-003,
          1.74672285e-003, 4.55709189e-001, 1.88083053e-001,
          1.95875787e-003, 9.14168544e-003, 1.14693847e-002,
          3.60447099e-003, 0., 9.13544837e-003, 3.05291428e-003,
          1.88083053e-001, 2.15495691e-001, 5.47048915e-003,
          1.63697917e-002, 0., 7.76009215e-003, 3.33166844e-003,
          6.46498660e-003, 2.16049002e-003, 2.15495691e-001,
          1.21961564e-001, 3.53798666e-003, 3.09589854e-003,
          6.79118233e-003, 1.51232958e-001, 1.13016762e-001,
          2.62724999e-002, 1.83881484e-002, 1.62838638e-001,
          6.49088174e-002, 2.82327980e-002, 4.72846143e-002,
          8.19252580e-002, 3.71777147e-001, 3.71777147e-001,
          2.64196783e-001, 2.82277822e-001, 1.39380962e-001,
          3.19490619e-002, 1.14316931e-002, 9.34244506e-003,
          1.00665353e-002, 7.87802041e-002, 4.78441715e-002,
          1.41948005e-002, 6.38828892e-003, 2.61720791e-002,
          5.22566475e-002, 5.00910357e-002, 2.64181793e-002,
          4.64356914e-002, 3.71777147e-001, 3.71777147e-001,
          2.70048529e-001, 2.92017907e-001, 7.31966197e-002 ]
      - [ 2.30882645e-001, 1.75600290e-001, 2.30882645e-001,
          2.30228111e-001, 1.41947761e-001, 8.67599994e-002,
          6.46496788e-002, 7.17610195e-002, 1.56081110e-001,
          3.69344614e-002, 1.43396497e-001, 2.30882645e-001,
          2.30882645e-001, 2.30882645e-001, 1.07368872e-001,
          1.52375072e-001, 1.36081427e-001, 8.84955451e-002,
          2.07586288e-001, 8.22533295e-002, 7.23974332e-002,
          6.46788999e-002, 8.88076276e-002, 2.30882645e-001,
          2.08782196e-001, 2.11733431e-001, 2.30882645e-001,
          9.12138373e-002, 6.99977055e-002, 8.25218856e-002,
          6.98341578e-002, 5.09025902e-002, 2.30882645e-001,
          2.30882645e-001, 2.30882645e-001, 2.30882645e-001,
          5.11866696e-002, 6.93112090e-002, 1.01210758e-001,
          1.35194853e-001, 1.94989249e-001, 1.02921553e-001,
          2.12212592e-001, 2.01430306e-001, 2.11324662e-001,
          3.18833031e-002, 1.25418808e-002, 7.84353260e-003,
          1.28948800e-002, 4.69622575e-002, 7.34276548e-002,
          1.38724089e-001, 1.30465463e-001, 8.31295922e-002,
          9.98437405e-002, 2.78655402e-002, 3.37756202e-002,
          3.57137844e-002, 3.12955193e-002, 2.68215179e-001,
          3.11761975e-001, 3.11761975e-001, 3.11761975e-001,
          7.81211555e-002, 1.99543610e-002, 1.89398266e-002,
          5.07648252e-002, 6.47775084e-002, 2.16790646e-001,
          3.11761975e-001, 3.11761975e-001, 3.11761975e-001,
          3.62591520e-002, 1.31397089e-002, 2.38868743e-002,
          4.36880030e-002, 1.64026499e-001, 1.84292018e-001,
          2.08082289e-001, 1.76475793e-001, 8.91676173e-002,
          2.22470816e-002, 9.31539387e-003, 1.77716650e-002,
          4.50385250e-002, 2.11519510e-001, 9.65993330e-002,
          8.86015818e-002, 7.52581507e-002, 5.22929542e-002,
          2.26660430e-001, 6.48372620e-002, 1.12796776e-001,
          1.88937932e-001, 1.91564560e-001, 2.52456635e-001,
          2.52456635e-001, 2.52456635e-001, 2.52456635e-001,
          2.52456635e-001, 1.60836741e-001, 1.91036448e-001,
          2.30467662e-001, 2.52456635e-001, 2.35760421e-001,
          1.04940131e-001, 1.27244025e-001, 2.35871136e-001,
          1.58199981e-001, 5.76189272e-002, 3.81170437e-002,
          2.40538586e-002, 6.10061586e-002, 2.74768382e-001,
          2.66059965e-001, 2.74765998e-001, 2.74768382e-001,
          1.15602173e-001, 5.30601926e-002, 4.51839492e-002,
          3.36937159e-002, 3.39828655e-002, 2.74768382e-001,
          2.74768382e-001, 2.74768382e-001, 2.74768382e-001,
          3.53839286e-002, 4.53982241e-002, 3.95603850e-002,
          6.25676438e-002, 8.67519304e-002, 5.61319627e-002,
          9.10905749e-002, 9.59638879e-002, 8.21667537e-002,
          7.84053877e-002, 8.27644542e-002, 8.03940669e-002,
          1.23527624e-001, 1.17913283e-001, 2.74768382e-001,
          2.74768382e-001, 2.74768382e-001, 1.56617701e-001,
          6.30618259e-002, 9.57545917e-003, 6.87514851e-003,
          1.38713364e-002, 1.30422432e-002, 1.98461607e-001,
          2.45813087e-001, 2.45813087e-001, 2.45813087e-001,
          1.09898694e-001, 1.28503172e-002, 9.01573896e-003,
          2.84613557e-002, 1.98210739e-002, 2.09916577e-001,
          2.45813087e-001, 2.45813087e-001, 2.45813087e-001,
          1.25560805e-001, 4.35212962e-002, 2.40541343e-002,
          4.39238884e-002, 3.83039340e-002, 2.45813087e-001,
          2.45813087e-001, 2.29466632e-001, 2.45813087e-001,
          1.86423644e-001, 1.91229731e-002, 7.84152839e-003,
          2.53046863e-002, 2.14961376e-002, 2.45813087e-001,
          2.45813087e-001, 2.45813087e-001, 2.45813087e-001,
          1.55694380e-001, 1.23296045e-002, 1.57635715e-002,
          3.30644846e-002, 3.27246115e-002, 1.80557564e-001,
          2.07919776e-001, 1.91701964e-001, 2.60433912e-001,
          1.59344375e-001, 5.93228750e-002, 5.95762879e-002,
          9.84285101e-002, 2.10228249e-001, 1.37418717e-001,
          8.76868591e-002, 8.95383507e-002, 1.94788620e-001,
          2.28518859e-001, 7.29653938e-003, 6.96828403e-003,
          1.93259306e-002, 4.19766009e-002, 2.60433912e-001,
          2.60433912e-001, 2.60433912e-001, 2.60433912e-001,
          2.60433912e-001, 1.11562379e-001, 9.08908993e-002,
          1.20426118e-001, 2.11360738e-001, 1.64343670e-001,
          1.65658757e-001, 1.88576147e-001, 2.60433912e-001,
          3.65380384e-002, 8.60449821e-002, 7.67471567e-002,
          9.72185731e-002, 1.60138085e-001, 1.09304167e-001,
          1.06406845e-001, 7.51471370e-002, 4.01263908e-002,
          1.61720455e-001, 2.13711336e-001, 2.05929294e-001,
          2.60901660e-001, 2.60901660e-001, 2.60901660e-001,
          2.60901660e-001, 2.60230750e-001, 1.55882686e-001,
          2.50849649e-002, 1.49972849e-002, 1.85479242e-002,
          2.94357892e-002, 1.25852197e-001, 2.06267878e-001,
          2.48089224e-001, 9.21971500e-002, 3.63178849e-002,
          1.36597484e-001, 8.35070908e-002, 4.86502610e-002,
          7.24852905e-002, 2.31584281e-001, 2.60901660e-001,
          2.60901660e-001, 2.60901660e-001, 1.25295952e-001,
          1.42919779e-001, 8.26836526e-002, 3.70875262e-002,
          6.09536581e-002, 8.80397409e-002, 2.12007657e-001,
          2.37607449e-001, 1.94114521e-001, 2.37437561e-001,
          1.64724588e-001, 2.94584148e-002, 8.68367963e-003,
          1.91587079e-002, 3.87666151e-002, 2.56716162e-001,
          2.56716162e-001, 2.56716162e-001, 2.56716162e-001,
          1.40696660e-001, 5.34775518e-002, 1.67178027e-002,
          2.19740439e-002, 1.05584569e-001, 1.36556208e-001,
          2.29340985e-001, 1.77044109e-001, 1.80200353e-001,
          1.90767765e-001, 3.83196436e-002, 4.69569825e-002,
          8.94595496e-003, 1.10780574e-001, 2.20347568e-001,
          2.56716162e-001, 2.56716162e-001, 2.56716162e-001,
          1.21882372e-001, 4.77662589e-003, 6.42919447e-003,
          1.63426157e-002, 4.77524959e-002, 1.70801491e-001,
          2.58208007e-001, 2.40550458e-001, 2.58208007e-001,
          2.29360983e-001, 1.22385524e-001, 1.43070519e-001,
          1.49755433e-001, 1.48591459e-001, 1.07171170e-001,
          1.04203455e-001, 1.18802443e-001, 2.58208007e-001,
          1.35484025e-001, 3.88986655e-002, 5.59444614e-002,
          6.55258521e-002, 2.12883741e-001, 1.96848482e-001,
          2.16645434e-001, 1.91181660e-001, 2.58208007e-001,
          9.56201479e-002, 1.18561260e-001, 1.37507573e-001,
          2.58208007e-001, 2.58208007e-001, 2.24796966e-001,
          8.92421082e-002, 8.59235972e-002, 1.45026997e-001 ]
      - [ 2.63534069e-001, 9.97280888e-003, 5.96356299e-003,
          1.01171006e-002, 1.25275940e-001, 6.93731904e-002,
          7.92932510e-002, 1.65337354e-001, 3.74345392e-001,
          2.72022903e-001, 9.41563956e-003, 8.15135147e-003,
          4.61754203e-002, 3.74345392e-001, 1.46364346e-001,
          1.42753735e-001, 2.53092289e-001, 3.74345392e-001,
          1.31612480e-001, 1.57913417e-002, 1.15708346e-002,
          1.17401462e-002, 2.38432009e-002, 9.83973499e-003,
          1.77024249e-002, 3.02956030e-002, 1.46433145e-001,
          7.31494129e-002, 1.42773343e-002, 1.89334601e-002,
          1.54049441e-001, 3.74345392e-001, 1.83757782e-001,
          5.96435517e-002, 4.72924337e-002, 1.39197513e-001,
          1.07691355e-001, 1.58611573e-002, 2.13623960e-002,
          7.49808475e-002, 2.98976034e-001, 1.41549021e-001,
          1.10623173e-001, 1.61740258e-001, 2.98976034e-001,
          2.98976034e-001, 1.67622030e-001, 1.06128111e-001,
          1.28240332e-001, 2.16524422e-001, 7.24346265e-002,
          4.30137776e-002, 5.83129600e-002, 2.63870537e-001,
          4.28744704e-002, 2.30844095e-002, 4.69414294e-002,
          1.94760144e-001, 2.98976034e-001, 1.97138250e-001,
          5.67547120e-002, 1.75809059e-002, 2.22901385e-002,
          2.98976034e-001, 1.90571666e-001, 1.41908824e-001,
          1.87646255e-001, 2.98976034e-001, 1.48798436e-001,
          4.40314636e-002, 7.94163067e-003, 1.76525060e-002,
          2.78522670e-001, 2.78522670e-001, 2.37052470e-001,
          2.34275788e-001, 2.37725332e-001, 3.24548036e-002,
          4.38375352e-003, 1.21035548e-002, 1.89785004e-001,
          2.78522670e-001, 1.91102415e-001, 1.50433093e-001,
          1.44379035e-001, 1.27694830e-001, 3.20289321e-002,
          6.52710395e-003, 9.04826913e-003, 2.78522670e-001,
          2.78522670e-001, 2.78522670e-001, 1.65193990e-001,
          1.48498893e-001, 2.78522670e-001, 4.39993888e-002,
          8.58547725e-003, 1.21108601e-002, 3.58053409e-002,
          2.13339433e-001, 1.30909398e-001, 9.83895883e-002,
          7.92470351e-002, 6.26791567e-002, 1.97406691e-002,
          1.21704927e-002, 3.44829410e-002, 1.21921696e-001,
          1.11948952e-001, 2.89030392e-002, 2.18536686e-002,
          2.29462665e-002, 2.65561789e-002, 2.01501418e-002,
          4.63141501e-002, 5.62623255e-002, 1.04238391e-001,
          6.33502230e-002, 1.40631152e-002, 2.72196177e-002,
          3.11493576e-001, 4.27271932e-001, 3.33251566e-001,
          7.00863004e-002, 3.77701893e-002, 6.26726970e-002,
          1.27624676e-001, 6.54697120e-002, 4.44468819e-002,
          3.76881324e-002, 2.90920064e-002, 2.54952703e-002,
          3.69480066e-002, 3.83056439e-002, 7.48273134e-002,
          4.89642806e-002, 3.59209441e-002, 5.52515611e-002,
          4.27271932e-001, 4.27271932e-001, 3.84422094e-001,
          4.22205366e-002, 2.09695902e-002, 4.94346656e-002,
          6.15220703e-003, 4.34450759e-003, 1.52009856e-002,
          1.63305208e-001, 4.55514491e-001, 1.61413059e-001,
          1.58454049e-002, 2.20580422e-003, 2.37947446e-003,
          4.33178805e-002, 3.60121094e-002, 3.57188433e-002,
          1.36027262e-001, 4.55514491e-001, 8.95459130e-002,
          1.21917780e-002, 1.70746876e-003, 2.90179462e-003,
          1.88556232e-003, 2.51349458e-003, 4.11052862e-003,
          1.74718395e-001, 4.55514491e-001, 1.67613596e-001,
          4.39676968e-003, 1.23673247e-003, 2.26355973e-003,
          2.63762171e-003, 4.87532513e-003, 6.73422916e-003,
          1.19430758e-001, 4.55514491e-001, 8.97736028e-002,
          3.96874588e-004, 2.45138217e-004, 4.30635177e-004,
          1.90172836e-001, 1.40902385e-001, 8.46395642e-002,
          1.54918656e-001, 3.82929116e-001, 4.73504029e-002,
          1.96975656e-002, 3.58782709e-002, 7.84766898e-002,
          1.86153457e-001, 9.86931920e-002, 6.62652552e-002,
          5.84284924e-002, 1.46038845e-001, 1.29769489e-001,
          8.03127363e-002, 1.22847445e-001, 2.11189657e-001,
          5.04538119e-002, 6.30774051e-002, 6.54997453e-002,
          2.02080756e-001, 3.82929116e-001, 1.94885150e-001,
          3.99819985e-002, 2.37627327e-002, 3.51143405e-002,
          6.73660934e-002, 6.93501681e-002, 6.56316504e-002,
          1.54465526e-001, 3.82929116e-001, 3.73723388e-001,
          1.27174854e-001, 8.12085718e-002, 9.75859538e-002,
          2.90698230e-001, 1.66130401e-002, 1.23468582e-002,
          1.16203213e-002, 6.96748774e-003, 5.77432290e-003,
          2.31559109e-003, 3.44657898e-003, 2.96418011e-001,
          2.50990570e-001, 6.75356090e-002, 5.11493571e-002,
          1.19452804e-001, 3.50774705e-001, 8.35911855e-002,
          2.27899570e-003, 3.66682955e-003, 2.14230925e-001,
          3.62707645e-001, 1.32169975e-002, 3.00706038e-003,
          2.11052294e-003, 7.51710357e-003, 1.51147293e-002,
          2.56552594e-003, 4.90134303e-003, 3.62707645e-001,
          3.62707645e-001, 1.20108835e-001, 5.06793149e-002,
          4.12534066e-002, 1.14149719e-001, 4.45432626e-002,
          1.07447747e-002, 4.89993244e-002, 3.62707645e-001,
          1.02867469e-001, 6.73657432e-002, 4.48830053e-002,
          1.65176004e-001, 3.87986720e-001, 1.36261046e-001,
          8.97295307e-004, 3.29825841e-003, 3.99826430e-002,
          8.67777318e-003, 1.52745303e-002, 7.06395786e-003,
          1.12970702e-001, 3.87986720e-001, 1.22953586e-001,
          6.17514946e-004, 1.84143055e-003, 7.04855265e-005,
          3.64751160e-001, 1.38764054e-001, 6.06246516e-002,
          1.15259506e-001, 3.87986720e-001, 1.03526168e-001,
          2.51374636e-002, 6.33270219e-002, 2.65987158e-001,
          3.86014804e-002, 3.61053273e-002, 1.28677106e-002,
          1.39137208e-001, 3.87986720e-001, 1.49164543e-001,
          1.93031691e-002, 2.24833805e-002, 1.83733851e-002,
          1.91112910e-003, 1.36338370e-002, 3.91620472e-002,
          1.80966422e-001, 3.57336849e-001, 2.05822319e-001,
          3.09100263e-002, 1.72717348e-002, 2.73268874e-004,
          1.76069066e-002, 2.84310523e-002, 7.19787180e-002,
          1.90960959e-001, 3.57336849e-001, 2.44473219e-001,
          6.22451268e-002, 4.09333073e-002, 1.43144187e-002,
          2.63180491e-002, 2.82435697e-002, 5.27374558e-002,
          2.13248536e-001, 3.57336849e-001, 2.29884058e-001,
          7.60958269e-002, 7.28962049e-002, 3.59184779e-002,
          8.21486264e-002, 7.32288137e-002, 1.37106627e-001,
          3.16090524e-001, 3.57336849e-001, 1.81360245e-001,
          7.19931573e-002, 1.06934831e-001, 6.30516931e-002 ]
      - [ 1.36560544e-001, 6.53450936e-002, 6.19487762e-002,
          1.71518177e-001, 2.69661248e-001, 2.13996306e-001,
          6.40724823e-002, 5.27149625e-002, 1.37615725e-001,
          1.51676759e-001, 1.44472504e-002, 1.94616299e-002,
          1.17005154e-001, 2.69661248e-001, 1.86742827e-001,
          1.06078833e-001, 1.08364291e-001, 1.97824478e-001,
          2.69661248e-001, 6.06436953e-002, 2.70325076e-002,
          2.25331597e-002, 2.04144120e-001, 2.55452007e-001,
          1.47056058e-001, 1.59672588e-001, 2.69661248e-001,
          2.69661248e-001, 3.59868817e-002, 2.03663874e-002,
          2.74088103e-002, 1.27953291e-001, 2.36513183e-001,
          1.54951826e-001, 2.02916279e-001, 2.69661248e-001,
          1.46390855e-001, 5.26506901e-002, 7.52950832e-002,
          1.08790949e-001, 2.51020938e-001, 1.40593290e-001,
          1.30314097e-001, 1.35826126e-001, 1.60358861e-001,
          3.09428256e-002, 4.05124389e-002, 9.61026549e-002,
          1.09404013e-001, 1.85369268e-001, 1.24721259e-001,
          9.50216949e-002, 7.63449073e-002, 3.31253856e-002,
          2.58071512e-001, 1.38807610e-001, 7.51795396e-002,
          7.43767768e-002, 1.33718640e-001, 2.58071512e-001,
          2.28408560e-001, 2.58071512e-001, 2.58071512e-001,
          2.32855976e-001, 1.39402404e-001, 6.91910610e-002,
          6.25614524e-002, 8.03028047e-002, 2.58071512e-001,
          2.58071512e-001, 2.58071512e-001, 2.58071512e-001,
          6.16741851e-002, 1.49705214e-002, 6.99079782e-002,
          1.29362851e-001, 2.70784050e-001, 1.56922325e-001,
          1.02348536e-001, 7.66928345e-002, 8.25146139e-002,
          9.82465819e-002, 6.86428472e-002, 6.84096217e-002,
          1.30946472e-001, 1.61293790e-001, 7.20183253e-002,
          5.54795340e-002, 1.97950136e-002, 8.82197917e-002,
          2.32229874e-001, 4.95512187e-002, 5.49416170e-002,
          7.51967132e-002, 1.12337597e-001, 2.77683884e-001,
          2.77683884e-001, 2.77683884e-001, 2.77683884e-001,
          2.55534053e-001, 1.08151838e-001, 2.08909184e-001,
          2.77683884e-001, 2.77683884e-001, 1.46258011e-001,
          1.15971446e-001, 8.92071947e-002, 2.60863870e-001,
          2.48451233e-001, 4.84740920e-002, 8.34327377e-003,
          2.91907582e-002, 9.06814486e-002, 2.48451233e-001,
          1.50625691e-001, 1.77143544e-001, 2.48451233e-001,
          2.48451233e-001, 4.34273928e-002, 1.16649820e-002,
          2.49371473e-002, 5.73802702e-002, 2.41370752e-001,
          1.88812956e-001, 2.09319875e-001, 2.48451233e-001,
          2.48451233e-001, 4.32940237e-002, 2.50675865e-002,
          5.72243929e-002, 7.07678944e-002, 1.50683194e-001,
          8.07898715e-002, 1.08211480e-001, 2.48451233e-001,
          2.48451233e-001, 3.31059359e-002, 1.16150025e-002,
          2.42553446e-002, 7.80810863e-002, 2.48451233e-001,
          2.22804055e-001, 2.48451233e-001, 2.48451233e-001,
          2.38713548e-001, 7.30556026e-002, 2.99548898e-002,
          2.99831349e-002, 4.65088785e-002, 2.20229700e-001,
          1.62062243e-001, 1.95350617e-001, 2.25857571e-001,
          2.26071343e-001, 8.57002586e-002, 3.21843773e-002,
          3.12400907e-002, 2.83856019e-002, 2.38713548e-001,
          2.38713548e-001, 2.38713548e-001, 2.38713548e-001,
          1.58198252e-001, 2.90456787e-002, 3.48928683e-002,
          1.72677953e-002, 3.52763906e-002, 1.86957240e-001,
          2.38713548e-001, 2.38713548e-001, 2.38713548e-001,
          1.74309313e-001, 3.69062163e-002, 4.45536934e-002,
          2.42164787e-002, 4.39227633e-002, 2.10999012e-001,
          2.38713548e-001, 2.21171126e-001, 2.38713548e-001,
          1.70205817e-001, 1.43025964e-002, 8.87732860e-003,
          1.80657730e-002, 2.15941891e-002, 2.39425540e-001,
          2.21967146e-001, 2.29954854e-001, 2.39425540e-001,
          1.92122370e-001, 9.67841689e-003, 4.47716713e-002,
          1.33284837e-001, 2.39425540e-001, 1.47046283e-001,
          1.19654581e-001, 1.14227839e-001, 2.39425540e-001,
          2.39425540e-001, 2.86639724e-002, 1.76722221e-002,
          1.29532330e-002, 3.34006660e-002, 1.84376195e-001,
          1.89940229e-001, 1.61531493e-001, 2.39425540e-001,
          2.39425540e-001, 4.26653400e-002, 7.11143762e-002,
          1.11693524e-001, 2.00708911e-001, 2.39425540e-001,
          2.39425540e-001, 1.67886704e-001, 2.39425540e-001,
          1.68402046e-001, 1.40049785e-001, 1.04057148e-001,
          1.37743294e-001, 1.97377294e-001, 1.24167167e-001,
          9.50389132e-002, 8.45998451e-002, 1.77484214e-001,
          2.63035983e-001, 1.13196403e-001, 5.39106354e-002,
          1.06509447e-001, 2.03044981e-001, 2.63035983e-001,
          2.43527025e-001, 2.63035983e-001, 2.63035983e-001,
          5.37110902e-002, 6.31696433e-002, 5.84155470e-002,
          1.31545097e-001, 2.63035983e-001, 2.63035983e-001,
          1.86987549e-001, 6.66233972e-002, 1.19588614e-001,
          1.48102492e-001, 6.30211532e-002, 5.80077060e-002,
          1.25755414e-001, 2.22527817e-001, 1.84958279e-001,
          1.31463170e-001, 7.47721195e-002, 2.04509333e-001,
          1.16773978e-001, 2.16879863e-002, 1.88084096e-002,
          2.41870601e-002, 3.41969021e-002, 1.72784761e-001,
          2.78884590e-001, 2.78884590e-001, 2.78884590e-001,
          2.19882339e-001, 8.67644176e-002, 4.67476137e-002,
          1.53392013e-002, 3.73577103e-002, 2.78884590e-001,
          2.78884590e-001, 2.78884590e-001, 2.78884590e-001,
          5.62393703e-002, 1.25167919e-002, 1.68580525e-002,
          5.16382903e-002, 6.31768331e-002, 1.23283617e-001,
          1.70496002e-001, 5.51039949e-002, 5.70568331e-002,
          2.50683755e-001, 1.22561499e-001, 7.87132606e-002,
          4.48727198e-002, 6.93656802e-002, 2.54028529e-001,
          2.78884590e-001, 1.65792942e-001, 1.59734473e-001,
          2.51923651e-001, 1.10232078e-001, 5.72861321e-002,
          3.32876220e-002, 5.89897782e-002, 1.70405477e-001,
          2.11678907e-001, 1.36962786e-001, 2.17135340e-001,
          1.97310671e-001, 8.56453627e-002, 9.66342166e-002,
          1.22944884e-001, 2.53500551e-001, 2.53500551e-001,
          2.33720645e-001, 1.24708056e-001, 1.96198165e-001,
          2.08365083e-001, 1.25388101e-001, 8.52156579e-002,
          8.55388492e-002, 1.13312721e-001, 2.08161533e-001,
          2.04470173e-001, 1.06716178e-001, 1.41647652e-001,
          9.64643955e-002, 5.46149313e-002, 6.15713596e-002,
          1.73577502e-001, 2.53500551e-001, 2.53500551e-001,
          2.53500551e-001, 1.03939831e-001, 1.15601532e-001 ]
      - [ 4.17327927e-003, 1.15324231e-002, 1.61471128e-001,
          3.27061951e-001, 3.27061951e-001, 8.71827826e-002,
          5.13833947e-003, 6.11588534e-004, 4.04385710e-003,
          3.17316018e-002, 7.89951719e-003, 5.08830175e-002,
          1.61267087e-001, 3.27061951e-001, 1.47905618e-001,
          1.39955916e-002, 2.76614306e-003, 3.16400155e-002,
          1.01082101e-002, 7.91574735e-003, 1.42193526e-001,
          3.27061951e-001, 3.27061951e-001, 1.53623357e-001,
          3.12655382e-002, 1.92942396e-002, 1.49372816e-002,
          2.07026601e-001, 5.93178533e-003, 2.76020840e-002,
          1.34815410e-001, 3.27061951e-001, 3.06551486e-001,
          9.50585455e-002, 7.65335411e-002, 2.28134021e-001,
          1.19132750e-001, 5.49992023e-004, 1.64578587e-003,
          1.10664060e-002, 3.94525617e-001, 6.44370615e-002,
          1.21235363e-002, 3.01012932e-003, 1.19340576e-001,
          1.55507177e-001, 9.12844145e-004, 2.73157773e-003, 0., 0., 0.,
          1.55561196e-003, 5.19859546e-004, 1.55026019e-001,
          4.08032656e-001, 4.27771563e-004, 1.28005561e-003,
          4.99222893e-003, 2.48987839e-001, 1.50528371e-001,
          6.91399574e-002, 6.12239465e-002, 4.08032656e-001,
          4.08032656e-001, 7.09989865e-004, 2.12456076e-003, 0., 0., 0.,
          1.20992039e-003, 4.04335209e-004, 4.08032656e-001,
          1.48292840e-001, 2.39764177e-003, 3.54549661e-003,
          1.15494095e-002, 3.00457701e-003, 0., 0., 2.12284015e-003,
          1.59375295e-001, 1.12016752e-001, 3.55290137e-002,
          2.82646436e-002, 1.22358881e-001, 1.36398777e-001,
          3.27331498e-002, 1.75491590e-002, 1.84635501e-002,
          1.50905594e-001, 4.57979769e-001, 1.16668514e-003,
          1.80111569e-003, 5.62372990e-003, 1.18433218e-003, 0., 0.,
          4.67024837e-003, 4.57979769e-001, 4.57979769e-001,
          1.48313791e-001, 4.78814840e-002, 6.77202940e-002,
          6.97068423e-002, 2.06712782e-002, 4.72665019e-003,
          4.43284884e-002, 4.57979769e-001, 2.18732432e-002,
          5.47896465e-003, 1.82580620e-001, 3.12419981e-001,
          3.12419981e-001, 1.65405691e-001, 5.50400689e-002,
          4.57976274e-002, 4.77607958e-002, 3.12419981e-001,
          6.01343717e-003, 2.03958508e-002, 1.20547161e-001,
          3.12419981e-001, 2.97531724e-001, 1.36176735e-001,
          1.59679115e-001, 3.12419981e-001, 3.60419303e-002,
          3.32958736e-002, 1.19622827e-001, 3.12419981e-001,
          3.00177306e-001, 4.49758880e-002, 3.40992548e-002,
          1.46378949e-002, 4.37993221e-002, 1.41619250e-001,
          7.90458079e-003, 1.63571555e-002, 5.91231957e-002,
          1.43423796e-001, 3.88870724e-002, 3.52711789e-002,
          3.20741944e-002, 1.86280489e-001, 3.94761413e-001,
          2.90407473e-003, 3.04411538e-003, 1.22187356e-003,
          5.14619090e-002, 6.71791658e-002, 4.30854894e-002,
          5.96012585e-002, 3.94761413e-001, 3.94761413e-001,
          2.44276505e-003, 1.60110800e-003, 3.39540397e-003,
          8.45611561e-003, 1.24335056e-003, 4.16967925e-003,
          4.31352062e-003, 3.94761413e-001, 2.51532972e-001,
          7.98660703e-003, 1.58222038e-002, 2.38890108e-002,
          6.92223832e-002, 1.39125725e-002, 1.71355549e-002,
          1.18422089e-002, 2.65787572e-001, 3.16179305e-001,
          1.20903263e-002, 1.90896280e-002, 3.90348025e-002,
          1.36422202e-001, 3.34057510e-002, 2.84352768e-002,
          1.08862603e-002, 3.11637551e-001, 3.98428112e-001,
          2.60233949e-003, 1.40027783e-003, 4.69092000e-003,
          7.14088790e-003, 2.91439192e-003, 3.59286880e-003,
          5.14814211e-003, 3.98428112e-001, 3.98428112e-001,
          6.10876009e-002, 1.45233981e-002, 1.23863742e-002,
          1.12281721e-002, 4.93347086e-003, 1.17791770e-002,
          2.68754475e-002, 3.98428112e-001, 2.82001138e-001,
          1.22786006e-002, 1.82047803e-002, 4.04379442e-002,
          1.20848387e-001, 4.73697819e-002, 2.76582651e-002,
          9.91521031e-003, 2.53780901e-001, 3.31730157e-001,
          1.48244388e-002, 3.34953703e-002, 5.90681732e-002,
          7.61226490e-002, 3.74244861e-002, 2.73068119e-002,
          2.00478397e-002, 2.62347132e-001, 1.84750468e-001,
          1.98400453e-001, 2.58765101e-001, 3.24383050e-001,
          3.24383050e-001, 8.53574648e-002, 1.39207527e-001,
          5.27465865e-002, 1.47199064e-001, 3.86146829e-002,
          1.32602695e-002, 3.73428315e-002, 1.73022151e-001,
          3.24383050e-001, 1.54546589e-001, 1.05726339e-001,
          2.80195922e-002, 3.44311744e-002, 9.35899094e-002,
          7.63351023e-002, 3.85510847e-002, 6.94256425e-002,
          3.24383050e-001, 2.54536957e-001, 1.40072733e-001,
